<?xml version="1.0"?>
<MethodSetup Method="BDT::BDTG_bnesstagger_E1_bjet">
  <GeneralInfo>
    <Info name="TMVA Release" value="4.1.0 [262400]"/>
    <Info name="ROOT Release" value="5.28/00 [334848]"/>
    <Info name="Creator" value="kurata"/>
    <Info name="Date" value="Thu Sep 10 12:02:58 2015"/>
    <Info name="Host" value="Linux cw104.cc.kek.jp 2.6.18-164.el5 #1 SMP Tue Aug 18 15:51:48 EDT 2009 x86_64 x86_64 x86_64 GNU/Linux"/>
    <Info name="Dir" value="/gpfs/fs01/ilc/users/kurata/myAna/Ana/test"/>
    <Info name="Training events" value="50000"/>
    <Info name="TrainingTime" value="33.7695"/>
    <Info name="AnalysisType" value="Classification"/>
  </GeneralInfo>
  <Options>
    <Option name="V" modified="Yes">False</Option>
    <Option name="VerbosityLevel" modified="No">Default</Option>
    <Option name="VarTransform" modified="No">None</Option>
    <Option name="H" modified="Yes">False</Option>
    <Option name="CreateMVAPdfs" modified="No">False</Option>
    <Option name="IgnoreNegWeightsInTraining" modified="No">False</Option>
    <Option name="NTrees" modified="Yes">700</Option>
    <Option name="RenormByClass" modified="No">False</Option>
    <Option name="BoostType" modified="Yes">Grad</Option>
    <Option name="AdaBoostR2Loss" modified="No">quadratic</Option>
    <Option name="UseBaggedGrad" modified="Yes">True</Option>
    <Option name="GradBaggingFraction" modified="Yes">5.000000e-01</Option>
    <Option name="Shrinkage" modified="Yes">4.000000e-02</Option>
    <Option name="AdaBoostBeta" modified="No">1.000000e+00</Option>
    <Option name="UseRandomisedTrees" modified="No">False</Option>
    <Option name="UseNvars" modified="No">3</Option>
    <Option name="UsePoissonNvars" modified="No">True</Option>
    <Option name="UseNTrainEvents" modified="No">50000</Option>
    <Option name="UseWeightedTrees" modified="No">True</Option>
    <Option name="UseYesNoLeaf" modified="No">True</Option>
    <Option name="NodePurityLimit" modified="No">5.000000e-01</Option>
    <Option name="SeparationType" modified="Yes">giniindex</Option>
    <Option name="nEventsMin" modified="No">102</Option>
    <Option name="nCuts" modified="Yes">28</Option>
    <Option name="UseFisherCuts" modified="No">False</Option>
    <Option name="MinLinCorrForFisher" modified="No">8.000000e-01</Option>
    <Option name="UseExclusiveVars" modified="No">False</Option>
    <Option name="PruneStrength" modified="Yes">5.000000e+01</Option>
    <Option name="PruneMethod" modified="Yes">nopruning</Option>
    <Option name="PruneBeforeBoost" modified="No">False</Option>
    <Option name="PruningValFraction" modified="No">5.000000e-01</Option>
    <Option name="NNodesMax" modified="No">100000</Option>
    <Option name="MaxDepth" modified="Yes">3</Option>
  </Options>
  <Variables NVar="7">
    <Variable VarIndex="0" Expression="trke/jete" Label="var1" Title="var1" Unit="units" Internal="var1" Type="F" Min="0.000691737" Max="0.135679"/>
    <Variable VarIndex="1" Expression="trkjttheta" Label="trkjttheta" Title="trkjttheta" Unit="units" Internal="trkjttheta" Type="F" Min="0.00216127" Max="2.99813"/>
    <Variable VarIndex="2" Expression="trkptrel" Label="trkptrel" Title="trkptrel" Unit="units" Internal="trkptrel" Type="F" Min="0.003043" Max="0.989582"/>
    <Variable VarIndex="3" Expression="D0sig" Label="D0sig" Title="D0sig" Unit="units" Internal="D0sig" Type="F" Min="-99.9336" Max="99.9305"/>
    <Variable VarIndex="4" Expression="Z0sig" Label="Z0sig" Title="Z0sig" Unit="units" Internal="Z0sig" Type="F" Min="-99.7954" Max="99.9135"/>
    <Variable VarIndex="5" Expression="D0" Label="D0" Title="D0" Unit="units" Internal="D0" Type="F" Min="-99.4725" Max="99.4877"/>
    <Variable VarIndex="6" Expression="Z0" Label="Z0" Title="Z0" Unit="units" Internal="Z0" Type="F" Min="-98.3529" Max="99.4451"/>
  </Variables>
  <Spectators NSpec="0"/>
  <Transformations NTransformations="0"/>
  <MVAPdfs/>
  <Weights NTrees="700" AnalysisType="1">
    <BinaryTree type="DecisionTree" boostWeight="1.0000000000000000e+00" itree="0">
      <Node pos="s" depth="0" NCoef="0" IVar="4" Cut="3.2076900005340576e+00" cType="0" res="-3.0112496018409729e-01" rms="3.9915379881858826e-01" purity="1.9887505471706390e-01" nType="0">
        <Node pos="l" depth="1" NCoef="0" IVar="6" Cut="3.4423344135284424e+00" cType="1" res="9.4310097396373749e-02" rms="4.9102506041526794e-01" purity="5.9431010484695435e-01" nType="0">
          <Node pos="l" depth="2" NCoef="0" IVar="6" Cut="1.5477404594421387e+00" cType="1" res="2.8525045514106750e-01" rms="4.1064846515655518e-01" purity="7.8525048494338989e-01" nType="0">
            <Node pos="l" depth="3" NCoef="0" IVar="-1" Cut="0.0000000000000000e+00" cType="1" res="2.6577480137348175e-02" rms="3.7367212772369385e-01" purity="8.3221852779388428e-01" nType="1"/>
            <Node pos="r" depth="3" NCoef="0" IVar="-1" Cut="0.0000000000000000e+00" cType="1" res="4.1988948360085487e-03" rms="4.9723756313323975e-01" purity="5.5248618125915527e-01" nType="1"/>
          </Node>
          <Node pos="r" depth="2" NCoef="0" IVar="1" Cut="5.4805546998977661e-01" cType="1" res="-2.0860926806926727e-01" rms="4.5440310239791870e-01" purity="2.9139071702957153e-01" nType="0">
            <Node pos="l" depth="3" NCoef="0" IVar="-1" Cut="0.0000000000000000e+00" cType="1" res="-1.0876803658902645e-02" rms="4.8115992546081543e-01" purity="3.6403995752334595e-01" nType="-1"/>
            <Node pos="r" depth="3" NCoef="0" IVar="-1" Cut="0.0000000000000000e+00" cType="1" res="-2.8122270479798317e-02" rms="3.5556685924530029e-01" purity="1.4847160875797272e-01" nType="-1"/>
          </Node>
        </Node>
        <Node pos="r" depth="1" NCoef="0" IVar="4" Cut="-3.8985421657562256e+00" cType="1" res="-3.6615204811096191e-01" rms="3.4048888087272644e-01" purity="1.3384795188903809e-01" nType="0">
          <Node pos="l" depth="2" NCoef="0" IVar="6" Cut="-3.3430440425872803e+00" cType="0" res="-8.9020770974457264e-04" rms="4.9999919533729553e-01" purity="4.9910980463027954e-01" nType="0">
            <Node pos="l" depth="3" NCoef="0" IVar="-1" Cut="0.0000000000000000e+00" cType="1" res="1.6909871250391006e-02" rms="4.5312392711639404e-01" purity="7.1137338876724243e-01" nType="1"/>
            <Node pos="r" depth="3" NCoef="0" IVar="-1" Cut="0.0000000000000000e+00" cType="1" res="-2.1088978275656700e-02" rms="4.2486304044723511e-01" purity="2.3638778924942017e-01" nType="-1"/>
          </Node>
          <Node pos="r" depth="2" NCoef="0" IVar="3" Cut="5.4163517951965332e+00" cType="0" res="-3.9740985631942749e-01" rms="3.0342280864715576e-01" purity="1.0259014368057251e-01" nType="0">
            <Node pos="l" depth="3" NCoef="0" IVar="-1" Cut="0.0000000000000000e+00" cType="1" res="-1.4606741024181247e-03" rms="4.9966651201248169e-01" purity="4.8174157738685608e-01" nType="-1"/>
            <Node pos="r" depth="3" NCoef="0" IVar="-1" Cut="0.0000000000000000e+00" cType="1" res="-3.2930761575698853e-02" rms="2.8382569551467896e-01" purity="8.8365472853183746e-02" nType="-1"/>
          </Node>
        </Node>
      </Node>
    </BinaryTree>
    <BinaryTree type="DecisionTree" boostWeight="1.0000000000000000e+00" itree="1">
      <Node pos="s" depth="0" NCoef="0" IVar="4" Cut="3.8585460186004639e+00" cType="0" res="-2.8796571493148804e-01" rms="3.9480459690093994e-01" purity="1.9999203085899353e-01" nType="0">
        <Node pos="l" depth="1" NCoef="0" IVar="6" Cut="3.4136869907379150e+00" cType="1" res="1.0769926011562347e-01" rms="4.8191863298416138e-01" purity="6.1156249046325684e-01" nType="0">
          <Node pos="l" depth="2" NCoef="0" IVar="6" Cut="2.0069878101348877e+00" cType="1" res="2.8660163283348083e-01" rms="4.0040692687034607e-01" purity="7.9816979169845581e-01" nType="0">
            <Node pos="l" depth="3" NCoef="0" IVar="-1" Cut="0.0000000000000000e+00" cType="1" res="2.5578591972589493e-02" rms="3.7356457114219666e-01" purity="8.3211266994476318e-01" nType="1"/>
            <Node pos="r" depth="3" NCoef="0" IVar="-1" Cut="0.0000000000000000e+00" cType="1" res="-1.4179801801219583e-03" rms="4.9975579977035522e-01" purity="4.8437500000000000e-01" nType="-1"/>
          </Node>
          <Node pos="r" depth="2" NCoef="0" IVar="1" Cut="4.2720863223075867e-01" cType="1" res="-1.7770300805568695e-01" rms="4.6310412883758545e-01" purity="3.1386861205101013e-01" nType="0">
            <Node pos="l" depth="3" NCoef="0" IVar="-1" Cut="0.0000000000000000e+00" cType="1" res="-5.4528648033738136e-03" rms="4.9454274773597717e-01" purity="4.2647057771682739e-01" nType="-1"/>
            <Node pos="r" depth="3" NCoef="0" IVar="-1" Cut="0.0000000000000000e+00" cType="1" res="-2.2866660729050636e-02" rms="4.0163597464561462e-01" purity="2.0289854705333710e-01" nType="-1"/>
          </Node>
        </Node>
        <Node pos="r" depth="1" NCoef="0" IVar="4" Cut="-3.2394006252288818e+00" cType="1" res="-3.4576392173767090e-01" rms="3.4424489736557007e-01" purity="1.3987036049365997e-01" nType="0">
          <Node pos="l" depth="2" NCoef="0" IVar="6" Cut="-3.4042398929595947e+00" cType="0" res="-1.1229434050619602e-02" rms="4.9560010433197021e-01" purity="4.8684889078140259e-01" nType="0">
            <Node pos="l" depth="3" NCoef="0" IVar="-1" Cut="0.0000000000000000e+00" cType="1" res="1.4644766226410866e-02" rms="4.6191430091857910e-01" purity="6.8843281269073486e-01" nType="1"/>
            <Node pos="r" depth="3" NCoef="0" IVar="-1" Cut="0.0000000000000000e+00" cType="1" res="-2.0119728520512581e-02" rms="4.2566663026809692e-01" purity="2.3760092258453369e-01" nType="-1"/>
          </Node>
          <Node pos="r" depth="2" NCoef="0" IVar="3" Cut="6.2569518089294434e+00" cType="0" res="-3.7825065851211548e-01" rms="3.0698058009147644e-01" purity="1.0617519170045853e-01" nType="0">
            <Node pos="l" depth="3" NCoef="0" IVar="-1" Cut="0.0000000000000000e+00" cType="1" res="2.9708366491831839e-04" rms="4.9937361478805542e-01" purity="5.0319284200668335e-01" nType="1"/>
            <Node pos="r" depth="3" NCoef="0" IVar="-1" Cut="0.0000000000000000e+00" cType="1" res="-3.1541153788566589e-02" rms="2.8584483265876770e-01" purity="8.9970812201499939e-02" nType="-1"/>
          </Node>
        </Node>
      </Node>
    </BinaryTree>
    <BinaryTree type="DecisionTree" boostWeight="1.0000000000000000e+00" itree="2">
      <Node pos="s" depth="0" NCoef="0" IVar="4" Cut="2.9710183143615723e+00" cType="0" res="-2.7619999647140503e-01" rms="3.8994622230529785e-01" purity="2.0031942427158356e-01" nType="0">
        <Node pos="l" depth="1" NCoef="0" IVar="6" Cut="3.4423344135284424e+00" cType="1" res="8.1751167774200439e-02" rms="4.8130601644515991e-01" purity="5.8738255500793457e-01" nType="0">
          <Node pos="l" depth="2" NCoef="0" IVar="4" Cut="6.2307910919189453e+00" cType="0" res="2.4997888505458832e-01" rms="4.1619840264320374e-01" purity="7.6899427175521851e-01" nType="0">
            <Node pos="l" depth="3" NCoef="0" IVar="-1" Cut="0.0000000000000000e+00" cType="1" res="2.6482528075575829e-02" rms="3.5183784365653992e-01" purity="8.5299569368362427e-01" nType="1"/>
            <Node pos="r" depth="3" NCoef="0" IVar="-1" Cut="0.0000000000000000e+00" cType="1" res="4.2027025483548641e-03" rms="4.8985823988914490e-01" purity="5.6231003999710083e-01" nType="1"/>
          </Node>
          <Node pos="r" depth="2" NCoef="0" IVar="1" Cut="5.4849737882614136e-01" cType="1" res="-1.8278925120830536e-01" rms="4.5723041892051697e-01" purity="3.0179557204246521e-01" nType="0">
            <Node pos="l" depth="3" NCoef="0" IVar="-1" Cut="0.0000000000000000e+00" cType="1" res="-8.8198604062199593e-03" rms="4.8506876826286316e-01" purity="3.7949261069297791e-01" nType="-1"/>
            <Node pos="r" depth="3" NCoef="0" IVar="-1" Cut="0.0000000000000000e+00" cType="1" res="-2.5633646175265312e-02" rms="3.6190646886825562e-01" purity="1.5537849068641663e-01" nType="-1"/>
          </Node>
        </Node>
        <Node pos="r" depth="1" NCoef="0" IVar="4" Cut="-4.1184349060058594e+00" cType="1" res="-3.3874070644378662e-01" rms="3.3444437384605408e-01" purity="1.3269230723381042e-01" nType="0">
          <Node pos="l" depth="2" NCoef="0" IVar="6" Cut="-3.3805906772613525e+00" cType="0" res="1.4730494469404221e-02" rms="4.9187541007995605e-01" purity="5.1447933912277222e-01" nType="0">
            <Node pos="l" depth="3" NCoef="0" IVar="-1" Cut="0.0000000000000000e+00" cType="1" res="1.5939680859446526e-02" rms="4.5143175125122070e-01" purity="7.1475768089294434e-01" nType="1"/>
            <Node pos="r" depth="3" NCoef="0" IVar="-1" Cut="0.0000000000000000e+00" cType="1" res="-1.7576919868588448e-02" rms="4.3870002031326294e-01" purity="2.6013985276222229e-01" nType="-1"/>
          </Node>
          <Node pos="r" depth="2" NCoef="0" IVar="3" Cut="6.3107881546020508e+00" cType="0" res="-3.6786612868309021e-01" rms="2.9998448491096497e-01" purity="1.0123369097709656e-01" nType="0">
            <Node pos="l" depth="3" NCoef="0" IVar="-1" Cut="0.0000000000000000e+00" cType="1" res="4.3870153604075313e-04" rms="4.9997597932815552e-01" purity="5.0490194559097290e-01" nType="1"/>
            <Node pos="r" depth="3" NCoef="0" IVar="-1" Cut="0.0000000000000000e+00" cType="1" res="-3.0512103810906410e-02" rms="2.8327947854995728e-01" purity="8.8289231061935425e-02" nType="-1"/>
          </Node>
        </Node>
      </Node>
    </BinaryTree>
    <BinaryTree type="DecisionTree" boostWeight="1.0000000000000000e+00" itree="3">
      <Node pos="s" depth="0" NCoef="0" IVar="4" Cut="3.5639395713806152e+00" cType="0" res="-2.6424670219421387e-01" rms="3.8631057739257812e-01" purity="2.0134685933589935e-01" nType="0">
        <Node pos="l" depth="1" NCoef="0" IVar="6" Cut="3.4367275238037109e+00" cType="1" res="9.6404142677783966e-02" rms="4.7269415855407715e-01" purity="6.0844647884368896e-01" nType="0">
          <Node pos="l" depth="2" NCoef="0" IVar="6" Cut="2.2557752132415771e+00" cType="1" res="2.5891870260238647e-01" rms="4.0263059735298157e-01" purity="7.9154658317565918e-01" nType="0">
            <Node pos="l" depth="3" NCoef="0" IVar="-1" Cut="0.0000000000000000e+00" cType="1" res="2.3195413872599602e-02" rms="3.7945362925529480e-01" purity="8.2300418615341187e-01" nType="1"/>
            <Node pos="r" depth="3" NCoef="0" IVar="-1" Cut="0.0000000000000000e+00" cType="1" res="-4.5777317136526108e-03" rms="4.9673077464103699e-01" purity="4.5505619049072266e-01" nType="-1"/>
          </Node>
          <Node pos="r" depth="2" NCoef="0" IVar="1" Cut="3.6678519845008850e-01" cType="1" res="-1.7801219224929810e-01" rms="4.5507767796516418e-01" purity="2.9927006363868713e-01" nType="0">
            <Node pos="l" depth="3" NCoef="0" IVar="-1" Cut="0.0000000000000000e+00" cType="1" res="-4.6896021813154221e-03" rms="4.9479594826698303e-01" purity="4.2885771393775940e-01" nType="-1"/>
            <Node pos="r" depth="3" NCoef="0" IVar="-1" Cut="0.0000000000000000e+00" cType="1" res="-2.0818447694182396e-02" rms="4.0639650821685791e-01" purity="2.1117165684700012e-01" nType="-1"/>
          </Node>
        </Node>
        <Node pos="r" depth="1" NCoef="0" IVar="4" Cut="-3.5134572982788086e+00" cType="1" res="-3.1951472163200378e-01" rms="3.3893579244613647e-01" purity="1.3896079361438751e-01" nType="0">
          <Node pos="l" depth="2" NCoef="0" IVar="6" Cut="-3.4042398929595947e+00" cType="0" res="-8.3198938518762589e-03" rms="4.8859903216362000e-01" purity="4.8945614695549011e-01" nType="0">
            <Node pos="l" depth="3" NCoef="0" IVar="-1" Cut="0.0000000000000000e+00" cType="1" res="1.3083334080874920e-02" rms="4.6330589056015015e-01" purity="6.8285429477691650e-01" nType="1"/>
            <Node pos="r" depth="3" NCoef="0" IVar="-1" Cut="0.0000000000000000e+00" cType="1" res="-1.8189532682299614e-02" rms="4.2932313680648804e-01" purity="2.4337957799434662e-01" nType="-1"/>
          </Node>
          <Node pos="r" depth="2" NCoef="0" IVar="3" Cut="7.3550791740417480e+00" cType="0" res="-3.4779375791549683e-01" rms="3.0663135647773743e-01" purity="1.0711044073104858e-01" nType="0">
            <Node pos="l" depth="3" NCoef="0" IVar="-1" Cut="0.0000000000000000e+00" cType="1" res="-3.1130228308029473e-04" rms="4.9919903278350830e-01" purity="4.9521204829216003e-01" nType="-1"/>
            <Node pos="r" depth="3" NCoef="0" IVar="-1" Cut="0.0000000000000000e+00" cType="1" res="-2.9133819043636322e-02" rms="2.8876218199729919e-01" purity="9.2256136238574982e-02" nType="-1"/>
          </Node>
        </Node>
      </Node>
    </BinaryTree>
    <BinaryTree type="DecisionTree" boostWeight="1.0000000000000000e+00" itree="4">
      <Node pos="s" depth="0" NCoef="0" IVar="4" Cut="3.8585460186004639e+00" cType="0" res="-2.5617891550064087e-01" rms="3.8017210364341736e-01" purity="1.9846066832542419e-01" nType="0">
        <Node pos="l" depth="1" NCoef="0" IVar="6" Cut="3.4099991321563721e+00" cType="1" res="9.4819307327270508e-02" rms="4.6709862351417542e-01" purity="6.0962569713592529e-01" nType="0">
          <Node pos="l" depth="2" NCoef="0" IVar="5" Cut="1.2300726175308228e+00" cType="1" res="2.6854828000068665e-01" rms="3.8655310869216919e-01" purity="8.1292337179183960e-01" nType="0">
            <Node pos="l" depth="3" NCoef="0" IVar="-1" Cut="0.0000000000000000e+00" cType="1" res="2.5134699419140816e-02" rms="3.4746778011322021e-01" purity="8.5705518722534180e-01" nType="1"/>
            <Node pos="r" depth="3" NCoef="0" IVar="-1" Cut="0.0000000000000000e+00" cType="1" res="2.1425103768706322e-03" rms="4.9226018786430359e-01" purity="5.6401383876800537e-01" nType="1"/>
          </Node>
          <Node pos="r" depth="2" NCoef="0" IVar="1" Cut="5.0411391258239746e-01" cType="1" res="-1.6977266967296600e-01" rms="4.5488917827606201e-01" purity="3.0000001192092896e-01" nType="0">
            <Node pos="l" depth="3" NCoef="0" IVar="-1" Cut="0.0000000000000000e+00" cType="1" res="-7.7154426835477352e-03" rms="4.8599585890769958e-01" purity="3.8471850752830505e-01" nType="-1"/>
            <Node pos="r" depth="3" NCoef="0" IVar="-1" Cut="0.0000000000000000e+00" cType="1" res="-2.2310769185423851e-02" rms="3.8109439611434937e-01" purity="1.7704279720783234e-01" nType="-1"/>
          </Node>
        </Node>
        <Node pos="r" depth="1" NCoef="0" IVar="4" Cut="-3.2427182197570801e+00" cType="1" res="-3.0774909257888794e-01" rms="3.3607932925224304e-01" purity="1.3805055618286133e-01" nType="0">
          <Node pos="l" depth="2" NCoef="0" IVar="6" Cut="-3.3414289951324463e+00" cType="0" res="1.2813234934583306e-03" rms="4.8622733354568481e-01" purity="4.9730312824249268e-01" nType="0">
            <Node pos="l" depth="3" NCoef="0" IVar="-1" Cut="0.0000000000000000e+00" cType="1" res="1.2074320577085018e-02" rms="4.6527209877967834e-01" purity="6.7228466272354126e-01" nType="1"/>
            <Node pos="r" depth="3" NCoef="0" IVar="-1" Cut="0.0000000000000000e+00" cType="1" res="-1.6207654029130936e-02" rms="4.3846368789672852e-01" purity="2.5954198837280273e-01" nType="-1"/>
          </Node>
          <Node pos="r" depth="2" NCoef="0" IVar="3" Cut="6.3107881546020508e+00" cType="0" res="-3.3671042323112488e-01" rms="3.0263775587081909e-01" purity="1.0438255220651627e-01" nType="0">
            <Node pos="l" depth="3" NCoef="0" IVar="-1" Cut="0.0000000000000000e+00" cType="1" res="-2.2055888548493385e-03" rms="4.9741157889366150e-01" purity="4.7035571932792664e-01" nType="-1"/>
            <Node pos="r" depth="3" NCoef="0" IVar="-1" Cut="0.0000000000000000e+00" cType="1" res="-2.8350874781608582e-02" rms="2.8531959652900696e-01" purity="8.9781329035758972e-02" nType="-1"/>
          </Node>
        </Node>
      </Node>
    </BinaryTree>
    <BinaryTree type="DecisionTree" boostWeight="1.0000000000000000e+00" itree="5">
      <Node pos="s" depth="0" NCoef="0" IVar="4" Cut="3.0818059444427490e+00" cType="0" res="-2.4600100517272949e-01" rms="3.7601655721664429e-01" purity="1.9847021996974945e-01" nType="0">
        <Node pos="l" depth="1" NCoef="0" IVar="6" Cut="3.4167549610137939e+00" cType="1" res="7.6850794255733490e-02" rms="4.6675947308540344e-01" purity="5.9196376800537109e-01" nType="0">
          <Node pos="l" depth="2" NCoef="0" IVar="6" Cut="1.8783634901046753e+00" cType="1" res="2.2709991037845612e-01" rms="4.0783828496932983e-01" purity="7.7406048774719238e-01" nType="0">
            <Node pos="l" depth="3" NCoef="0" IVar="-1" Cut="0.0000000000000000e+00" cType="1" res="2.1390216425061226e-02" rms="3.7987551093101501e-01" purity="8.1471818685531616e-01" nType="1"/>
            <Node pos="r" depth="3" NCoef="0" IVar="-1" Cut="0.0000000000000000e+00" cType="1" res="-3.0416264198720455e-03" rms="4.9499034881591797e-01" purity="4.8120301961898804e-01" nType="-1"/>
          </Node>
          <Node pos="r" depth="2" NCoef="0" IVar="1" Cut="5.4805546998977661e-01" cType="1" res="-1.6563706099987030e-01" rms="4.5365047454833984e-01" purity="2.9807692766189575e-01" nType="0">
            <Node pos="l" depth="3" NCoef="0" IVar="-1" Cut="0.0000000000000000e+00" cType="1" res="-8.2440655678510666e-03" rms="4.8304060101509094e-01" purity="3.7272727489471436e-01" nType="-1"/>
            <Node pos="r" depth="3" NCoef="0" IVar="-1" Cut="0.0000000000000000e+00" cType="1" res="-2.2945789620280266e-02" rms="3.6517888307571411e-01" purity="1.5889830887317657e-01" nType="-1"/>
          </Node>
        </Node>
        <Node pos="r" depth="1" NCoef="0" IVar="3" Cut="-3.6390635967254639e+00" cType="1" res="-2.9922479391098022e-01" rms="3.2979512214660645e-01" purity="1.3360078632831573e-01" nType="0">
          <Node pos="l" depth="2" NCoef="0" IVar="5" Cut="-3.3838026523590088e+00" cType="0" res="3.0929545755498111e-04" rms="4.8045837879180908e-01" purity="4.7608575224876404e-01" nType="0">
            <Node pos="l" depth="3" NCoef="0" IVar="-1" Cut="0.0000000000000000e+00" cType="1" res="1.3781682588160038e-02" rms="4.5421662926673889e-01" purity="6.7065870761871338e-01" nType="1"/>
            <Node pos="r" depth="3" NCoef="0" IVar="-1" Cut="0.0000000000000000e+00" cType="1" res="-1.6911946237087250e-02" rms="4.2631787061691284e-01" purity="2.3745410144329071e-01" nType="-1"/>
          </Node>
          <Node pos="r" depth="2" NCoef="0" IVar="3" Cut="3.4768812656402588e+00" cType="0" res="-3.2699787616729736e-01" rms="2.9724660515785217e-01" purity="1.0184524208307266e-01" nType="0">
            <Node pos="l" depth="3" NCoef="0" IVar="-1" Cut="0.0000000000000000e+00" cType="1" res="-2.3432234302163124e-03" rms="4.9542182683944702e-01" purity="4.4364011287689209e-01" nType="-1"/>
            <Node pos="r" depth="3" NCoef="0" IVar="-1" Cut="0.0000000000000000e+00" cType="1" res="-2.8021734207868576e-02" rms="2.7453690767288208e-01" purity="8.4124177694320679e-02" nType="-1"/>
          </Node>
        </Node>
      </Node>
    </BinaryTree>
    <BinaryTree type="DecisionTree" boostWeight="1.0000000000000000e+00" itree="6">
      <Node pos="s" depth="0" NCoef="0" IVar="3" Cut="3.4443528652191162e+00" cType="0" res="-2.3397321999073029e-01" rms="3.7431919574737549e-01" purity="2.0097881555557251e-01" nType="0">
        <Node pos="l" depth="1" NCoef="0" IVar="5" Cut="3.4616265296936035e+00" cType="1" res="6.7320197820663452e-02" rms="4.7027182579040527e-01" purity="5.7525718212127686e-01" nType="0">
          <Node pos="l" depth="2" NCoef="0" IVar="5" Cut="1.0924086570739746e+00" cType="1" res="2.2573117911815643e-01" rms="4.1041091084480286e-01" purity="7.6157724857330322e-01" nType="0">
            <Node pos="l" depth="3" NCoef="0" IVar="-1" Cut="0.0000000000000000e+00" cType="1" res="2.3072114214301109e-02" rms="3.6663562059402466e-01" purity="8.2398110628128052e-01" nType="1"/>
            <Node pos="r" depth="3" NCoef="0" IVar="-1" Cut="0.0000000000000000e+00" cType="1" res="2.0000976510345936e-03" rms="4.8416000604629517e-01" purity="5.4508197307586670e-01" nType="1"/>
          </Node>
          <Node pos="r" depth="2" NCoef="0" IVar="1" Cut="5.0571191310882568e-01" cType="1" res="-1.6103032231330872e-01" rms="4.5698183774948120e-01" purity="3.0667549371719360e-01" nType="0">
            <Node pos="l" depth="3" NCoef="0" IVar="-1" Cut="0.0000000000000000e+00" cType="1" res="-7.3391301557421684e-03" rms="4.8609557747840881e-01" purity="3.8657170534133911e-01" nType="-1"/>
            <Node pos="r" depth="3" NCoef="0" IVar="-1" Cut="0.0000000000000000e+00" cType="1" res="-2.3567771539092064e-02" rms="3.6360639333724976e-01" purity="1.5849056839942932e-01" nType="-1"/>
          </Node>
        </Node>
        <Node pos="r" depth="1" NCoef="0" IVar="4" Cut="-3.3077471256256104e+00" cType="1" res="-2.8638812899589539e-01" rms="3.2783672213554382e-01" purity="1.3586699962615967e-01" nType="0">
          <Node pos="l" depth="2" NCoef="0" IVar="6" Cut="-3.4098474979400635e+00" cType="0" res="2.9884756077080965e-03" rms="4.8074626922607422e-01" purity="4.9436998367309570e-01" nType="0">
            <Node pos="l" depth="3" NCoef="0" IVar="-1" Cut="0.0000000000000000e+00" cType="1" res="1.2161792255938053e-02" rms="4.6071845293045044e-01" purity="6.8050193786621094e-01" nType="1"/>
            <Node pos="r" depth="3" NCoef="0" IVar="-1" Cut="0.0000000000000000e+00" cType="1" res="-1.4765640720725060e-02" rms="4.3923759460449219e-01" purity="2.6176115870475769e-01" nType="-1"/>
          </Node>
          <Node pos="r" depth="2" NCoef="0" IVar="4" Cut="2.9030780792236328e+00" cType="0" res="-3.1425157189369202e-01" rms="2.9450377821922302e-01" purity="1.0134751349687576e-01" nType="0">
            <Node pos="l" depth="3" NCoef="0" IVar="-1" Cut="0.0000000000000000e+00" cType="1" res="-1.5941420570015907e-03" rms="4.7647553682327271e-01" purity="4.8583877086639404e-01" nType="-1"/>
            <Node pos="r" depth="3" NCoef="0" IVar="-1" Cut="0.0000000000000000e+00" cType="1" res="-2.7172060683369637e-02" rms="2.7426174283027649e-01" purity="8.2217767834663391e-02" nType="-1"/>
          </Node>
        </Node>
      </Node>
    </BinaryTree>
    <BinaryTree type="DecisionTree" boostWeight="1.0000000000000000e+00" itree="7">
      <Node pos="s" depth="0" NCoef="0" IVar="3" Cut="3.4472072124481201e+00" cType="0" res="-2.2535732388496399e-01" rms="3.7020403146743774e-01" purity="2.0036530494689941e-01" nType="0">
        <Node pos="l" depth="1" NCoef="0" IVar="5" Cut="3.4538168907165527e+00" cType="1" res="6.0514263808727264e-02" rms="4.6629741787910461e-01" purity="5.7193076610565186e-01" nType="0">
          <Node pos="l" depth="2" NCoef="0" IVar="5" Cut="1.0882686376571655e+00" cType="1" res="2.1488940715789795e-01" rms="4.0872374176979065e-01" purity="7.6102942228317261e-01" nType="0">
            <Node pos="l" depth="3" NCoef="0" IVar="-1" Cut="0.0000000000000000e+00" cType="1" res="2.2319490090012550e-02" rms="3.6162939667701721e-01" purity="8.2642179727554321e-01" nType="1"/>
            <Node pos="r" depth="3" NCoef="0" IVar="-1" Cut="0.0000000000000000e+00" cType="1" res="1.0831033578142524e-03" rms="4.9011683464050293e-01" purity="5.3483605384826660e-01" nType="1"/>
          </Node>
          <Node pos="r" depth="2" NCoef="0" IVar="1" Cut="3.8017100095748901e-01" cType="1" res="-1.6019554436206818e-01" rms="4.5461407303810120e-01" purity="3.0157688260078430e-01" nType="0">
            <Node pos="l" depth="3" NCoef="0" IVar="-1" Cut="0.0000000000000000e+00" cType="1" res="-4.5912032946944237e-03" rms="4.9288240075111389e-01" purity="4.2058822512626648e-01" nType="-1"/>
            <Node pos="r" depth="3" NCoef="0" IVar="-1" Cut="0.0000000000000000e+00" cType="1" res="-1.9766138866543770e-02" rms="4.0235477685928345e-01" purity="2.0546318590641022e-01" nType="-1"/>
          </Node>
        </Node>
        <Node pos="r" depth="1" NCoef="0" IVar="4" Cut="-2.9514975547790527e+00" cType="1" res="-2.7455928921699524e-01" rms="3.2669559121131897e-01" purity="1.3641440868377686e-01" nType="0">
          <Node pos="l" depth="2" NCoef="0" IVar="6" Cut="-3.3805906772613525e+00" cType="0" res="-1.4635660685598850e-02" rms="4.7501882910728455e-01" purity="4.7013112902641296e-01" nType="0">
            <Node pos="l" depth="3" NCoef="0" IVar="-1" Cut="0.0000000000000000e+00" cType="1" res="9.9992072209715843e-03" rms="4.6454870700836182e-01" purity="6.4483624696731567e-01" nType="1"/>
            <Node pos="r" depth="3" NCoef="0" IVar="-1" Cut="0.0000000000000000e+00" cType="1" res="-1.6649829223752022e-02" rms="4.2047980427742004e-01" purity="2.3041474819183350e-01" nType="-1"/>
          </Node>
          <Node pos="r" depth="2" NCoef="0" IVar="4" Cut="3.2349319458007812e+00" cType="0" res="-3.0210766196250916e-01" rms="2.9361104965209961e-01" purity="1.0104493796825409e-01" nType="0">
            <Node pos="l" depth="3" NCoef="0" IVar="-1" Cut="0.0000000000000000e+00" cType="1" res="-8.9912861585617065e-04" rms="4.7732669115066528e-01" purity="5.0490194559097290e-01" nType="1"/>
            <Node pos="r" depth="3" NCoef="0" IVar="-1" Cut="0.0000000000000000e+00" cType="1" res="-2.6280257850885391e-02" rms="2.7590152621269226e-01" purity="8.3337813615798950e-02" nType="-1"/>
          </Node>
        </Node>
      </Node>
    </BinaryTree>
    <BinaryTree type="DecisionTree" boostWeight="1.0000000000000000e+00" itree="8">
      <Node pos="s" depth="0" NCoef="0" IVar="4" Cut="2.9710183143615723e+00" cType="0" res="-2.1539886295795441e-01" rms="3.6744591593742371e-01" purity="2.0170906186103821e-01" nType="0">
        <Node pos="l" depth="1" NCoef="0" IVar="6" Cut="3.4367275238037109e+00" cType="1" res="6.4652293920516968e-02" rms="4.5797881484031677e-01" purity="5.8660262823104858e-01" nType="0">
          <Node pos="l" depth="2" NCoef="0" IVar="4" Cut="6.2385406494140625e+00" cType="0" res="1.9500942528247833e-01" rms="4.1036689281463623e-01" purity="7.6086956262588501e-01" nType="0">
            <Node pos="l" depth="3" NCoef="0" IVar="-1" Cut="0.0000000000000000e+00" cType="1" res="2.1288743242621422e-02" rms="3.5945346951484680e-01" purity="8.3859223127365112e-01" nType="1"/>
            <Node pos="r" depth="3" NCoef="0" IVar="-1" Cut="0.0000000000000000e+00" cType="1" res="3.6133013200014830e-03" rms="4.7823113203048706e-01" purity="5.7736390829086304e-01" nType="1"/>
          </Node>
          <Node pos="r" depth="2" NCoef="0" IVar="1" Cut="5.0655746459960938e-01" cType="1" res="-1.5363308787345886e-01" rms="4.5041275024414062e-01" purity="2.9478943347930908e-01" nType="0">
            <Node pos="l" depth="3" NCoef="0" IVar="-1" Cut="0.0000000000000000e+00" cType="1" res="-7.2059188969433308e-03" rms="4.8426991701126099e-01" purity="3.7775203585624695e-01" nType="-1"/>
            <Node pos="r" depth="3" NCoef="0" IVar="-1" Cut="0.0000000000000000e+00" cType="1" res="-2.1088900044560432e-02" rms="3.6741805076599121e-01" purity="1.6171003878116608e-01" nType="-1"/>
          </Node>
        </Node>
        <Node pos="r" depth="1" NCoef="0" IVar="3" Cut="-3.5401077270507812e+00" cType="1" res="-2.6440420746803284e-01" rms="3.2529142498970032e-01" purity="1.3435763120651245e-01" nType="0">
          <Node pos="l" depth="2" NCoef="0" IVar="5" Cut="-3.4315395355224609e+00" cType="0" res="1.4620712026953697e-03" rms="4.7371754050254822e-01" purity="4.6789988875389099e-01" nType="0">
            <Node pos="l" depth="3" NCoef="0" IVar="-1" Cut="0.0000000000000000e+00" cType="1" res="1.2542653828859329e-02" rms="4.5628872513771057e-01" purity="6.5870648622512817e-01" nType="1"/>
            <Node pos="r" depth="3" NCoef="0" IVar="-1" Cut="0.0000000000000000e+00" cType="1" res="-1.5047073364257812e-02" rms="4.2664131522178650e-01" purity="2.3769508302211761e-01" nType="-1"/>
          </Node>
          <Node pos="r" depth="2" NCoef="0" IVar="3" Cut="3.5749254226684570e+00" cType="0" res="-2.8936779499053955e-01" rms="2.9566696286201477e-01" purity="1.0303959250450134e-01" nType="0">
            <Node pos="l" depth="3" NCoef="0" IVar="-1" Cut="0.0000000000000000e+00" cType="1" res="-1.3995320769026875e-03" rms="4.9089413881301880e-01" purity="4.5903360843658447e-01" nType="-1"/>
            <Node pos="r" depth="3" NCoef="0" IVar="-1" Cut="0.0000000000000000e+00" cType="1" res="-2.5576839223504066e-02" rms="2.7494332194328308e-01" purity="8.4841325879096985e-02" nType="-1"/>
          </Node>
        </Node>
      </Node>
    </BinaryTree>
    <BinaryTree type="DecisionTree" boostWeight="1.0000000000000000e+00" itree="9">
      <Node pos="s" depth="0" NCoef="0" IVar="4" Cut="3.2076900005340576e+00" cType="0" res="-2.0581966638565063e-01" rms="3.6460158228874207e-01" purity="2.0157882571220398e-01" nType="0">
        <Node pos="l" depth="1" NCoef="0" IVar="6" Cut="3.4483029842376709e+00" cType="1" res="7.3594599962234497e-02" rms="4.5236080884933472e-01" purity="5.9953773021697998e-01" nType="0">
          <Node pos="l" depth="2" NCoef="0" IVar="4" Cut="6.4576988220214844e+00" cType="0" res="2.0556417107582092e-01" rms="3.9819225668907166e-01" purity="7.8443396091461182e-01" nType="0">
            <Node pos="l" depth="3" NCoef="0" IVar="-1" Cut="0.0000000000000000e+00" cType="1" res="2.1081766113638878e-02" rms="3.5476765036582947e-01" purity="8.4480518102645874e-01" nType="1"/>
            <Node pos="r" depth="3" NCoef="0" IVar="-1" Cut="0.0000000000000000e+00" cType="1" res="6.1756824143230915e-03" rms="4.7146531939506531e-01" purity="6.2413793802261353e-01" nType="1"/>
          </Node>
          <Node pos="r" depth="2" NCoef="0" IVar="1" Cut="5.7341545820236206e-01" cType="1" res="-1.3503737747669220e-01" rms="4.5432093739509583e-01" purity="3.0723339319229126e-01" nType="0">
            <Node pos="l" depth="3" NCoef="0" IVar="-1" Cut="0.0000000000000000e+00" cType="1" res="-5.8750957250595093e-03" rms="4.8538094758987427e-01" purity="3.8671022653579712e-01" nType="-1"/>
            <Node pos="r" depth="3" NCoef="0" IVar="-1" Cut="0.0000000000000000e+00" cType="1" res="-2.2422425448894501e-02" rms="3.4127703309059143e-01" purity="1.3475176692008972e-01" nType="-1"/>
          </Node>
        </Node>
        <Node pos="r" depth="1" NCoef="0" IVar="4" Cut="-3.8968050479888916e+00" cType="1" res="-2.5054714083671570e-01" rms="3.2704660296440125e-01" purity="1.3787521421909332e-01" nType="0">
          <Node pos="l" depth="2" NCoef="0" IVar="6" Cut="-3.2806520462036133e+00" cType="0" res="3.5427737981081009e-02" rms="4.7385570406913757e-01" purity="5.2669465541839600e-01" nType="0">
            <Node pos="l" depth="3" NCoef="0" IVar="-1" Cut="0.0000000000000000e+00" cType="1" res="1.4229797758162022e-02" rms="4.4488203525543213e-01" purity="7.2319477796554565e-01" nType="1"/>
            <Node pos="r" depth="3" NCoef="0" IVar="-1" Cut="0.0000000000000000e+00" cType="1" res="-1.1088181287050247e-02" rms="4.5135810971260071e-01" purity="2.8818061947822571e-01" nType="-1"/>
          </Node>
          <Node pos="r" depth="2" NCoef="0" IVar="1" Cut="1.7287246882915497e-01" cType="1" res="-2.7443811297416687e-01" rms="2.9955571889877319e-01" purity="1.0539240390062332e-01" nType="0">
            <Node pos="l" depth="3" NCoef="0" IVar="-1" Cut="0.0000000000000000e+00" cType="1" res="-9.1085322201251984e-03" rms="4.3846136331558228e-01" purity="2.7866473793983459e-01" nType="-1"/>
            <Node pos="r" depth="3" NCoef="0" IVar="-1" Cut="0.0000000000000000e+00" cType="1" res="-2.5017907842993736e-02" rms="2.7256166934967041e-01" purity="8.5369259119033813e-02" nType="-1"/>
          </Node>
        </Node>
      </Node>
    </BinaryTree>
    <BinaryTree type="DecisionTree" boostWeight="1.0000000000000000e+00" itree="10">
      <Node pos="s" depth="0" NCoef="0" IVar="3" Cut="3.4472072124481201e+00" cType="0" res="-1.9884473085403442e-01" rms="3.6090838909149170e-01" purity="2.0115080475807190e-01" nType="0">
        <Node pos="l" depth="1" NCoef="0" IVar="5" Cut="3.4414005279541016e+00" cType="1" res="6.3725180923938751e-02" rms="4.5642161369323730e-01" purity="5.7742363214492798e-01" nType="0">
          <Node pos="l" depth="2" NCoef="0" IVar="5" Cut="1.2094483375549316e+00" cType="1" res="2.1039834618568420e-01" rms="3.9822563529014587e-01" purity="7.7472525835037231e-01" nType="0">
            <Node pos="l" depth="3" NCoef="0" IVar="-1" Cut="0.0000000000000000e+00" cType="1" res="2.1263280883431435e-02" rms="3.6059021949768066e-01" purity="8.2966721057891846e-01" nType="1"/>
            <Node pos="r" depth="3" NCoef="0" IVar="-1" Cut="0.0000000000000000e+00" cType="1" res="1.0897866450250149e-03" rms="4.8371660709381104e-01" purity="5.3771287202835083e-01" nType="1"/>
          </Node>
          <Node pos="r" depth="2" NCoef="0" IVar="1" Cut="2.9938960075378418e-01" cType="1" res="-1.3888974487781525e-01" rms="4.5415490865707397e-01" purity="3.0487033724784851e-01" nType="0">
            <Node pos="l" depth="3" NCoef="0" IVar="-1" Cut="0.0000000000000000e+00" cType="1" res="-2.2757819388061762e-03" rms="4.9569943547248840e-01" purity="4.4038462638854980e-01" nType="-1"/>
            <Node pos="r" depth="3" NCoef="0" IVar="-1" Cut="0.0000000000000000e+00" cType="1" res="-1.5848113223910332e-02" rms="4.2187353968620300e-01" purity="2.3845428228378296e-01" nType="-1"/>
          </Node>
        </Node>
        <Node pos="r" depth="1" NCoef="0" IVar="3" Cut="-3.6829051971435547e+00" cType="1" res="-2.4534188210964203e-01" rms="3.1946811079978943e-01" purity="1.3451860845088959e-01" nType="0">
          <Node pos="l" depth="2" NCoef="0" IVar="5" Cut="-3.4315395355224609e+00" cType="0" res="1.8422522116452456e-03" rms="4.6601110696792603e-01" purity="4.6537396311759949e-01" nType="0">
            <Node pos="l" depth="3" NCoef="0" IVar="-1" Cut="0.0000000000000000e+00" cType="1" res="1.2552422471344471e-02" rms="4.4850781559944153e-01" purity="6.6632652282714844e-01" nType="1"/>
            <Node pos="r" depth="3" NCoef="0" IVar="-1" Cut="0.0000000000000000e+00" cType="1" res="-1.4850449748337269e-02" rms="4.2010399699211121e-01" purity="2.2666667401790619e-01" nType="-1"/>
          </Node>
          <Node pos="r" depth="2" NCoef="0" IVar="1" Cut="1.7105956375598907e-01" cType="1" res="-2.6827400922775269e-01" rms="2.9186761379241943e-01" purity="1.0382401198148727e-01" nType="0">
            <Node pos="l" depth="3" NCoef="0" IVar="-1" Cut="0.0000000000000000e+00" cType="1" res="-8.3310585469007492e-03" rms="4.3762606382369995e-01" purity="2.8905418515205383e-01" nType="-1"/>
            <Node pos="r" depth="3" NCoef="0" IVar="-1" Cut="0.0000000000000000e+00" cType="1" res="-2.4720268324017525e-02" rms="2.6523655652999878e-01" purity="8.3987705409526825e-02" nType="-1"/>
          </Node>
        </Node>
      </Node>
    </BinaryTree>
    <BinaryTree type="DecisionTree" boostWeight="1.0000000000000000e+00" itree="11">
      <Node pos="s" depth="0" NCoef="0" IVar="4" Cut="3.5639395713806152e+00" cType="0" res="-1.9141383469104767e-01" rms="3.5814806818962097e-01" purity="2.0067755877971649e-01" nType="0">
        <Node pos="l" depth="1" NCoef="0" IVar="6" Cut="3.4367275238037109e+00" cType="1" res="7.2665393352508545e-02" rms="4.4514101743698120e-01" purity="6.0435676574707031e-01" nType="0">
          <Node pos="l" depth="2" NCoef="0" IVar="6" Cut="1.5453926324844360e+00" cType="1" res="1.9882865250110626e-01" rms="3.9121198654174805e-01" purity="7.9340028762817383e-01" nType="0">
            <Node pos="l" depth="3" NCoef="0" IVar="-1" Cut="0.0000000000000000e+00" cType="1" res="1.9954726099967957e-02" rms="3.5745891928672791e-01" purity="8.4071302413940430e-01" nType="1"/>
            <Node pos="r" depth="3" NCoef="0" IVar="-1" Cut="0.0000000000000000e+00" cType="1" res="4.1466063703410327e-04" rms="4.8245078325271606e-01" purity="5.5965906381607056e-01" nType="1"/>
          </Node>
          <Node pos="r" depth="2" NCoef="0" IVar="1" Cut="4.9106907844543457e-01" cType="1" res="-1.2933106720447540e-01" rms="4.5174962282180786e-01" purity="3.0168452858924866e-01" nType="0">
            <Node pos="l" depth="3" NCoef="0" IVar="-1" Cut="0.0000000000000000e+00" cType="1" res="-5.7393549941480160e-03" rms="4.8587521910667419e-01" purity="3.8610038161277771e-01" nType="-1"/>
            <Node pos="r" depth="3" NCoef="0" IVar="-1" Cut="0.0000000000000000e+00" cType="1" res="-1.8043322488665581e-02" rms="3.8053897023200989e-01" purity="1.7769375443458557e-01" nType="-1"/>
          </Node>
        </Node>
        <Node pos="r" depth="1" NCoef="0" IVar="4" Cut="-3.5134572982788086e+00" cType="1" res="-2.3276712000370026e-01" rms="3.2356840372085571e-01" purity="1.3746370375156403e-01" nType="0">
          <Node pos="l" depth="2" NCoef="0" IVar="6" Cut="-3.4098474979400635e+00" cType="0" res="7.8121363185346127e-03" rms="4.6659722924232483e-01" purity="4.9344730377197266e-01" nType="0">
            <Node pos="l" depth="3" NCoef="0" IVar="-1" Cut="0.0000000000000000e+00" cType="1" res="1.2451644986867905e-02" rms="4.4751775264739990e-01" purity="7.0239335298538208e-01" nType="1"/>
            <Node pos="r" depth="3" NCoef="0" IVar="-1" Cut="0.0000000000000000e+00" cType="1" res="-1.3946185819804668e-02" rms="4.2676690220832825e-01" purity="2.4055415391921997e-01" nType="-1"/>
          </Node>
          <Node pos="r" depth="2" NCoef="0" IVar="1" Cut="1.6606402397155762e-01" cType="1" res="-2.5394359230995178e-01" rms="2.9867276549339294e-01" purity="1.0612899810075760e-01" nType="0">
            <Node pos="l" depth="3" NCoef="0" IVar="-1" Cut="0.0000000000000000e+00" cType="1" res="-7.7050826512277126e-03" rms="4.4379401206970215e-01" purity="2.8985506296157837e-01" nType="-1"/>
            <Node pos="r" depth="3" NCoef="0" IVar="-1" Cut="0.0000000000000000e+00" cType="1" res="-2.3775687441229820e-02" rms="2.7177053689956665e-01" purity="8.5633046925067902e-02" nType="-1"/>
          </Node>
        </Node>
      </Node>
    </BinaryTree>
    <BinaryTree type="DecisionTree" boostWeight="1.0000000000000000e+00" itree="12">
      <Node pos="s" depth="0" NCoef="0" IVar="3" Cut="3.4443528652191162e+00" cType="0" res="-1.8318592011928558e-01" rms="3.5532537102699280e-01" purity="2.0141513645648956e-01" nType="0">
        <Node pos="l" depth="1" NCoef="0" IVar="5" Cut="3.4055869579315186e+00" cType="1" res="6.4531974494457245e-02" rms="4.4866794347763062e-01" purity="5.8102983236312866e-01" nType="0">
          <Node pos="l" depth="2" NCoef="0" IVar="5" Cut="1.6473767757415771e+00" cType="1" res="1.9821198284626007e-01" rms="3.9297130703926086e-01" purity="7.7438741922378540e-01" nType="0">
            <Node pos="l" depth="3" NCoef="0" IVar="-1" Cut="0.0000000000000000e+00" cType="1" res="1.9566906616091728e-02" rms="3.6701247096061707e-01" purity="8.1803798675537109e-01" nType="1"/>
            <Node pos="r" depth="3" NCoef="0" IVar="-1" Cut="0.0000000000000000e+00" cType="1" res="-3.9059601258486509e-03" rms="4.7478887438774109e-01" purity="4.6441948413848877e-01" nType="-1"/>
          </Node>
          <Node pos="r" depth="2" NCoef="0" IVar="1" Cut="4.8763206601142883e-01" cType="1" res="-1.2482616305351257e-01" rms="4.5445975661277771e-01" purity="3.0713817477226257e-01" nType="0">
            <Node pos="l" depth="3" NCoef="0" IVar="-1" Cut="0.0000000000000000e+00" cType="1" res="-4.8030777834355831e-03" rms="4.8792585730552673e-01" purity="3.9465239644050598e-01" nType="-1"/>
            <Node pos="r" depth="3" NCoef="0" IVar="-1" Cut="0.0000000000000000e+00" cType="1" res="-1.9193500280380249e-02" rms="3.7313190102577209e-01" purity="1.6891892254352570e-01" nType="-1"/>
          </Node>
        </Node>
        <Node pos="r" depth="1" NCoef="0" IVar="4" Cut="-3.1737871170043945e+00" cType="1" res="-2.2633542120456696e-01" rms="3.1722718477249146e-01" purity="1.3529078662395477e-01" nType="0">
          <Node pos="l" depth="2" NCoef="0" IVar="6" Cut="-3.4042398929595947e+00" cType="0" res="8.1103568663820624e-04" rms="4.6705234050750732e-01" purity="4.8213332891464233e-01" nType="0">
            <Node pos="l" depth="3" NCoef="0" IVar="-1" Cut="0.0000000000000000e+00" cType="1" res="9.3884365633130074e-03" rms="4.5933493971824646e-01" purity="6.5851366519927979e-01" nType="1"/>
            <Node pos="r" depth="3" NCoef="0" IVar="-1" Cut="0.0000000000000000e+00" cType="1" res="-1.2426499277353287e-02" rms="4.3350261449813843e-01" purity="2.5123152136802673e-01" nType="-1"/>
          </Node>
          <Node pos="r" depth="2" NCoef="0" IVar="4" Cut="3.0328931808471680e+00" cType="0" res="-2.4839246273040771e-01" rms="2.8935462236404419e-01" purity="1.0161064565181732e-01" nType="0">
            <Node pos="l" depth="3" NCoef="0" IVar="-1" Cut="0.0000000000000000e+00" cType="1" res="8.2270288839936256e-04" rms="4.6887251734733582e-01" purity="5.1175808906555176e-01" nType="1"/>
            <Node pos="r" depth="3" NCoef="0" IVar="-1" Cut="0.0000000000000000e+00" cType="1" res="-2.3177929222583771e-02" rms="2.7153345942497253e-01" purity="8.1722415983676910e-02" nType="-1"/>
          </Node>
        </Node>
      </Node>
    </BinaryTree>
    <BinaryTree type="DecisionTree" boostWeight="1.0000000000000000e+00" itree="13">
      <Node pos="s" depth="0" NCoef="0" IVar="3" Cut="3.3209815025329590e+00" cType="0" res="-1.7674852907657623e-01" rms="3.5269078612327576e-01" purity="2.0117391645908356e-01" nType="0">
        <Node pos="l" depth="1" NCoef="0" IVar="5" Cut="3.4225184917449951e+00" cType="1" res="5.6845284998416901e-02" rms="4.4784858822822571e-01" purity="5.7362288236618042e-01" nType="0">
          <Node pos="l" depth="2" NCoef="0" IVar="5" Cut="1.0752245187759399e+00" cType="1" res="1.8103235960006714e-01" rms="4.0041339397430420e-01" purity="7.6070302724838257e-01" nType="0">
            <Node pos="l" depth="3" NCoef="0" IVar="-1" Cut="0.0000000000000000e+00" cType="1" res="1.9378988072276115e-02" rms="3.5981968045234680e-01" purity="8.2061737775802612e-01" nType="1"/>
            <Node pos="r" depth="3" NCoef="0" IVar="-1" Cut="0.0000000000000000e+00" cType="1" res="1.5395059017464519e-03" rms="4.8150759935379028e-01" purity="5.5577689409255981e-01" nType="1"/>
          </Node>
          <Node pos="r" depth="2" NCoef="0" IVar="1" Cut="3.6678519845008850e-01" cType="1" res="-1.2014324218034744e-01" rms="4.5233756303787231e-01" purity="3.0700063705444336e-01" nType="0">
            <Node pos="l" depth="3" NCoef="0" IVar="-1" Cut="0.0000000000000000e+00" cType="1" res="-1.6853420529514551e-03" rms="4.9277693033218384e-01" purity="4.3503651022911072e-01" nType="-1"/>
            <Node pos="r" depth="3" NCoef="0" IVar="-1" Cut="0.0000000000000000e+00" cType="1" res="-1.6573578119277954e-02" rms="4.0093842148780823e-01" purity="2.0642201602458954e-01" nType="-1"/>
          </Node>
        </Node>
        <Node pos="r" depth="1" NCoef="0" IVar="3" Cut="-3.8058106899261475e+00" cType="1" res="-2.1855582296848297e-01" rms="3.1502887606620789e-01" purity="1.3451512157917023e-01" nType="0">
          <Node pos="l" depth="2" NCoef="0" IVar="5" Cut="-3.4487354755401611e+00" cType="0" res="6.2742880545556545e-03" rms="4.6422073245048523e-01" purity="4.6776860952377319e-01" nType="0">
            <Node pos="l" depth="3" NCoef="0" IVar="-1" Cut="0.0000000000000000e+00" cType="1" res="1.0565811768174171e-02" rms="4.5798292756080627e-01" purity="6.5113973617553711e-01" nType="1"/>
            <Node pos="r" depth="3" NCoef="0" IVar="-1" Cut="0.0000000000000000e+00" cType="1" res="-1.2421317398548126e-02" rms="4.2547184228897095e-01" purity="2.3821340501308441e-01" nType="-1"/>
          </Node>
          <Node pos="r" depth="2" NCoef="0" IVar="4" Cut="4.3366999626159668e+00" cType="0" res="-2.3971781134605408e-01" rms="2.8826174139976501e-01" purity="1.0314784944057465e-01" nType="0">
            <Node pos="l" depth="3" NCoef="0" IVar="-1" Cut="0.0000000000000000e+00" cType="1" res="4.6416600234806538e-03" rms="4.6043270826339722e-01" purity="5.7263511419296265e-01" nType="1"/>
            <Node pos="r" depth="3" NCoef="0" IVar="-1" Cut="0.0000000000000000e+00" cType="1" res="-2.2384736686944962e-02" rms="2.7594369649887085e-01" purity="8.8277779519557953e-02" nType="-1"/>
          </Node>
        </Node>
      </Node>
    </BinaryTree>
    <BinaryTree type="DecisionTree" boostWeight="1.0000000000000000e+00" itree="14">
      <Node pos="s" depth="0" NCoef="0" IVar="4" Cut="3.6362564563751221e+00" cType="0" res="-1.7120741307735443e-01" rms="3.4927183389663696e-01" purity="1.9904144108295441e-01" nType="0">
        <Node pos="l" depth="1" NCoef="0" IVar="6" Cut="3.4476428031921387e+00" cType="1" res="6.3374534249305725e-02" rms="4.3767908215522766e-01" purity="6.0343766212463379e-01" nType="0">
          <Node pos="l" depth="2" NCoef="0" IVar="5" Cut="1.9084495306015015e+00" cType="1" res="1.8014319241046906e-01" rms="3.8858520984649658e-01" purity="7.9483360052108765e-01" nType="0">
            <Node pos="l" depth="3" NCoef="0" IVar="-1" Cut="0.0000000000000000e+00" cType="1" res="1.7138641327619553e-02" rms="3.7157773971557617e-01" purity="8.2058191299438477e-01" nType="1"/>
            <Node pos="r" depth="3" NCoef="0" IVar="-1" Cut="0.0000000000000000e+00" cType="1" res="-4.8667765222489834e-03" rms="4.9127116799354553e-01" purity="4.9044585227966309e-01" nType="-1"/>
          </Node>
          <Node pos="r" depth="2" NCoef="0" IVar="1" Cut="5.0411391258239746e-01" cType="1" res="-1.2542490661144257e-01" rms="4.4660869240760803e-01" purity="2.9397588968276978e-01" nType="0">
            <Node pos="l" depth="3" NCoef="0" IVar="-1" Cut="0.0000000000000000e+00" cType="1" res="-5.2873301319777966e-03" rms="4.8540800809860229e-01" purity="3.8451442122459412e-01" nType="-1"/>
            <Node pos="r" depth="3" NCoef="0" IVar="-1" Cut="0.0000000000000000e+00" cType="1" res="-1.8914965912699699e-02" rms="3.5737508535385132e-01" purity="1.5113872289657593e-01" nType="-1"/>
          </Node>
        </Node>
        <Node pos="r" depth="1" NCoef="0" IVar="4" Cut="-3.4799492359161377e+00" cType="1" res="-2.0663775503635406e-01" rms="3.1924328207969666e-01" purity="1.3796301186084747e-01" nType="0">
          <Node pos="l" depth="2" NCoef="0" IVar="6" Cut="-3.2929816246032715e+00" cType="0" res="1.6189346089959145e-02" rms="4.6561834216117859e-01" purity="5.0164651870727539e-01" nType="0">
            <Node pos="l" depth="3" NCoef="0" IVar="-1" Cut="0.0000000000000000e+00" cType="1" res="1.0578765533864498e-02" rms="4.5418113470077515e-01" purity="6.8817204236984253e-01" nType="1"/>
            <Node pos="r" depth="3" NCoef="0" IVar="-1" Cut="0.0000000000000000e+00" cType="1" res="-1.0835709050297737e-02" rms="4.3912434577941895e-01" purity="2.6282852888107300e-01" nType="-1"/>
          </Node>
          <Node pos="r" depth="2" NCoef="0" IVar="1" Cut="2.5762355327606201e-01" cType="1" res="-2.2719530761241913e-01" rms="2.9379230737686157e-01" purity="1.0441035032272339e-01" nType="0">
            <Node pos="l" depth="3" NCoef="0" IVar="-1" Cut="0.0000000000000000e+00" cType="1" res="-1.1547172442078590e-02" rms="3.9731410145759583e-01" purity="2.1747764945030212e-01" nType="-1"/>
            <Node pos="r" depth="3" NCoef="0" IVar="-1" Cut="0.0000000000000000e+00" cType="1" res="-2.3008747026324272e-02" rms="2.5477325916290283e-01" purity="7.5440496206283569e-02" nType="-1"/>
          </Node>
        </Node>
      </Node>
    </BinaryTree>
    <BinaryTree type="DecisionTree" boostWeight="1.0000000000000000e+00" itree="15">
      <Node pos="s" depth="0" NCoef="0" IVar="3" Cut="3.4443528652191162e+00" cType="0" res="-1.6320501267910004e-01" rms="3.4731915593147278e-01" purity="2.0036007463932037e-01" nType="0">
        <Node pos="l" depth="1" NCoef="0" IVar="5" Cut="3.4225184917449951e+00" cType="1" res="5.5184546858072281e-02" rms="4.4453305006027222e-01" purity="5.7334405183792114e-01" nType="0">
          <Node pos="l" depth="2" NCoef="0" IVar="5" Cut="1.9952355623245239e+00" cType="1" res="1.7450773715972900e-01" rms="3.9898729324340820e-01" purity="7.6568263769149780e-01" nType="0">
            <Node pos="l" depth="3" NCoef="0" IVar="-1" Cut="0.0000000000000000e+00" cType="1" res="1.7337918281555176e-02" rms="3.8017469644546509e-01" purity="8.0252528190612793e-01" nType="1"/>
            <Node pos="r" depth="3" NCoef="0" IVar="-1" Cut="0.0000000000000000e+00" cType="1" res="-1.0034554637968540e-02" rms="4.6532943844795227e-01" purity="3.7765958905220032e-01" nType="-1"/>
          </Node>
          <Node pos="r" depth="2" NCoef="0" IVar="1" Cut="3.7941008806228638e-01" cType="1" res="-1.1053784936666489e-01" rms="4.5136371254920959e-01" purity="3.0621397495269775e-01" nType="0">
            <Node pos="l" depth="3" NCoef="0" IVar="-1" Cut="0.0000000000000000e+00" cType="1" res="-2.2939078044146299e-03" rms="4.9236154556274414e-01" purity="4.2475387454032898e-01" nType="-1"/>
            <Node pos="r" depth="3" NCoef="0" IVar="-1" Cut="0.0000000000000000e+00" cType="1" res="-1.5247532166540623e-02" rms="4.0122324228286743e-01" purity="2.0705881714820862e-01" nType="-1"/>
          </Node>
        </Node>
        <Node pos="r" depth="1" NCoef="0" IVar="3" Cut="-3.6854126453399658e+00" cType="1" res="-2.0149970054626465e-01" rms="3.1193375587463379e-01" purity="1.3495720922946930e-01" nType="0">
          <Node pos="l" depth="2" NCoef="0" IVar="5" Cut="-3.4529707431793213e+00" cType="0" res="1.7133541405200958e-02" rms="4.5640614628791809e-01" purity="4.7307690978050232e-01" nType="0">
            <Node pos="l" depth="3" NCoef="0" IVar="-1" Cut="0.0000000000000000e+00" cType="1" res="1.2570681981742382e-02" rms="4.4134452939033508e-01" purity="6.7393457889556885e-01" nType="1"/>
            <Node pos="r" depth="3" NCoef="0" IVar="-1" Cut="0.0000000000000000e+00" cType="1" res="-1.2900839559733868e-02" rms="4.1832643747329712e-01" purity="2.2318126261234283e-01" nType="-1"/>
          </Node>
          <Node pos="r" depth="2" NCoef="0" IVar="4" Cut="6.9961285591125488e+00" cType="0" res="-2.2196212410926819e-01" rms="2.8639316558837891e-01" purity="1.0331173241138458e-01" nType="0">
            <Node pos="l" depth="3" NCoef="0" IVar="-1" Cut="0.0000000000000000e+00" cType="1" res="1.0447361506521702e-02" rms="4.2938220500946045e-01" purity="6.6666668653488159e-01" nType="1"/>
            <Node pos="r" depth="3" NCoef="0" IVar="-1" Cut="0.0000000000000000e+00" cType="1" res="-2.1189052611589432e-02" rms="2.7807134389877319e-01" purity="9.1601051390171051e-02" nType="-1"/>
          </Node>
        </Node>
      </Node>
    </BinaryTree>
    <BinaryTree type="DecisionTree" boostWeight="1.0000000000000000e+00" itree="16">
      <Node pos="s" depth="0" NCoef="0" IVar="3" Cut="3.3209815025329590e+00" cType="0" res="-1.5489827096462250e-01" rms="3.4650552272796631e-01" purity="2.0212976634502411e-01" nType="0">
        <Node pos="l" depth="1" NCoef="0" IVar="5" Cut="3.3560686111450195e+00" cType="1" res="5.5312857031822205e-02" rms="4.3953889608383179e-01" purity="5.7384413480758667e-01" nType="0">
          <Node pos="l" depth="2" NCoef="0" IVar="5" Cut="1.9643217325210571e+00" cType="1" res="1.7371095716953278e-01" rms="3.8996416330337524e-01" purity="7.7092915773391724e-01" nType="0">
            <Node pos="l" depth="3" NCoef="0" IVar="-1" Cut="0.0000000000000000e+00" cType="1" res="1.7138639464974403e-02" rms="3.7096452713012695e-01" purity="8.0565369129180908e-01" nType="1"/>
            <Node pos="r" depth="3" NCoef="0" IVar="-1" Cut="0.0000000000000000e+00" cType="1" res="-6.6181663423776627e-03" rms="4.7864824533462524e-01" purity="4.1450777649879456e-01" nType="-1"/>
          </Node>
          <Node pos="r" depth="2" NCoef="0" IVar="1" Cut="5.6659901142120361e-01" cType="1" res="-1.0446210950613022e-01" rms="4.5193240046501160e-01" purity="3.0788329243659973e-01" nType="0">
            <Node pos="l" depth="3" NCoef="0" IVar="-1" Cut="0.0000000000000000e+00" cType="1" res="-4.3749222531914711e-03" rms="4.8148012161254883e-01" purity="3.7973567843437195e-01" nType="-1"/>
            <Node pos="r" depth="3" NCoef="0" IVar="-1" Cut="0.0000000000000000e+00" cType="1" res="-1.9723962992429733e-02" rms="3.4269747138023376e-01" purity="1.3655462861061096e-01" nType="-1"/>
          </Node>
        </Node>
        <Node pos="r" depth="1" NCoef="0" IVar="3" Cut="-3.8048298358917236e+00" cType="1" res="-1.9210943579673767e-01" rms="3.1291237473487854e-01" purity="1.3632962107658386e-01" nType="0">
          <Node pos="l" depth="2" NCoef="0" IVar="5" Cut="-3.4088411331176758e+00" cType="0" res="1.3489146716892719e-02" rms="4.5446929335594177e-01" purity="4.6954596042633057e-01" nType="0">
            <Node pos="l" depth="3" NCoef="0" IVar="-1" Cut="0.0000000000000000e+00" cType="1" res="1.1680247262120247e-02" rms="4.4361048936843872e-01" purity="6.7420351505279541e-01" nType="1"/>
            <Node pos="r" depth="3" NCoef="0" IVar="-1" Cut="0.0000000000000000e+00" cType="1" res="-1.1690485291182995e-02" rms="4.2098265886306763e-01" purity="2.3049218952655792e-01" nType="-1"/>
          </Node>
          <Node pos="r" depth="2" NCoef="0" IVar="1" Cut="1.8592236936092377e-01" cType="1" res="-2.1107710897922516e-01" rms="2.8919383883476257e-01" purity="1.0558847337961197e-01" nType="0">
            <Node pos="l" depth="3" NCoef="0" IVar="-1" Cut="0.0000000000000000e+00" cType="1" res="-7.1072969585657120e-03" rms="4.2379933595657349e-01" purity="2.6654976606369019e-01" nType="-1"/>
            <Node pos="r" depth="3" NCoef="0" IVar="-1" Cut="0.0000000000000000e+00" cType="1" res="-2.1505910903215408e-02" rms="2.6146551966667175e-01" purity="8.4359638392925262e-02" nType="-1"/>
          </Node>
        </Node>
      </Node>
    </BinaryTree>
    <BinaryTree type="DecisionTree" boostWeight="1.0000000000000000e+00" itree="17">
      <Node pos="s" depth="0" NCoef="0" IVar="3" Cut="3.4508032798767090e+00" cType="0" res="-1.5027888119220734e-01" rms="3.4408420324325562e-01" purity="2.0097102224826813e-01" nType="0">
        <Node pos="l" depth="1" NCoef="0" IVar="5" Cut="3.4616265296936035e+00" cType="1" res="5.4874841123819351e-02" rms="4.3859788775444031e-01" purity="5.7732510566711426e-01" nType="0">
          <Node pos="l" depth="2" NCoef="0" IVar="6" Cut="1.4081261157989502e+00" cType="1" res="1.6873927414417267e-01" rms="3.9240589737892151e-01" purity="7.7262288331985474e-01" nType="0">
            <Node pos="l" depth="3" NCoef="0" IVar="-1" Cut="0.0000000000000000e+00" cType="1" res="1.7947556450963020e-02" rms="3.6189854145050049e-01" purity="8.2140845060348511e-01" nType="1"/>
            <Node pos="r" depth="3" NCoef="0" IVar="-1" Cut="0.0000000000000000e+00" cType="1" res="1.0327347990823910e-04" rms="4.7029551863670349e-01" purity="5.5721390247344971e-01" nType="1"/>
          </Node>
          <Node pos="r" depth="2" NCoef="0" IVar="1" Cut="3.7941008806228638e-01" cType="1" res="-1.0463793575763702e-01" rms="4.5003947615623474e-01" purity="3.0373230576515198e-01" nType="0">
            <Node pos="l" depth="3" NCoef="0" IVar="-1" Cut="0.0000000000000000e+00" cType="1" res="-1.8497600685805082e-03" rms="4.9335068464279175e-01" purity="4.2616033554077148e-01" nType="-1"/>
            <Node pos="r" depth="3" NCoef="0" IVar="-1" Cut="0.0000000000000000e+00" cType="1" res="-1.4956986531615257e-02" rms="3.9706367254257202e-01" purity="2.0047450065612793e-01" nType="-1"/>
          </Node>
        </Node>
        <Node pos="r" depth="1" NCoef="0" IVar="3" Cut="-3.6677982807159424e+00" cType="1" res="-1.8605157732963562e-01" rms="3.1124982237815857e-01" purity="1.3534606993198395e-01" nType="0">
          <Node pos="l" depth="2" NCoef="0" IVar="5" Cut="-3.4358577728271484e+00" cType="0" res="1.0190736502408981e-02" rms="4.5804473757743835e-01" purity="4.7007617354393005e-01" nType="0">
            <Node pos="l" depth="3" NCoef="0" IVar="-1" Cut="0.0000000000000000e+00" cType="1" res="9.6727199852466583e-03" rms="4.5487344264984131e-01" purity="6.5225744247436523e-01" nType="1"/>
            <Node pos="r" depth="3" NCoef="0" IVar="-1" Cut="0.0000000000000000e+00" cType="1" res="-1.1182783171534538e-02" rms="4.2412689328193665e-01" purity="2.3212045431137085e-01" nType="-1"/>
          </Node>
          <Node pos="r" depth="2" NCoef="0" IVar="1" Cut="1.8479292094707489e-01" cType="1" res="-2.0449288189411163e-01" rms="2.8688895702362061e-01" purity="1.0389079153537750e-01" nType="0">
            <Node pos="l" depth="3" NCoef="0" IVar="-1" Cut="0.0000000000000000e+00" cType="1" res="-6.8592722527682781e-03" rms="4.2316141724586487e-01" purity="2.6655051112174988e-01" nType="-1"/>
            <Node pos="r" depth="3" NCoef="0" IVar="-1" Cut="0.0000000000000000e+00" cType="1" res="-2.1191755309700966e-02" rms="2.5872847437858582e-01" purity="8.2256853580474854e-02" nType="-1"/>
          </Node>
        </Node>
      </Node>
    </BinaryTree>
    <BinaryTree type="DecisionTree" boostWeight="1.0000000000000000e+00" itree="18">
      <Node pos="s" depth="0" NCoef="0" IVar="3" Cut="3.3555901050567627e+00" cType="0" res="-1.4485129714012146e-01" rms="3.4225764870643616e-01" purity="1.9885887205600739e-01" nType="0">
        <Node pos="l" depth="1" NCoef="0" IVar="5" Cut="3.4303281307220459e+00" cType="1" res="5.0537671893835068e-02" rms="4.3946108222007751e-01" purity="5.7325357198715210e-01" nType="0">
          <Node pos="l" depth="2" NCoef="0" IVar="5" Cut="1.0808027982711792e+00" cType="1" res="1.4542765915393829e-01" rms="4.0150657296180725e-01" purity="7.5334870815277100e-01" nType="0">
            <Node pos="l" depth="3" NCoef="0" IVar="-1" Cut="0.0000000000000000e+00" cType="1" res="1.6666272655129433e-02" rms="3.6487403512001038e-01" purity="8.1596189737319946e-01" nType="1"/>
            <Node pos="r" depth="3" NCoef="0" IVar="-1" Cut="0.0000000000000000e+00" cType="1" res="-5.0971191376447678e-04" rms="4.7809210419654846e-01" purity="5.3703701496124268e-01" nType="1"/>
          </Node>
          <Node pos="r" depth="2" NCoef="0" IVar="1" Cut="3.7941008806228638e-01" cType="1" res="-8.5153751075267792e-02" rms="4.5550101995468140e-01" purity="3.1571993231773376e-01" nType="0">
            <Node pos="l" depth="3" NCoef="0" IVar="-1" Cut="0.0000000000000000e+00" cType="1" res="-1.5916450138320215e-05" rms="4.9654185771942139e-01" purity="4.4460642337799072e-01" nType="-1"/>
            <Node pos="r" depth="3" NCoef="0" IVar="-1" Cut="0.0000000000000000e+00" cType="1" res="-1.3543806038796902e-02" rms="4.0518504381179810e-01" purity="2.0893719792366028e-01" nType="-1"/>
          </Node>
        </Node>
        <Node pos="r" depth="1" NCoef="0" IVar="3" Cut="-3.7681491374969482e+00" cType="1" res="-1.7846690118312836e-01" rms="3.1043398380279541e-01" purity="1.3444630801677704e-01" nType="0">
          <Node pos="l" depth="2" NCoef="0" IVar="5" Cut="-3.4529707431793213e+00" cType="0" res="-1.9367309287190437e-03" rms="4.5486947894096375e-01" purity="4.5392876863479614e-01" nType="0">
            <Node pos="l" depth="3" NCoef="0" IVar="-1" Cut="0.0000000000000000e+00" cType="1" res="8.6096236482262611e-03" rms="4.5316663384437561e-01" purity="6.4330542087554932e-01" nType="1"/>
            <Node pos="r" depth="3" NCoef="0" IVar="-1" Cut="0.0000000000000000e+00" cType="1" res="-1.1017592623829842e-02" rms="4.2486327886581421e-01" purity="2.3124231398105621e-01" nType="-1"/>
          </Node>
          <Node pos="r" depth="2" NCoef="0" IVar="4" Cut="6.2630910873413086e+00" cType="0" res="-1.9438746571540833e-01" rms="2.8868049383163452e-01" purity="1.0563344508409500e-01" nType="0">
            <Node pos="l" depth="3" NCoef="0" IVar="-1" Cut="0.0000000000000000e+00" cType="1" res="9.1789504513144493e-03" rms="4.3997943401336670e-01" purity="6.3196128606796265e-01" nType="1"/>
            <Node pos="r" depth="3" NCoef="0" IVar="-1" Cut="0.0000000000000000e+00" cType="1" res="-1.9462959840893745e-02" rms="2.8091812133789062e-01" purity="9.4313092529773712e-02" nType="-1"/>
          </Node>
        </Node>
      </Node>
    </BinaryTree>
    <BinaryTree type="DecisionTree" boostWeight="1.0000000000000000e+00" itree="19">
      <Node pos="s" depth="0" NCoef="0" IVar="4" Cut="3.5022964477539062e+00" cType="0" res="-1.3993826508522034e-01" rms="3.3988082408905029e-01" purity="1.9903826713562012e-01" nType="0">
        <Node pos="l" depth="1" NCoef="0" IVar="6" Cut="3.4456455707550049e+00" cType="1" res="5.9250969439744949e-02" rms="4.2738792300224304e-01" purity="6.0221159458160400e-01" nType="0">
          <Node pos="l" depth="2" NCoef="0" IVar="6" Cut="1.7854076623916626e+00" cType="1" res="1.5689140558242798e-01" rms="3.8291808962821960e-01" purity="7.8972870111465454e-01" nType="0">
            <Node pos="l" depth="3" NCoef="0" IVar="-1" Cut="0.0000000000000000e+00" cType="1" res="1.6589950770139694e-02" rms="3.5756790637969971e-01" purity="8.3111113309860229e-01" nType="1"/>
            <Node pos="r" depth="3" NCoef="0" IVar="-1" Cut="0.0000000000000000e+00" cType="1" res="-3.9304802194237709e-03" rms="4.7603806853294373e-01" purity="5.0757575035095215e-01" nType="1"/>
          </Node>
          <Node pos="r" depth="2" NCoef="0" IVar="1" Cut="3.9641764760017395e-01" cType="1" res="-9.7948610782623291e-02" rms="4.4789972901344299e-01" purity="3.0031201243400574e-01" nType="0">
            <Node pos="l" depth="3" NCoef="0" IVar="-1" Cut="0.0000000000000000e+00" cType="1" res="-1.7528414027765393e-03" rms="4.9343633651733398e-01" purity="4.2586207389831543e-01" nType="-1"/>
            <Node pos="r" depth="3" NCoef="0" IVar="-1" Cut="0.0000000000000000e+00" cType="1" res="-1.4136547222733498e-02" rms="3.9548173546791077e-01" purity="1.9658119976520538e-01" nType="-1"/>
          </Node>
        </Node>
        <Node pos="r" depth="1" NCoef="0" IVar="1" Cut="2.7027338743209839e-01" cType="1" res="-1.7078129947185516e-01" rms="3.1309375166893005e-01" purity="1.3660974800586700e-01" nType="0">
          <Node pos="l" depth="2" NCoef="0" IVar="4" Cut="-3.3955075740814209e+00" cType="1" res="-6.1610028147697449e-02" rms="4.0930545330047607e-01" purity="2.7890467643737793e-01" nType="0">
            <Node pos="l" depth="3" NCoef="0" IVar="-1" Cut="0.0000000000000000e+00" cType="1" res="1.4095515012741089e-02" rms="4.2637240886688232e-01" purity="6.7192429304122925e-01" nType="1"/>
            <Node pos="r" depth="3" NCoef="0" IVar="-1" Cut="0.0000000000000000e+00" cType="1" res="-8.9870328083634377e-03" rms="3.9562895894050598e-01" purity="2.2090317308902740e-01" nType="-1"/>
          </Node>
          <Node pos="r" depth="2" NCoef="0" IVar="4" Cut="-3.6242003440856934e+00" cType="1" res="-2.0305028557777405e-01" rms="2.7003648877143860e-01" purity="9.4550035893917084e-02" nType="0">
            <Node pos="l" depth="3" NCoef="0" IVar="-1" Cut="0.0000000000000000e+00" cType="1" res="-5.5640842765569687e-03" rms="4.5397382974624634e-01" purity="3.9511373639106750e-01" nType="-1"/>
            <Node pos="r" depth="3" NCoef="0" IVar="-1" Cut="0.0000000000000000e+00" cType="1" res="-2.1127186715602875e-02" rms="2.4729324877262115e-01" purity="7.1520783007144928e-02" nType="-1"/>
          </Node>
        </Node>
      </Node>
    </BinaryTree>
    <BinaryTree type="DecisionTree" boostWeight="1.0000000000000000e+00" itree="20">
      <Node pos="s" depth="0" NCoef="0" IVar="3" Cut="3.0531358718872070e+00" cType="0" res="-1.3309919834136963e-01" rms="3.3829182386398315e-01" purity="1.9975873827934265e-01" nType="0">
        <Node pos="l" depth="1" NCoef="0" IVar="5" Cut="3.4538168907165527e+00" cType="1" res="4.9224127084016800e-02" rms="4.3214595317840576e-01" purity="5.6681430339813232e-01" nType="0">
          <Node pos="l" depth="2" NCoef="0" IVar="5" Cut="2.1525013446807861e+00" cType="1" res="1.4708614349365234e-01" rms="3.9037090539932251e-01" purity="7.5287866592407227e-01" nType="0">
            <Node pos="l" depth="3" NCoef="0" IVar="-1" Cut="0.0000000000000000e+00" cType="1" res="1.5051332302391529e-02" rms="3.7444463372230530e-01" purity="7.8554219007492065e-01" nType="1"/>
            <Node pos="r" depth="3" NCoef="0" IVar="-1" Cut="0.0000000000000000e+00" cType="1" res="-8.5923783481121063e-03" rms="4.7044536471366882e-01" purity="3.8251367211341858e-01" nType="-1"/>
          </Node>
          <Node pos="r" depth="2" NCoef="0" IVar="1" Cut="4.9407207965850830e-01" cType="1" res="-9.0543396770954132e-02" rms="4.5012381672859192e-01" purity="3.0107527971267700e-01" nType="0">
            <Node pos="l" depth="3" NCoef="0" IVar="-1" Cut="0.0000000000000000e+00" cType="1" res="-3.5832310095429420e-03" rms="4.8495000600814819e-01" purity="3.8335046172142029e-01" nType="-1"/>
            <Node pos="r" depth="3" NCoef="0" IVar="-1" Cut="0.0000000000000000e+00" cType="1" res="-1.4994745142757893e-02" rms="3.7586113810539246e-01" purity="1.6940788924694061e-01" nType="-1"/>
          </Node>
        </Node>
        <Node pos="r" depth="1" NCoef="0" IVar="4" Cut="-3.3077471256256104e+00" cType="1" res="-1.6638049483299255e-01" rms="3.0670264363288879e-01" purity="1.3275641202926636e-01" nType="0">
          <Node pos="l" depth="2" NCoef="0" IVar="6" Cut="-3.4098474979400635e+00" cType="0" res="1.4515133574604988e-02" rms="4.5668119192123413e-01" purity="4.8466593027114868e-01" nType="0">
            <Node pos="l" depth="3" NCoef="0" IVar="-1" Cut="0.0000000000000000e+00" cType="1" res="1.0106522589921951e-02" rms="4.5272025465965271e-01" purity="6.7570185661315918e-01" nType="1"/>
            <Node pos="r" depth="3" NCoef="0" IVar="-1" Cut="0.0000000000000000e+00" cType="1" res="-1.0917896404862404e-02" rms="4.2276102304458618e-01" purity="2.3581336438655853e-01" nType="-1"/>
          </Node>
          <Node pos="r" depth="2" NCoef="0" IVar="4" Cut="2.9049799442291260e+00" cType="0" res="-1.8357995152473450e-01" rms="2.8244227170944214e-01" purity="9.9297061562538147e-02" nType="0">
            <Node pos="l" depth="3" NCoef="0" IVar="-1" Cut="0.0000000000000000e+00" cType="1" res="2.9644181486219168e-03" rms="4.6124625205993652e-01" purity="5.0515460968017578e-01" nType="1"/>
            <Node pos="r" depth="3" NCoef="0" IVar="-1" Cut="0.0000000000000000e+00" cType="1" res="-1.9543431699275970e-02" rms="2.6655343174934387e-01" purity="7.9969450831413269e-02" nType="-1"/>
          </Node>
        </Node>
      </Node>
    </BinaryTree>
    <BinaryTree type="DecisionTree" boostWeight="1.0000000000000000e+00" itree="21">
      <Node pos="s" depth="0" NCoef="0" IVar="4" Cut="3.5022964477539062e+00" cType="0" res="-1.2776413559913635e-01" rms="3.3731019496917725e-01" purity="2.0016048848628998e-01" nType="0">
        <Node pos="l" depth="1" NCoef="0" IVar="6" Cut="3.4099991321563721e+00" cType="1" res="5.6877840310335159e-02" rms="4.2296963930130005e-01" purity="6.0389804840087891e-01" nType="0">
          <Node pos="l" depth="2" NCoef="0" IVar="6" Cut="2.4635045528411865e+00" cType="1" res="1.5299177169799805e-01" rms="3.7716963887214661e-01" purity="7.9756098985671997e-01" nType="0">
            <Node pos="l" depth="3" NCoef="0" IVar="-1" Cut="0.0000000000000000e+00" cType="1" res="1.5631506219506264e-02" rms="3.6046475172042847e-01" purity="8.2615548372268677e-01" nType="1"/>
            <Node pos="r" depth="3" NCoef="0" IVar="-1" Cut="0.0000000000000000e+00" cType="1" res="-9.6414862200617790e-03" rms="4.7327664494514465e-01" purity="4.2465752363204956e-01" nType="-1"/>
          </Node>
          <Node pos="r" depth="2" NCoef="0" IVar="1" Cut="3.5329693555831909e-01" cType="1" res="-9.6455655992031097e-02" rms="4.4622611999511719e-01" purity="2.9494163393974304e-01" nType="0">
            <Node pos="l" depth="3" NCoef="0" IVar="-1" Cut="0.0000000000000000e+00" cType="1" res="-1.5286030247807503e-03" rms="4.9605298042297363e-01" purity="4.2914980649948120e-01" nType="-1"/>
            <Node pos="r" depth="3" NCoef="0" IVar="-1" Cut="0.0000000000000000e+00" cType="1" res="-1.2792290188372135e-02" rms="4.0458366274833679e-01" purity="2.1112516522407532e-01" nType="-1"/>
          </Node>
        </Node>
        <Node pos="r" depth="1" NCoef="0" IVar="1" Cut="2.0878012478351593e-01" cType="1" res="-1.5628571808338165e-01" rms="3.1247168779373169e-01" purity="1.3779526948928833e-01" nType="0">
          <Node pos="l" depth="2" NCoef="0" IVar="4" Cut="-3.4059629440307617e+00" cType="1" res="-3.1378328800201416e-02" rms="4.2493125796318054e-01" purity="3.1148019433021545e-01" nType="0">
            <Node pos="l" depth="3" NCoef="0" IVar="-1" Cut="0.0000000000000000e+00" cType="1" res="1.4579279348254204e-02" rms="4.2464238405227661e-01" purity="6.8191266059875488e-01" nType="1"/>
            <Node pos="r" depth="3" NCoef="0" IVar="-1" Cut="0.0000000000000000e+00" cType="1" res="-6.1046699993312359e-03" rms="4.1557720303535461e-01" purity="2.5110131502151489e-01" nType="-1"/>
          </Node>
          <Node pos="r" depth="2" NCoef="0" IVar="4" Cut="-3.6247839927673340e+00" cType="1" res="-1.7989416420459747e-01" rms="2.8010407090187073e-01" purity="1.0496750473976135e-01" nType="0">
            <Node pos="l" depth="3" NCoef="0" IVar="-1" Cut="0.0000000000000000e+00" cType="1" res="-2.6980603579431772e-03" rms="4.5374256372451782e-01" purity="4.2760181427001953e-01" nType="-1"/>
            <Node pos="r" depth="3" NCoef="0" IVar="-1" Cut="0.0000000000000000e+00" cType="1" res="-1.9579445943236351e-02" rms="2.5797361135482788e-01" purity="7.9550854861736298e-02" nType="-1"/>
          </Node>
        </Node>
      </Node>
    </BinaryTree>
    <BinaryTree type="DecisionTree" boostWeight="1.0000000000000000e+00" itree="22">
      <Node pos="s" depth="0" NCoef="0" IVar="3" Cut="3.5526597499847412e+00" cType="0" res="-1.2389193475246429e-01" rms="3.3589619398117065e-01" purity="1.9896061718463898e-01" nType="0">
        <Node pos="l" depth="1" NCoef="0" IVar="5" Cut="3.4055869579315186e+00" cType="1" res="4.8622895032167435e-02" rms="4.3192368745803833e-01" purity="5.7673269510269165e-01" nType="0">
          <Node pos="l" depth="2" NCoef="0" IVar="6" Cut="2.8161919116973877e+00" cType="1" res="1.3822230696678162e-01" rms="3.9022955298423767e-01" purity="7.7003818750381470e-01" nType="0">
            <Node pos="l" depth="3" NCoef="0" IVar="-1" Cut="0.0000000000000000e+00" cType="1" res="1.4279721304774284e-02" rms="3.7598332762718201e-01" purity="8.0113053321838379e-01" nType="1"/>
            <Node pos="r" depth="3" NCoef="0" IVar="-1" Cut="0.0000000000000000e+00" cType="1" res="-9.7673572599887848e-03" rms="4.7132739424705505e-01" purity="3.6666667461395264e-01" nType="-1"/>
          </Node>
          <Node pos="r" depth="2" NCoef="0" IVar="1" Cut="6.8932682275772095e-01" cType="1" res="-7.3325395584106445e-02" rms="4.5542863011360168e-01" purity="3.1363636255264282e-01" nType="0">
            <Node pos="l" depth="3" NCoef="0" IVar="-1" Cut="0.0000000000000000e+00" cType="1" res="-3.8935469929128885e-03" rms="4.7482952475547791e-01" purity="3.5749185085296631e-01" nType="-1"/>
            <Node pos="r" depth="3" NCoef="0" IVar="-1" Cut="0.0000000000000000e+00" cType="1" res="-1.6667373478412628e-02" rms="3.4943872690200806e-01" purity="1.4102564752101898e-01" nType="-1"/>
          </Node>
        </Node>
        <Node pos="r" depth="1" NCoef="0" IVar="3" Cut="-3.5726635456085205e+00" cType="1" res="-1.5323212742805481e-01" rms="3.0718716979026794e-01" purity="1.3471163809299469e-01" nType="0">
          <Node pos="l" depth="2" NCoef="0" IVar="5" Cut="-3.4530534744262695e+00" cType="0" res="1.0768841020762920e-02" rms="4.5193943381309509e-01" purity="4.5517608523368835e-01" nType="0">
            <Node pos="l" depth="3" NCoef="0" IVar="-1" Cut="0.0000000000000000e+00" cType="1" res="8.7771899998188019e-03" rms="4.5176485180854797e-01" purity="6.3770979642868042e-01" nType="1"/>
            <Node pos="r" depth="3" NCoef="0" IVar="-1" Cut="0.0000000000000000e+00" cType="1" res="-8.8860783725976944e-03" rms="4.2704460024833679e-01" purity="2.4041812121868134e-01" nType="-1"/>
          </Node>
          <Node pos="r" depth="2" NCoef="0" IVar="1" Cut="1.6833293437957764e-01" cType="1" res="-1.6898900270462036e-01" rms="2.8455927968025208e-01" purity="1.0392206907272339e-01" nType="0">
            <Node pos="l" depth="3" NCoef="0" IVar="-1" Cut="0.0000000000000000e+00" cType="1" res="-3.9310972206294537e-03" rms="4.2654559016227722e-01" purity="2.8168290853500366e-01" nType="-1"/>
            <Node pos="r" depth="3" NCoef="0" IVar="-1" Cut="0.0000000000000000e+00" cType="1" res="-1.9011467695236206e-02" rms="2.6033341884613037e-01" purity="8.4187738597393036e-02" nType="-1"/>
          </Node>
        </Node>
      </Node>
    </BinaryTree>
    <BinaryTree type="DecisionTree" boostWeight="1.0000000000000000e+00" itree="23">
      <Node pos="s" depth="0" NCoef="0" IVar="3" Cut="3.4443528652191162e+00" cType="0" res="-1.1690478026866913e-01" rms="3.3448043465614319e-01" purity="2.0202182233333588e-01" nType="0">
        <Node pos="l" depth="1" NCoef="0" IVar="5" Cut="3.4616265296936035e+00" cType="1" res="5.3896676748991013e-02" rms="4.2574083805084229e-01" purity="5.8665233850479126e-01" nType="0">
          <Node pos="l" depth="2" NCoef="0" IVar="5" Cut="1.0938469171524048e+00" cType="1" res="1.4904934167861938e-01" rms="3.8226163387298584e-01" purity="7.8358882665634155e-01" nType="0">
            <Node pos="l" depth="3" NCoef="0" IVar="-1" Cut="0.0000000000000000e+00" cType="1" res="1.6898136585950851e-02" rms="3.4553751349449158e-01" purity="8.4039467573165894e-01" nType="1"/>
            <Node pos="r" depth="3" NCoef="0" IVar="-1" Cut="0.0000000000000000e+00" cType="1" res="2.3363365326076746e-03" rms="4.6926677227020264e-01" purity="5.8585858345031738e-01" nType="1"/>
          </Node>
          <Node pos="r" depth="2" NCoef="0" IVar="1" Cut="5.2276319265365601e-01" cType="1" res="-8.6990237236022949e-02" rms="4.4723287224769592e-01" purity="2.9506006836891174e-01" nType="0">
            <Node pos="l" depth="3" NCoef="0" IVar="-1" Cut="0.0000000000000000e+00" cType="1" res="-4.6991943381726742e-03" rms="4.7739455103874207e-01" purity="3.6165803670883179e-01" nType="-1"/>
            <Node pos="r" depth="3" NCoef="0" IVar="-1" Cut="0.0000000000000000e+00" cType="1" res="-1.3212603516876698e-02" rms="3.8061600923538208e-01" purity="1.7448405921459198e-01" nType="-1"/>
          </Node>
        </Node>
        <Node pos="r" depth="1" NCoef="0" IVar="4" Cut="-3.3077471256256104e+00" cType="1" res="-1.4668743312358856e-01" rms="3.0627727508544922e-01" purity="1.3495378196239471e-01" nType="0">
          <Node pos="l" depth="2" NCoef="0" IVar="6" Cut="-3.4098474979400635e+00" cType="0" res="1.6326485201716423e-02" rms="4.5127022266387939e-01" purity="4.8756757378578186e-01" nType="0">
            <Node pos="l" depth="3" NCoef="0" IVar="-1" Cut="0.0000000000000000e+00" cType="1" res="9.9871028214693069e-03" rms="4.4541069865226746e-01" purity="6.8269228935241699e-01" nType="1"/>
            <Node pos="r" depth="3" NCoef="0" IVar="-1" Cut="0.0000000000000000e+00" cType="1" res="-1.0215144604444504e-02" rms="4.2342260479927063e-01" purity="2.3703703284263611e-01" nType="-1"/>
          </Node>
          <Node pos="r" depth="2" NCoef="0" IVar="4" Cut="2.9030780792236328e+00" cType="0" res="-1.6218385100364685e-01" rms="2.8389784693717957e-01" purity="1.0143363475799561e-01" nType="0">
            <Node pos="l" depth="3" NCoef="0" IVar="-1" Cut="0.0000000000000000e+00" cType="1" res="3.1028359662741423e-03" rms="4.6001854538917542e-01" purity="5.0647950172424316e-01" nType="1"/>
            <Node pos="r" depth="3" NCoef="0" IVar="-1" Cut="0.0000000000000000e+00" cType="1" res="-1.8247002735733986e-02" rms="2.6828372478485107e-01" purity="8.1197731196880341e-02" nType="-1"/>
          </Node>
        </Node>
      </Node>
    </BinaryTree>
    <BinaryTree type="DecisionTree" boostWeight="1.0000000000000000e+00" itree="24">
      <Node pos="s" depth="0" NCoef="0" IVar="4" Cut="3.5022964477539062e+00" cType="0" res="-1.1394010484218597e-01" rms="3.3197200298309326e-01" purity="1.9929510354995728e-01" nType="0">
        <Node pos="l" depth="1" NCoef="0" IVar="6" Cut="3.3874533176422119e+00" cType="1" res="5.4427146911621094e-02" rms="4.1792768239974976e-01" purity="6.0476189851760864e-01" nType="0">
          <Node pos="l" depth="2" NCoef="0" IVar="6" Cut="1.7589298486709595e+00" cType="1" res="1.5012481808662415e-01" rms="3.7063100934028625e-01" purity="8.0583941936492920e-01" nType="0">
            <Node pos="l" depth="3" NCoef="0" IVar="-1" Cut="0.0000000000000000e+00" cType="1" res="1.6298767179250717e-02" rms="3.4472593665122986e-01" purity="8.4654587507247925e-01" nType="1"/>
            <Node pos="r" depth="3" NCoef="0" IVar="-1" Cut="0.0000000000000000e+00" cType="1" res="-5.8890425134450197e-04" rms="4.7102117538452148e-01" purity="5.5709344148635864e-01" nType="1"/>
          </Node>
          <Node pos="r" depth="2" NCoef="0" IVar="0" Cut="1.2360569089651108e-02" cType="0" res="-9.6269197762012482e-02" rms="4.4301658868789673e-01" purity="2.8812259435653687e-01" nType="0">
            <Node pos="l" depth="3" NCoef="0" IVar="-1" Cut="0.0000000000000000e+00" cType="1" res="-2.1568089723587036e-03" rms="4.7036704421043396e-01" purity="3.6645963788032532e-01" nType="-1"/>
            <Node pos="r" depth="3" NCoef="0" IVar="-1" Cut="0.0000000000000000e+00" cType="1" res="-1.0321105830371380e-02" rms="4.3114575743675232e-01" purity="2.6246184110641479e-01" nType="-1"/>
          </Node>
        </Node>
        <Node pos="r" depth="1" NCoef="0" IVar="1" Cut="2.7027338743209839e-01" cType="1" res="-1.4012086391448975e-01" rms="3.0836483836174011e-01" purity="1.3624583184719086e-01" nType="0">
          <Node pos="l" depth="2" NCoef="0" IVar="4" Cut="-3.3050613403320312e+00" cType="1" res="-4.5979652553796768e-02" rms="4.0091773867607117e-01" purity="2.7287417650222778e-01" nType="0">
            <Node pos="l" depth="3" NCoef="0" IVar="-1" Cut="0.0000000000000000e+00" cType="1" res="1.3636722229421139e-02" rms="4.2150560021400452e-01" purity="6.6771161556243896e-01" nType="1"/>
            <Node pos="r" depth="3" NCoef="0" IVar="-1" Cut="0.0000000000000000e+00" cType="1" res="-7.5944722630083561e-03" rms="3.8863992691040039e-01" purity="2.1446788311004639e-01" nType="-1"/>
          </Node>
          <Node pos="r" depth="2" NCoef="0" IVar="4" Cut="-3.6230401992797852e+00" cType="1" res="-1.6810268163681030e-01" rms="2.6862519979476929e-01" purity="9.5635466277599335e-02" nType="0">
            <Node pos="l" depth="3" NCoef="0" IVar="-1" Cut="0.0000000000000000e+00" cType="1" res="-4.8593543469905853e-03" rms="4.4485649466514587e-01" purity="3.9966130256652832e-01" nType="-1"/>
            <Node pos="r" depth="3" NCoef="0" IVar="-1" Cut="0.0000000000000000e+00" cType="1" res="-1.9092563539743423e-02" rms="2.4806995689868927e-01" purity="7.2434738278388977e-02" nType="-1"/>
          </Node>
        </Node>
      </Node>
    </BinaryTree>
    <BinaryTree type="DecisionTree" boostWeight="1.0000000000000000e+00" itree="25">
      <Node pos="s" depth="0" NCoef="0" IVar="3" Cut="3.4443528652191162e+00" cType="0" res="-1.0975445806980133e-01" rms="3.3219513297080994e-01" purity="1.9860710203647614e-01" nType="0">
        <Node pos="l" depth="1" NCoef="0" IVar="5" Cut="3.3756990432739258e+00" cType="1" res="4.3187737464904785e-02" rms="4.2754444479942322e-01" purity="5.6947422027587891e-01" nType="0">
          <Node pos="l" depth="2" NCoef="0" IVar="5" Cut="1.9905769824981689e+00" cType="1" res="1.2186881899833679e-01" rms="3.8930684328079224e-01" purity="7.6127821207046509e-01" nType="0">
            <Node pos="l" depth="3" NCoef="0" IVar="-1" Cut="0.0000000000000000e+00" cType="1" res="1.3771578669548035e-02" rms="3.7126842141151428e-01" purity="8.0248188972473145e-01" nType="1"/>
            <Node pos="r" depth="3" NCoef="0" IVar="-1" Cut="0.0000000000000000e+00" cType="1" res="-1.2639381922781467e-02" rms="4.5269846916198730e-01" purity="3.5051545500755310e-01" nType="-1"/>
          </Node>
          <Node pos="r" depth="2" NCoef="0" IVar="1" Cut="3.8066226243972778e-01" cType="1" res="-6.1458095908164978e-02" rms="4.5293667912483215e-01" purity="3.1437501311302185e-01" nType="0">
            <Node pos="l" depth="3" NCoef="0" IVar="-1" Cut="0.0000000000000000e+00" cType="1" res="1.7623510211706161e-04" rms="4.9387559294700623e-01" purity="4.3275633454322815e-01" nType="-1"/>
            <Node pos="r" depth="3" NCoef="0" IVar="-1" Cut="0.0000000000000000e+00" cType="1" res="-1.0810508392751217e-02" rms="4.0511780977249146e-01" purity="2.0965842902660370e-01" nType="-1"/>
          </Node>
        </Node>
        <Node pos="r" depth="1" NCoef="0" IVar="4" Cut="-3.3077471256256104e+00" cType="1" res="-1.3657833635807037e-01" rms="3.0467447638511658e-01" purity="1.3356228172779083e-01" nType="0">
          <Node pos="l" depth="2" NCoef="0" IVar="6" Cut="-3.3214917182922363e+00" cType="0" res="1.2397004291415215e-02" rms="4.5238915085792542e-01" purity="4.8576033115386963e-01" nType="0">
            <Node pos="l" depth="3" NCoef="0" IVar="-1" Cut="0.0000000000000000e+00" cType="1" res="9.0290233492851257e-03" rms="4.4962859153747559e-01" purity="6.8015414476394653e-01" nType="1"/>
            <Node pos="r" depth="3" NCoef="0" IVar="-1" Cut="0.0000000000000000e+00" cType="1" res="-9.5488307997584343e-03" rms="4.2662996053695679e-01" purity="2.4058322608470917e-01" nType="-1"/>
          </Node>
          <Node pos="r" depth="2" NCoef="0" IVar="6" Cut="-1.6354459524154663e+00" cType="1" res="-1.5087291598320007e-01" rms="2.8242227435112000e-01" purity="9.9767982959747314e-02" nType="0">
            <Node pos="l" depth="3" NCoef="0" IVar="-1" Cut="0.0000000000000000e+00" cType="1" res="-7.7996787149459124e-04" rms="4.2300838232040405e-01" purity="2.3965652287006378e-01" nType="-1"/>
            <Node pos="r" depth="3" NCoef="0" IVar="-1" Cut="0.0000000000000000e+00" cType="1" res="-1.7462683841586113e-02" rms="2.6680803298950195e-01" purity="8.9875236153602600e-02" nType="-1"/>
          </Node>
        </Node>
      </Node>
    </BinaryTree>
    <BinaryTree type="DecisionTree" boostWeight="1.0000000000000000e+00" itree="26">
      <Node pos="s" depth="0" NCoef="0" IVar="4" Cut="3.2076900005340576e+00" cType="0" res="-1.0283822566270828e-01" rms="3.3170947432518005e-01" purity="2.0212340354919434e-01" nType="0">
        <Node pos="l" depth="1" NCoef="0" IVar="6" Cut="3.4367275238037109e+00" cType="1" res="5.6937027722597122e-02" rms="4.1688868403434753e-01" purity="6.0558563470840454e-01" nType="0">
          <Node pos="l" depth="2" NCoef="0" IVar="6" Cut="1.3117288351058960e+00" cType="1" res="1.3219515979290009e-01" rms="3.7665611505508423e-01" purity="7.8591036796569824e-01" nType="0">
            <Node pos="l" depth="3" NCoef="0" IVar="-1" Cut="0.0000000000000000e+00" cType="1" res="1.5710888430476189e-02" rms="3.4244236350059509e-01" purity="8.3720928430557251e-01" nType="1"/>
            <Node pos="r" depth="3" NCoef="0" IVar="-1" Cut="0.0000000000000000e+00" cType="1" res="-1.1421099770814180e-03" rms="4.6708381175994873e-01" purity="5.7210403680801392e-01" nType="1"/>
          </Node>
          <Node pos="r" depth="2" NCoef="0" IVar="1" Cut="4.9106907844543457e-01" cType="1" res="-6.7412391304969788e-02" rms="4.4914048910140991e-01" purity="3.0763417482376099e-01" nType="0">
            <Node pos="l" depth="3" NCoef="0" IVar="-1" Cut="0.0000000000000000e+00" cType="1" res="-9.5285486895591021e-04" rms="4.9014705419540405e-01" purity="4.0834388136863708e-01" nType="-1"/>
            <Node pos="r" depth="3" NCoef="0" IVar="-1" Cut="0.0000000000000000e+00" cType="1" res="-1.4232963323593140e-02" rms="3.6456972360610962e-01" purity="1.5789473056793213e-01" nType="-1"/>
          </Node>
        </Node>
        <Node pos="r" depth="1" NCoef="0" IVar="1" Cut="2.0878012478351593e-01" cType="1" res="-1.2897460162639618e-01" rms="3.0780076980590820e-01" purity="1.3612419366836548e-01" nType="0">
          <Node pos="l" depth="2" NCoef="0" IVar="4" Cut="-3.6966817378997803e+00" cType="1" res="-8.2238828763365746e-03" rms="4.2283904552459717e-01" purity="3.1911677122116089e-01" nType="0">
            <Node pos="l" depth="3" NCoef="0" IVar="-1" Cut="0.0000000000000000e+00" cType="1" res="1.4307429082691669e-02" rms="4.1218909621238708e-01" purity="7.0370370149612427e-01" nType="1"/>
            <Node pos="r" depth="3" NCoef="0" IVar="-1" Cut="0.0000000000000000e+00" cType="1" res="-3.6019936669617891e-03" rms="4.1772517561912537e-01" purity="2.5711274147033691e-01" nType="-1"/>
          </Node>
          <Node pos="r" depth="2" NCoef="0" IVar="4" Cut="-7.4502773284912109e+00" cType="1" res="-1.5097525715827942e-01" rms="2.7620026469230652e-01" purity="1.0278313606977463e-01" nType="0">
            <Node pos="l" depth="3" NCoef="0" IVar="-1" Cut="0.0000000000000000e+00" cType="1" res="-1.0899233893724158e-04" rms="4.5379880070686340e-01" purity="4.6973094344139099e-01" nType="-1"/>
            <Node pos="r" depth="3" NCoef="0" IVar="-1" Cut="0.0000000000000000e+00" cType="1" res="-1.7609562724828720e-02" rms="2.6146677136421204e-01" purity="8.3811514079570770e-02" nType="-1"/>
          </Node>
        </Node>
      </Node>
    </BinaryTree>
    <BinaryTree type="DecisionTree" boostWeight="1.0000000000000000e+00" itree="27">
      <Node pos="s" depth="0" NCoef="0" IVar="3" Cut="3.4443528652191162e+00" cType="0" res="-1.0157704353332520e-01" rms="3.2860055565834045e-01" purity="1.9915406405925751e-01" nType="0">
        <Node pos="l" depth="1" NCoef="0" IVar="5" Cut="3.4055869579315186e+00" cType="1" res="4.6415697783231735e-02" rms="4.2471164464950562e-01" purity="5.7991361618041992e-01" nType="0">
          <Node pos="l" depth="2" NCoef="0" IVar="1" Cut="4.2661422491073608e-01" cType="1" res="1.1980848759412766e-01" rms="3.8851648569107056e-01" purity="7.6887661218643188e-01" nType="0">
            <Node pos="l" depth="3" NCoef="0" IVar="-1" Cut="0.0000000000000000e+00" cType="1" res="1.6441889107227325e-02" rms="3.4765404462814331e-01" purity="8.2932692766189575e-01" nType="1"/>
            <Node pos="r" depth="3" NCoef="0" IVar="-1" Cut="0.0000000000000000e+00" cType="1" res="3.9166365750133991e-03" rms="4.2552000284194946e-01" purity="6.8722945451736450e-01" nType="1"/>
          </Node>
          <Node pos="r" depth="2" NCoef="0" IVar="1" Cut="3.9789268374443054e-01" cType="1" res="-5.7637266814708710e-02" rms="4.5127341151237488e-01" purity="3.1201043725013733e-01" nType="0">
            <Node pos="l" depth="3" NCoef="0" IVar="-1" Cut="0.0000000000000000e+00" cType="1" res="3.4911176044261083e-05" rms="4.9338662624359131e-01" purity="4.2645072937011719e-01" nType="-1"/>
            <Node pos="r" depth="3" NCoef="0" IVar="-1" Cut="0.0000000000000000e+00" cType="1" res="-1.0467044077813625e-02" rms="4.0032896399497986e-01" purity="2.0480404794216156e-01" nType="-1"/>
          </Node>
        </Node>
        <Node pos="r" depth="1" NCoef="0" IVar="3" Cut="-3.6854126453399658e+00" cType="1" res="-1.2724381685256958e-01" rms="3.0160278081893921e-01" purity="1.3311794400215149e-01" nType="0">
          <Node pos="l" depth="2" NCoef="0" IVar="5" Cut="-3.4487354755401611e+00" cType="0" res="1.7787758260965347e-02" rms="4.4509345293045044e-01" purity="4.5817387104034424e-01" nType="0">
            <Node pos="l" depth="3" NCoef="0" IVar="-1" Cut="0.0000000000000000e+00" cType="1" res="9.7237126901745796e-03" rms="4.4072571396827698e-01" purity="6.5353536605834961e-01" nType="1"/>
            <Node pos="r" depth="3" NCoef="0" IVar="-1" Cut="0.0000000000000000e+00" cType="1" res="-8.7612746283411980e-03" rms="4.2366239428520203e-01" purity="2.2765196859836578e-01" nType="-1"/>
          </Node>
          <Node pos="r" depth="2" NCoef="0" IVar="6" Cut="7.2119325399398804e-01" cType="0" res="-1.4082752168178558e-01" rms="2.8066796064376831e-01" purity="1.0267308354377747e-01" nType="0">
            <Node pos="l" depth="3" NCoef="0" IVar="-1" Cut="0.0000000000000000e+00" cType="1" res="-1.7369542038068175e-03" rms="4.2370539903640747e-01" purity="2.6677489280700684e-01" nType="-1"/>
            <Node pos="r" depth="3" NCoef="0" IVar="-1" Cut="0.0000000000000000e+00" cType="1" res="-1.7255548387765884e-02" rms="2.5780743360519409e-01" purity="8.5520364344120026e-02" nType="-1"/>
          </Node>
        </Node>
      </Node>
    </BinaryTree>
    <BinaryTree type="DecisionTree" boostWeight="1.0000000000000000e+00" itree="28">
      <Node pos="s" depth="0" NCoef="0" IVar="3" Cut="3.5526597499847412e+00" cType="0" res="-9.7956843674182892e-02" rms="3.2712829113006592e-01" purity="1.9837862253189087e-01" nType="0">
        <Node pos="l" depth="1" NCoef="0" IVar="5" Cut="3.4225184917449951e+00" cType="1" res="3.9652425795793533e-02" rms="4.2193713784217834e-01" purity="5.7456618547439575e-01" nType="0">
          <Node pos="l" depth="2" NCoef="0" IVar="5" Cut="9.5842570066452026e-01" cType="1" res="1.1720099300146103e-01" rms="3.8521450757980347e-01" purity="7.7392119169235229e-01" nType="0">
            <Node pos="l" depth="3" NCoef="0" IVar="-1" Cut="0.0000000000000000e+00" cType="1" res="1.4919041655957699e-02" rms="3.4509485960006714e-01" purity="8.3747607469558716e-01" nType="1"/>
            <Node pos="r" depth="3" NCoef="0" IVar="-1" Cut="0.0000000000000000e+00" cType="1" res="1.0401100153103471e-03" rms="4.6367701888084412e-01" purity="5.9680283069610596e-01" nType="1"/>
          </Node>
          <Node pos="r" depth="2" NCoef="0" IVar="1" Cut="3.6678519845008850e-01" cType="1" res="-6.6603064537048340e-02" rms="4.4622179865837097e-01" purity="3.0141389369964600e-01" nType="0">
            <Node pos="l" depth="3" NCoef="0" IVar="-1" Cut="0.0000000000000000e+00" cType="1" res="-5.7558930711820722e-04" rms="4.9352577328681946e-01" purity="4.2241379618644714e-01" nType="-1"/>
            <Node pos="r" depth="3" NCoef="0" IVar="-1" Cut="0.0000000000000000e+00" cType="1" res="-1.0716965422034264e-02" rms="3.9741232991218567e-01" purity="2.0348836481571198e-01" nType="-1"/>
          </Node>
        </Node>
        <Node pos="r" depth="1" NCoef="0" IVar="3" Cut="-3.5726635456085205e+00" cType="1" res="-1.2186296284198761e-01" rms="3.0135381221771240e-01" purity="1.3302557170391083e-01" nType="0">
          <Node pos="l" depth="2" NCoef="0" IVar="5" Cut="-3.4315395355224609e+00" cType="0" res="2.6954691857099533e-02" rms="4.4652137160301208e-01" purity="4.6852368116378784e-01" nType="0">
            <Node pos="l" depth="3" NCoef="0" IVar="-1" Cut="0.0000000000000000e+00" cType="1" res="9.7415978088974953e-03" rms="4.4394233822822571e-01" purity="6.5851169824600220e-01" nType="1"/>
            <Node pos="r" depth="3" NCoef="0" IVar="-1" Cut="0.0000000000000000e+00" cType="1" res="-7.1470709517598152e-03" rms="4.2746475338935852e-01" purity="2.3955774307250977e-01" nType="-1"/>
          </Node>
          <Node pos="r" depth="2" NCoef="0" IVar="4" Cut="5.2066946029663086e+00" cType="0" res="-1.3560834527015686e-01" rms="2.8027120232582092e-01" purity="1.0203766822814941e-01" nType="0">
            <Node pos="l" depth="3" NCoef="0" IVar="-1" Cut="0.0000000000000000e+00" cType="1" res="7.4506420642137527e-03" rms="4.3470314145088196e-01" purity="5.9774434566497803e-01" nType="1"/>
            <Node pos="r" depth="3" NCoef="0" IVar="-1" Cut="0.0000000000000000e+00" cType="1" res="-1.6233431175351143e-02" rms="2.7201083302497864e-01" purity="8.8085919618606567e-02" nType="-1"/>
          </Node>
        </Node>
      </Node>
    </BinaryTree>
    <BinaryTree type="DecisionTree" boostWeight="1.0000000000000000e+00" itree="29">
      <Node pos="s" depth="0" NCoef="0" IVar="4" Cut="3.8585460186004639e+00" cType="0" res="-9.2463247478008270e-02" rms="3.2802900671958923e-01" purity="2.0058700442314148e-01" nType="0">
        <Node pos="l" depth="1" NCoef="0" IVar="6" Cut="3.4367275238037109e+00" cType="1" res="5.4944597184658051e-02" rms="4.1191402077674866e-01" purity="6.2053853273391724e-01" nType="0">
          <Node pos="l" depth="2" NCoef="0" IVar="6" Cut="2.2557752132415771e+00" cType="1" res="1.2682783603668213e-01" rms="3.6927810311317444e-01" purity="8.0727094411849976e-01" nType="0">
            <Node pos="l" depth="3" NCoef="0" IVar="-1" Cut="0.0000000000000000e+00" cType="1" res="1.4373135752975941e-02" rms="3.5036590695381165e-01" purity="8.4167575836181641e-01" nType="1"/>
            <Node pos="r" depth="3" NCoef="0" IVar="-1" Cut="0.0000000000000000e+00" cType="1" res="-8.9998636394739151e-03" rms="4.7200772166252136e-01" purity="4.3529412150382996e-01" nType="-1"/>
          </Node>
          <Node pos="r" depth="2" NCoef="0" IVar="5" Cut="4.7596687316894531e+01" cType="0" res="-6.6759906709194183e-02" rms="4.5000445842742920e-01" purity="3.0438449978828430e-01" nType="0">
            <Node pos="l" depth="3" NCoef="0" IVar="-1" Cut="0.0000000000000000e+00" cType="1" res="2.9710580129176378e-03" rms="4.7544345259666443e-01" purity="3.8818565011024475e-01" nType="-1"/>
            <Node pos="r" depth="3" NCoef="0" IVar="-1" Cut="0.0000000000000000e+00" cType="1" res="-8.0259200185537338e-03" rms="4.3988940119743347e-01" purity="2.8345626592636108e-01" nType="-1"/>
          </Node>
        </Node>
        <Node pos="r" depth="1" NCoef="0" IVar="1" Cut="1.8292056024074554e-01" cType="1" res="-1.1418207734823227e-01" rms="3.0787092447280884e-01" purity="1.3871206343173981e-01" nType="0">
          <Node pos="l" depth="2" NCoef="0" IVar="0" Cut="1.8638795241713524e-02" cType="0" res="1.6930876299738884e-02" rms="4.2906445264816284e-01" purity="3.4785792231559753e-01" nType="0">
            <Node pos="l" depth="3" NCoef="0" IVar="-1" Cut="0.0000000000000000e+00" cType="1" res="1.7589394003152847e-02" rms="4.5855760574340820e-01" purity="5.2957749366760254e-01" nType="1"/>
            <Node pos="r" depth="3" NCoef="0" IVar="-1" Cut="0.0000000000000000e+00" cType="1" res="-7.6078792335465550e-04" rms="4.1890877485275269e-01" purity="3.2070708274841309e-01" nType="-1"/>
          </Node>
          <Node pos="r" depth="2" NCoef="0" IVar="4" Cut="-3.2391304969787598e+00" cType="1" res="-1.3308055698871613e-01" rms="2.8120490908622742e-01" purity="1.0856600105762482e-01" nType="0">
            <Node pos="l" depth="3" NCoef="0" IVar="-1" Cut="0.0000000000000000e+00" cType="1" res="-1.6203157138079405e-03" rms="4.4933956861495972e-01" purity="4.2729151248931885e-01" nType="-1"/>
            <Node pos="r" depth="3" NCoef="0" IVar="-1" Cut="0.0000000000000000e+00" cType="1" res="-1.6680683940649033e-02" rms="2.6020887494087219e-01" purity="8.2133062183856964e-02" nType="-1"/>
          </Node>
        </Node>
      </Node>
    </BinaryTree>
    <BinaryTree type="DecisionTree" boostWeight="1.0000000000000000e+00" itree="30">
      <Node pos="s" depth="0" NCoef="0" IVar="4" Cut="3.2076900005340576e+00" cType="0" res="-8.6647860705852509e-02" rms="3.2776591181755066e-01" purity="2.0326118171215057e-01" nType="0">
        <Node pos="l" depth="1" NCoef="0" IVar="6" Cut="3.4423344135284424e+00" cType="1" res="5.0386752933263779e-02" rms="4.1606643795967102e-01" purity="6.0197740793228149e-01" nType="0">
          <Node pos="l" depth="2" NCoef="0" IVar="1" Cut="4.2587682604789734e-01" cType="1" res="1.1639581620693207e-01" rms="3.7992566823959351e-01" purity="7.8290677070617676e-01" nType="0">
            <Node pos="l" depth="3" NCoef="0" IVar="-1" Cut="0.0000000000000000e+00" cType="1" res="1.5844788402318954e-02" rms="3.3880093693733215e-01" purity="8.3847403526306152e-01" nType="1"/>
            <Node pos="r" depth="3" NCoef="0" IVar="-1" Cut="0.0000000000000000e+00" cType="1" res="4.9954508431255817e-03" rms="4.1865611076354980e-01" purity="7.1129709482192993e-01" nType="1"/>
          </Node>
          <Node pos="r" depth="2" NCoef="0" IVar="0" Cut="1.1650714091956615e-02" cType="0" res="-5.6438565254211426e-02" rms="4.4855806231498718e-01" purity="3.0917158722877502e-01" nType="0">
