<?xml version="1.0"?>
<MethodSetup Method="BDT::BDTG_bnesstagger_bjet">
  <GeneralInfo>
    <Info name="TMVA Release" value="4.1.0 [262400]"/>
    <Info name="ROOT Release" value="5.28/00 [334848]"/>
    <Info name="Creator" value="kurata"/>
    <Info name="Date" value="Tue Sep  8 16:09:19 2015"/>
    <Info name="Host" value="Linux cw104.cc.kek.jp 2.6.18-164.el5 #1 SMP Tue Aug 18 15:51:48 EDT 2009 x86_64 x86_64 x86_64 GNU/Linux"/>
    <Info name="Dir" value="/gpfs/fs01/ilc/users/kurata/myAna/Ana/test"/>
    <Info name="Training events" value="45000"/>
    <Info name="TrainingTime" value="30.5763"/>
    <Info name="AnalysisType" value="Classification"/>
  </GeneralInfo>
  <Options>
    <Option name="V" modified="Yes">False</Option>
    <Option name="VerbosityLevel" modified="No">Default</Option>
    <Option name="VarTransform" modified="No">None</Option>
    <Option name="H" modified="Yes">False</Option>
    <Option name="CreateMVAPdfs" modified="No">False</Option>
    <Option name="IgnoreNegWeightsInTraining" modified="No">False</Option>
    <Option name="NTrees" modified="Yes">700</Option>
    <Option name="RenormByClass" modified="No">False</Option>
    <Option name="BoostType" modified="Yes">Grad</Option>
    <Option name="AdaBoostR2Loss" modified="No">quadratic</Option>
    <Option name="UseBaggedGrad" modified="Yes">True</Option>
    <Option name="GradBaggingFraction" modified="Yes">5.000000e-01</Option>
    <Option name="Shrinkage" modified="Yes">5.000000e-02</Option>
    <Option name="AdaBoostBeta" modified="No">1.000000e+00</Option>
    <Option name="UseRandomisedTrees" modified="No">False</Option>
    <Option name="UseNvars" modified="No">3</Option>
    <Option name="UsePoissonNvars" modified="No">True</Option>
    <Option name="UseNTrainEvents" modified="No">45000</Option>
    <Option name="UseWeightedTrees" modified="No">True</Option>
    <Option name="UseYesNoLeaf" modified="No">True</Option>
    <Option name="NodePurityLimit" modified="No">5.000000e-01</Option>
    <Option name="SeparationType" modified="Yes">giniindex</Option>
    <Option name="nEventsMin" modified="No">91</Option>
    <Option name="nCuts" modified="Yes">30</Option>
    <Option name="UseFisherCuts" modified="No">False</Option>
    <Option name="MinLinCorrForFisher" modified="No">8.000000e-01</Option>
    <Option name="UseExclusiveVars" modified="No">False</Option>
    <Option name="PruneStrength" modified="Yes">5.000000e+01</Option>
    <Option name="PruneMethod" modified="Yes">nopruning</Option>
    <Option name="PruneBeforeBoost" modified="No">False</Option>
    <Option name="PruningValFraction" modified="No">5.000000e-01</Option>
    <Option name="NNodesMax" modified="No">100000</Option>
    <Option name="MaxDepth" modified="Yes">3</Option>
  </Options>
  <Variables NVar="7">
    <Variable VarIndex="0" Expression="trke/jete" Label="var1" Title="var1" Unit="units" Internal="var1" Type="F" Min="0.00482153" Max="1.00006"/>
    <Variable VarIndex="1" Expression="trkjttheta" Label="trkjttheta" Title="trkjttheta" Unit="units" Internal="trkjttheta" Type="F" Min="0" Max="2.94117"/>
    <Variable VarIndex="2" Expression="trkptrel" Label="trkptrel" Title="trkptrel" Unit="units" Internal="trkptrel" Type="F" Min="0.00118823" Max="108.288"/>
    <Variable VarIndex="3" Expression="D0sig" Label="D0sig" Title="D0sig" Unit="units" Internal="D0sig" Type="F" Min="-99.7298" Max="99.8919"/>
    <Variable VarIndex="4" Expression="Z0sig" Label="Z0sig" Title="Z0sig" Unit="units" Internal="Z0sig" Type="F" Min="-99.6888" Max="99.9494"/>
    <Variable VarIndex="5" Expression="D0" Label="D0" Title="D0" Unit="units" Internal="D0" Type="F" Min="-82.8963" Max="98.8218"/>
    <Variable VarIndex="6" Expression="Z0" Label="Z0" Title="Z0" Unit="units" Internal="Z0" Type="F" Min="-96.6892" Max="98.4221"/>
  </Variables>
  <Spectators NSpec="0"/>
  <Transformations NTransformations="0"/>
  <MVAPdfs/>
  <Weights NTrees="700" AnalysisType="1">
    <BinaryTree type="DecisionTree" boostWeight="1.0000000000000000e+00" itree="0">
      <Node pos="s" depth="0" NCoef="0" IVar="4" Cut="3.6644601821899414e+00" cType="0" res="-1.7095851898193359e-01" rms="4.6986508369445801e-01" purity="3.2904148101806641e-01" nType="0">
        <Node pos="l" depth="1" NCoef="0" IVar="5" Cut="2.8486397266387939e+00" cType="1" res="2.8226053714752197e-01" rms="4.1270932555198669e-01" purity="7.8226053714752197e-01" nType="0">
          <Node pos="l" depth="2" NCoef="0" IVar="5" Cut="9.1438847780227661e-01" cType="1" res="3.5400658845901489e-01" rms="3.5309961438179016e-01" purity="8.5400658845901489e-01" nType="0">
            <Node pos="l" depth="3" NCoef="0" IVar="-1" Cut="0.0000000000000000e+00" cType="1" res="3.8393575698137283e-02" rms="3.2030194997787476e-01" purity="8.8393574953079224e-01" nType="1"/>
            <Node pos="r" depth="3" NCoef="0" IVar="-1" Cut="0.0000000000000000e+00" cType="1" res="4.7325100749731064e-03" rms="4.9775528907775879e-01" purity="5.4732507467269897e-01" nType="1"/>
          </Node>
          <Node pos="r" depth="2" NCoef="0" IVar="1" Cut="2.4656495451927185e-01" cType="1" res="-9.9221788346767426e-02" rms="4.9005615711212158e-01" purity="4.0077820420265198e-01" nType="0">
            <Node pos="l" depth="3" NCoef="0" IVar="-1" Cut="0.0000000000000000e+00" cType="1" res="1.6666667070239782e-03" rms="4.9972215294837952e-01" purity="5.1666665077209473e-01" nType="1"/>
            <Node pos="r" depth="3" NCoef="0" IVar="-1" Cut="0.0000000000000000e+00" cType="1" res="-2.6168223470449448e-02" rms="4.2605444788932800e-01" purity="2.3831775784492493e-01" nType="-1"/>
          </Node>
        </Node>
        <Node pos="r" depth="1" NCoef="0" IVar="4" Cut="-2.9599561691284180e+00" cType="1" res="-2.4792113900184631e-01" rms="4.3420630693435669e-01" purity="2.5207886099815369e-01" nType="0">
          <Node pos="l" depth="2" NCoef="0" IVar="6" Cut="-2.9092035293579102e+00" cType="0" res="2.1293510496616364e-01" rms="4.5239213109016418e-01" purity="7.1293509006500244e-01" nType="0">
            <Node pos="l" depth="3" NCoef="0" IVar="-1" Cut="0.0000000000000000e+00" cType="1" res="3.0110802501440048e-02" rms="3.9916658401489258e-01" purity="8.0110806226730347e-01" nType="1"/>
            <Node pos="r" depth="3" NCoef="0" IVar="-1" Cut="0.0000000000000000e+00" cType="1" res="-9.1954022645950317e-03" rms="4.9147173762321472e-01" purity="4.0804597735404968e-01" nType="-1"/>
          </Node>
          <Node pos="r" depth="2" NCoef="0" IVar="3" Cut="4.3693056106567383e+00" cType="0" res="-3.1177800893783569e-01" rms="3.9088931679725647e-01" purity="1.8822199106216431e-01" nType="0">
            <Node pos="l" depth="3" NCoef="0" IVar="-1" Cut="0.0000000000000000e+00" cType="1" res="1.6787003725767136e-02" rms="4.7097733616828918e-01" purity="6.6787004470825195e-01" nType="1"/>
            <Node pos="r" depth="3" NCoef="0" IVar="-1" Cut="0.0000000000000000e+00" cType="1" res="-3.3674746751785278e-02" rms="3.6959591507911682e-01" purity="1.6325251758098602e-01" nType="-1"/>
          </Node>
        </Node>
      </Node>
    </BinaryTree>
    <BinaryTree type="DecisionTree" boostWeight="1.0000000000000000e+00" itree="1">
      <Node pos="s" depth="0" NCoef="0" IVar="4" Cut="3.3502690792083740e+00" cType="0" res="-1.5688481926918030e-01" rms="4.6387594938278198e-01" purity="3.3467832207679749e-01" nType="0">
        <Node pos="l" depth="1" NCoef="0" IVar="5" Cut="2.8486397266387939e+00" cType="1" res="2.6849094033241272e-01" rms="4.0867909789085388e-01" purity="7.8161591291427612e-01" nType="0">
          <Node pos="l" depth="2" NCoef="0" IVar="0" Cut="3.4788344055414200e-02" cType="0" res="3.3833658695220947e-01" rms="3.5073104500770569e-01" purity="8.5489511489868164e-01" nType="0">
            <Node pos="l" depth="3" NCoef="0" IVar="-1" Cut="0.0000000000000000e+00" cType="1" res="3.9386145770549774e-02" rms="2.8444838523864746e-01" purity="9.1043353080749512e-01" nType="1"/>
            <Node pos="r" depth="3" NCoef="0" IVar="-1" Cut="0.0000000000000000e+00" cType="1" res="1.8689092248678207e-02" rms="4.5584127306938171e-01" purity="7.0170825719833374e-01" nType="1"/>
          </Node>
          <Node pos="r" depth="2" NCoef="0" IVar="1" Cut="2.9670879244804382e-01" cType="1" res="-9.0787060558795929e-02" rms="4.8908847570419312e-01" purity="4.0467625856399536e-01" nType="0">
            <Node pos="l" depth="3" NCoef="0" IVar="-1" Cut="0.0000000000000000e+00" cType="1" res="7.2780007030814886e-04" rms="4.9984043836593628e-01" purity="5.0670242309570312e-01" nType="1"/>
            <Node pos="r" depth="3" NCoef="0" IVar="-1" Cut="0.0000000000000000e+00" cType="1" res="-2.9086345806717873e-02" rms="3.9746934175491333e-01" purity="1.9672131538391113e-01" nType="-1"/>
          </Node>
        </Node>
        <Node pos="r" depth="1" NCoef="0" IVar="4" Cut="-3.2983410358428955e+00" cType="1" res="-2.3281539976596832e-01" rms="4.3094488978385925e-01" purity="2.5489887595176697e-01" nType="0">
          <Node pos="l" depth="2" NCoef="0" IVar="2" Cut="3.0909042358398438e+00" cType="0" res="2.0777532458305359e-01" rms="4.4681099057197571e-01" purity="7.1847248077392578e-01" nType="0">
            <Node pos="l" depth="3" NCoef="0" IVar="-1" Cut="0.0000000000000000e+00" cType="1" res="3.6852113902568817e-02" rms="3.2142430543899536e-01" purity="8.8219422101974487e-01" nType="1"/>
            <Node pos="r" depth="3" NCoef="0" IVar="-1" Cut="0.0000000000000000e+00" cType="1" res="5.1317708566784859e-03" rms="4.9397075176239014e-01" purity="5.5877190828323364e-01" nType="1"/>
          </Node>
          <Node pos="r" depth="2" NCoef="0" IVar="3" Cut="3.5666317939758301e+00" cType="0" res="-2.9157823324203491e-01" rms="3.9308097958564758e-01" purity="1.9307076930999756e-01" nType="0">
            <Node pos="l" depth="3" NCoef="0" IVar="-1" Cut="0.0000000000000000e+00" cType="1" res="1.8338184803724289e-02" rms="4.6406900882720947e-01" purity="6.8796592950820923e-01" nType="1"/>
            <Node pos="r" depth="3" NCoef="0" IVar="-1" Cut="0.0000000000000000e+00" cType="1" res="-3.1990390270948410e-02" rms="3.6995646357536316e-01" purity="1.6392825543880463e-01" nType="-1"/>
          </Node>
        </Node>
      </Node>
    </BinaryTree>
    <BinaryTree type="DecisionTree" boostWeight="1.0000000000000000e+00" itree="2">
      <Node pos="s" depth="0" NCoef="0" IVar="4" Cut="3.3502690792083740e+00" cType="0" res="-1.4755468070507050e-01" rms="4.5680874586105347e-01" purity="3.3600816130638123e-01" nType="0">
        <Node pos="l" depth="1" NCoef="0" IVar="5" Cut="2.8081278800964355e+00" cType="1" res="2.5404542684555054e-01" rms="4.0566924214363098e-01" purity="7.8052282333374023e-01" nType="0">
          <Node pos="l" depth="2" NCoef="0" IVar="5" Cut="7.2114753723144531e-01" cType="1" res="3.1350633502006531e-01" rms="3.5723990201950073e-01" purity="8.4676039218902588e-01" nType="0">
            <Node pos="l" depth="3" NCoef="0" IVar="-1" Cut="0.0000000000000000e+00" cType="1" res="3.4992922097444534e-02" rms="3.1940233707427979e-01" purity="8.8317757844924927e-01" nType="1"/>
            <Node pos="r" depth="3" NCoef="0" IVar="-1" Cut="0.0000000000000000e+00" cType="1" res="5.8918725699186325e-03" rms="4.9225887656211853e-01" purity="5.7879656553268433e-01" nType="1"/>
          </Node>
          <Node pos="r" depth="2" NCoef="0" IVar="1" Cut="2.4075372517108917e-01" cType="1" res="-5.3485512733459473e-02" rms="4.9274376034736633e-01" purity="4.3794324994087219e-01" nType="0">
            <Node pos="l" depth="3" NCoef="0" IVar="-1" Cut="0.0000000000000000e+00" cType="1" res="4.8599550500512123e-03" rms="4.9747243523597717e-01" purity="5.5015200376510620e-01" nType="1"/>
            <Node pos="r" depth="3" NCoef="0" IVar="-1" Cut="0.0000000000000000e+00" cType="1" res="-1.9687419757246971e-02" rms="4.4858235120773315e-01" purity="2.8085106611251831e-01" nType="-1"/>
          </Node>
        </Node>
        <Node pos="r" depth="1" NCoef="0" IVar="4" Cut="-3.2980849742889404e+00" cType="1" res="-2.2084274888038635e-01" rms="4.2652037739753723e-01" purity="2.5488859415054321e-01" nType="0">
          <Node pos="l" depth="2" NCoef="0" IVar="6" Cut="-3.1277492046356201e+00" cType="0" res="2.1903885900974274e-01" rms="4.3314254283905029e-01" purity="7.4020051956176758e-01" nType="0">
            <Node pos="l" depth="3" NCoef="0" IVar="-1" Cut="0.0000000000000000e+00" cType="1" res="2.9676552861928940e-02" rms="3.8005846738815308e-01" purity="8.2245129346847534e-01" nType="1"/>
            <Node pos="r" depth="3" NCoef="0" IVar="-1" Cut="0.0000000000000000e+00" cType="1" res="-8.0316253006458282e-03" rms="4.9320551753044128e-01" purity="4.1964286565780640e-01" nType="-1"/>
          </Node>
          <Node pos="r" depth="2" NCoef="0" IVar="3" Cut="3.0325701236724854e+00" cType="0" res="-2.7801355719566345e-01" rms="3.9084890484809875e-01" purity="1.9181327521800995e-01" nType="0">
            <Node pos="l" depth="3" NCoef="0" IVar="-1" Cut="0.0000000000000000e+00" cType="1" res="1.4197278767824173e-02" rms="4.7632125020027161e-01" purity="6.4903354644775391e-01" nType="1"/>
            <Node pos="r" depth="3" NCoef="0" IVar="-1" Cut="0.0000000000000000e+00" cType="1" res="-3.0526846647262573e-02" rms="3.6960971355438232e-01" purity="1.6354258358478546e-01" nType="-1"/>
          </Node>
        </Node>
      </Node>
    </BinaryTree>
    <BinaryTree type="DecisionTree" boostWeight="1.0000000000000000e+00" itree="3">
      <Node pos="s" depth="0" NCoef="0" IVar="4" Cut="3.6210179328918457e+00" cType="0" res="-1.4193490147590637e-01" rms="4.4941592216491699e-01" purity="3.3446004986763000e-01" nType="0">
        <Node pos="l" depth="1" NCoef="0" IVar="5" Cut="2.8057925701141357e+00" cType="1" res="2.3687753081321716e-01" rms="4.0455612540245056e-01" purity="7.7689969539642334e-01" nType="0">
          <Node pos="l" depth="2" NCoef="0" IVar="5" Cut="7.1974438428878784e-01" cType="1" res="2.9424253106117249e-01" rms="3.5895693302154541e-01" purity="8.4402018785476685e-01" nType="0">
            <Node pos="l" depth="3" NCoef="0" IVar="-1" Cut="0.0000000000000000e+00" cType="1" res="3.3657763153314590e-02" rms="3.1668198108673096e-01" purity="8.8623249530792236e-01" nType="1"/>
            <Node pos="r" depth="3" NCoef="0" IVar="-1" Cut="0.0000000000000000e+00" cType="1" res="2.7851595077663660e-03" rms="4.9556452035903931e-01" purity="5.5142855644226074e-01" nType="1"/>
          </Node>
          <Node pos="r" depth="2" NCoef="0" IVar="1" Cut="2.0163613557815552e-01" cType="1" res="-7.2938151657581329e-02" rms="4.8778942227363586e-01" purity="4.1439688205718994e-01" nType="0">
            <Node pos="l" depth="3" NCoef="0" IVar="-1" Cut="0.0000000000000000e+00" cType="1" res="5.9369551017880440e-03" rms="4.9598416686058044e-01" purity="5.6302523612976074e-01" nType="1"/>
            <Node pos="r" depth="3" NCoef="0" IVar="-1" Cut="0.0000000000000000e+00" cType="1" res="-1.8775774165987968e-02" rms="4.5041766762733459e-01" purity="2.8623187541961670e-01" nType="-1"/>
          </Node>
        </Node>
        <Node pos="r" depth="1" NCoef="0" IVar="4" Cut="-3.0137410163879395e+00" cType="1" res="-2.0686627924442291e-01" rms="4.2394366860389709e-01" purity="2.5862249732017517e-01" nType="0">
          <Node pos="l" depth="2" NCoef="0" IVar="0" Cut="3.4027833491563797e-02" cType="0" res="1.8821987509727478e-01" rms="4.4093638658523560e-01" purity="7.1737289428710938e-01" nType="0">
            <Node pos="l" depth="3" NCoef="0" IVar="-1" Cut="0.0000000000000000e+00" cType="1" res="2.9082950204610825e-02" rms="3.7362965941429138e-01" purity="8.2458305358886719e-01" nType="1"/>
            <Node pos="r" depth="3" NCoef="0" IVar="-1" Cut="0.0000000000000000e+00" cType="1" res="-3.1755340751260519e-03" rms="4.9368983507156372e-01" purity="4.8313090205192566e-01" nType="-1"/>
          </Node>
          <Node pos="r" depth="2" NCoef="0" IVar="3" Cut="2.9978983402252197e+00" cType="0" res="-2.6225438714027405e-01" rms="3.9079016447067261e-01" purity="1.9430913031101227e-01" nType="0">
            <Node pos="l" depth="3" NCoef="0" IVar="-1" Cut="0.0000000000000000e+00" cType="1" res="1.3096738606691360e-02" rms="4.7737699747085571e-01" purity="6.4496529102325439e-01" nType="1"/>
            <Node pos="r" depth="3" NCoef="0" IVar="-1" Cut="0.0000000000000000e+00" cType="1" res="-2.9380775988101959e-02" rms="3.6745160818099976e-01" purity="1.6120392084121704e-01" nType="-1"/>
          </Node>
        </Node>
      </Node>
    </BinaryTree>
    <BinaryTree type="DecisionTree" boostWeight="1.0000000000000000e+00" itree="4">
      <Node pos="s" depth="0" NCoef="0" IVar="4" Cut="3.4927814006805420e+00" cType="0" res="-1.3906651735305786e-01" rms="4.4124969840049744e-01" purity="3.2976818084716797e-01" nType="0">
        <Node pos="l" depth="1" NCoef="0" IVar="5" Cut="2.8486397266387939e+00" cType="1" res="2.3118878901004791e-01" rms="3.9695513248443604e-01" purity="7.8241157531738281e-01" nType="0">
          <Node pos="l" depth="2" NCoef="0" IVar="5" Cut="4.5570373535156250e-01" cType="1" res="2.9113706946372986e-01" rms="3.4693935513496399e-01" purity="8.5503596067428589e-01" nType="0">
            <Node pos="l" depth="3" NCoef="0" IVar="-1" Cut="0.0000000000000000e+00" cType="1" res="3.3733893185853958e-02" rms="2.9822361469268799e-01" purity="9.0008801221847534e-01" nType="1"/>
            <Node pos="r" depth="3" NCoef="0" IVar="-1" Cut="0.0000000000000000e+00" cType="1" res="1.1495333164930344e-02" rms="4.7174373269081116e-01" purity="6.5354329347610474e-01" nType="1"/>
          </Node>
          <Node pos="r" depth="2" NCoef="0" IVar="1" Cut="1.4794281125068665e-01" cType="1" res="-8.3851300179958344e-02" rms="4.8473122715950012e-01" purity="4.0075615048408508e-01" nType="0">
            <Node pos="l" depth="3" NCoef="0" IVar="-1" Cut="0.0000000000000000e+00" cType="1" res="8.2971118390560150e-03" rms="4.9195986986160278e-01" purity="5.8959537744522095e-01" nType="1"/>
            <Node pos="r" depth="3" NCoef="0" IVar="-1" Cut="0.0000000000000000e+00" cType="1" res="-1.6569310799241066e-02" rms="4.5982712507247925e-01" purity="3.0898874998092651e-01" nType="-1"/>
          </Node>
        </Node>
        <Node pos="r" depth="1" NCoef="0" IVar="3" Cut="-3.3066349029541016e+00" cType="1" res="-2.0342406630516052e-01" rms="4.1615408658981323e-01" purity="2.5108999013900757e-01" nType="0">
          <Node pos="l" depth="2" NCoef="0" IVar="5" Cut="-2.6825025081634521e+00" cType="0" res="1.8143481016159058e-01" rms="4.4820290803909302e-01" purity="6.9555747509002686e-01" nType="0">
            <Node pos="l" depth="3" NCoef="0" IVar="-1" Cut="0.0000000000000000e+00" cType="1" res="2.5835329666733742e-02" rms="4.0670165419578552e-01" purity="7.7486628293991089e-01" nType="1"/>
            <Node pos="r" depth="3" NCoef="0" IVar="-1" Cut="0.0000000000000000e+00" cType="1" res="-1.4349038712680340e-02" rms="4.7706937789916992e-01" purity="3.4741783142089844e-01" nType="-1"/>
          </Node>
          <Node pos="r" depth="2" NCoef="0" IVar="3" Cut="3.3059804439544678e+00" cType="0" res="-2.5620681047439575e-01" rms="3.8247233629226685e-01" purity="1.9013200700283051e-01" nType="0">
            <Node pos="l" depth="3" NCoef="0" IVar="-1" Cut="0.0000000000000000e+00" cType="1" res="1.3787602074444294e-02" rms="4.7212350368499756e-01" purity="6.6240680217742920e-01" nType="1"/>
            <Node pos="r" depth="3" NCoef="0" IVar="-1" Cut="0.0000000000000000e+00" cType="1" res="-2.8390029445290565e-02" rms="3.6328807473182678e-01" purity="1.6206809878349304e-01" nType="-1"/>
          </Node>
        </Node>
      </Node>
    </BinaryTree>
    <BinaryTree type="DecisionTree" boostWeight="1.0000000000000000e+00" itree="5">
      <Node pos="s" depth="0" NCoef="0" IVar="3" Cut="3.3007707595825195e+00" cType="0" res="-1.2788955867290497e-01" rms="4.3638804554939270e-01" purity="3.3460956811904907e-01" nType="0">
        <Node pos="l" depth="1" NCoef="0" IVar="5" Cut="3.1939346790313721e+00" cType="1" res="2.0481854677200317e-01" rms="4.1292569041252136e-01" purity="7.5569587945938110e-01" nType="0">
          <Node pos="l" depth="2" NCoef="0" IVar="5" Cut="8.2872891426086426e-01" cType="1" res="2.8083351254463196e-01" rms="3.5256534814834595e-01" purity="8.4634315967559814e-01" nType="0">
            <Node pos="l" depth="3" NCoef="0" IVar="-1" Cut="0.0000000000000000e+00" cType="1" res="3.2839003950357437e-02" rms="3.0569070577621460e-01" purity="8.9215683937072754e-01" nType="1"/>
            <Node pos="r" depth="3" NCoef="0" IVar="-1" Cut="0.0000000000000000e+00" cType="1" res="3.4052329137921333e-03" rms="4.9418044090270996e-01" purity="5.6313133239746094e-01" nType="1"/>
          </Node>
          <Node pos="r" depth="2" NCoef="0" IVar="1" Cut="2.4148246645927429e-01" cType="1" res="-6.5752834081649780e-02" rms="4.9111783504486084e-01" purity="4.3304130434989929e-01" nType="0">
            <Node pos="l" depth="3" NCoef="0" IVar="-1" Cut="0.0000000000000000e+00" cType="1" res="8.4140943363308907e-04" rms="4.9982663989067078e-01" purity="5.2431291341781616e-01" nType="1"/>
            <Node pos="r" depth="3" NCoef="0" IVar="-1" Cut="0.0000000000000000e+00" cType="1" res="-1.7493903636932373e-02" rms="4.5730173587799072e-01" purity="3.0061349272727966e-01" nType="-1"/>
          </Node>
        </Node>
        <Node pos="r" depth="1" NCoef="0" IVar="3" Cut="-3.3471574783325195e+00" cType="1" res="-1.9229552149772644e-01" rms="4.1074991226196289e-01" purity="2.5309526920318604e-01" nType="0">
          <Node pos="l" depth="2" NCoef="0" IVar="5" Cut="-2.6814506053924561e+00" cType="0" res="1.9310767948627472e-01" rms="4.3504032492637634e-01" purity="7.1792620420455933e-01" nType="0">
            <Node pos="l" depth="3" NCoef="0" IVar="-1" Cut="0.0000000000000000e+00" cType="1" res="2.6397081092000008e-02" rms="3.9384651184082031e-01" purity="7.9454255104064941e-01" nType="1"/>
            <Node pos="r" depth="3" NCoef="0" IVar="-1" Cut="0.0000000000000000e+00" cType="1" res="-1.1523073539137840e-02" rms="4.8045033216476440e-01" purity="3.6609336733818054e-01" nType="-1"/>
          </Node>
          <Node pos="r" depth="2" NCoef="0" IVar="1" Cut="1.2357880920171738e-01" cType="1" res="-2.4531961977481842e-01" rms="3.7767940759658813e-01" purity="1.8914344906806946e-01" nType="0">
            <Node pos="l" depth="3" NCoef="0" IVar="-1" Cut="0.0000000000000000e+00" cType="1" res="-1.4656325802206993e-02" rms="4.4130223989486694e-01" purity="2.9411765933036804e-01" nType="-1"/>
            <Node pos="r" depth="3" NCoef="0" IVar="-1" Cut="0.0000000000000000e+00" cType="1" res="-3.0682338401675224e-02" rms="3.2594504952430725e-01" purity="1.3302411139011383e-01" nType="-1"/>
          </Node>
        </Node>
      </Node>
    </BinaryTree>
    <BinaryTree type="DecisionTree" boostWeight="1.0000000000000000e+00" itree="6">
      <Node pos="s" depth="0" NCoef="0" IVar="4" Cut="3.5060355663299561e+00" cType="0" res="-1.2448486685752869e-01" rms="4.2993566393852234e-01" purity="3.3128342032432556e-01" nType="0">
        <Node pos="l" depth="1" NCoef="0" IVar="5" Cut="2.8486397266387939e+00" cType="1" res="2.1289324760437012e-01" rms="3.9172577857971191e-01" purity="7.8180718421936035e-01" nType="0">
          <Node pos="l" depth="2" NCoef="0" IVar="5" Cut="5.3981065750122070e-01" cType="1" res="2.6398122310638428e-01" rms="3.4816348552703857e-01" purity="8.5055816173553467e-01" nType="0">
            <Node pos="l" depth="3" NCoef="0" IVar="-1" Cut="0.0000000000000000e+00" cType="1" res="3.1128849834203720e-02" rms="3.0415335297584534e-01" purity="8.9390712976455688e-01" nType="1"/>
            <Node pos="r" depth="3" NCoef="0" IVar="-1" Cut="0.0000000000000000e+00" cType="1" res="6.8447114899754524e-03" rms="4.8199152946472168e-01" purity="6.1395347118377686e-01" nType="1"/>
          </Node>
          <Node pos="r" depth="2" NCoef="0" IVar="1" Cut="1.7229543626308441e-01" cType="1" res="-5.3782083094120026e-02" rms="4.8677942156791687e-01" purity="4.2293232679367065e-01" nType="0">
            <Node pos="l" depth="3" NCoef="0" IVar="-1" Cut="0.0000000000000000e+00" cType="1" res="6.4073246903717518e-03" rms="4.9430909752845764e-01" purity="5.7339447736740112e-01" nType="1"/>
            <Node pos="r" depth="3" NCoef="0" IVar="-1" Cut="0.0000000000000000e+00" cType="1" res="-1.3703838922083378e-02" rms="4.6421426534652710e-01" purity="3.1847134232521057e-01" nType="-1"/>
          </Node>
        </Node>
        <Node pos="r" depth="1" NCoef="0" IVar="3" Cut="-2.9489135742187500e+00" cType="1" res="-1.8283958733081818e-01" rms="4.0887913107872009e-01" purity="2.5335842370986938e-01" nType="0">
          <Node pos="l" depth="2" NCoef="0" IVar="5" Cut="-2.5077965259552002e+00" cType="0" res="1.7237152159214020e-01" rms="4.3915405869483948e-01" purity="7.0028698444366455e-01" nType="0">
            <Node pos="l" depth="3" NCoef="0" IVar="-1" Cut="0.0000000000000000e+00" cType="1" res="2.4053433910012245e-02" rms="4.0256050229072571e-01" purity="7.7456361055374146e-01" nType="1"/>
            <Node pos="r" depth="3" NCoef="0" IVar="-1" Cut="0.0000000000000000e+00" cType="1" res="-1.2231699191033840e-02" rms="4.7976335883140564e-01" purity="3.5714286565780640e-01" nType="-1"/>
          </Node>
          <Node pos="r" depth="2" NCoef="0" IVar="3" Cut="3.6868908405303955e+00" cType="0" res="-2.3474229872226715e-01" rms="3.7722724676132202e-01" purity="1.8805415928363800e-01" nType="0">
            <Node pos="l" depth="3" NCoef="0" IVar="-1" Cut="0.0000000000000000e+00" cType="1" res="1.2277748435735703e-02" rms="4.6815663576126099e-01" purity="6.6557377576828003e-01" nType="1"/>
            <Node pos="r" depth="3" NCoef="0" IVar="-1" Cut="0.0000000000000000e+00" cType="1" res="-2.6334386318922043e-02" rms="3.6061543226242065e-01" purity="1.6036002337932587e-01" nType="-1"/>
          </Node>
        </Node>
      </Node>
    </BinaryTree>
    <BinaryTree type="DecisionTree" boostWeight="1.0000000000000000e+00" itree="7">
      <Node pos="s" depth="0" NCoef="0" IVar="4" Cut="3.3502690792083740e+00" cType="0" res="-1.1433768272399902e-01" rms="4.2659863829612732e-01" purity="3.3590173721313477e-01" nType="0">
        <Node pos="l" depth="1" NCoef="0" IVar="5" Cut="2.7337467670440674e+00" cType="1" res="2.0192082226276398e-01" rms="3.8936647772789001e-01" purity="7.8060925006866455e-01" nType="0">
          <Node pos="l" depth="2" NCoef="0" IVar="5" Cut="5.2099949121475220e-01" cType="1" res="2.5498089194297791e-01" rms="3.4501734375953674e-01" purity="8.5321736335754395e-01" nType="0">
            <Node pos="l" depth="3" NCoef="0" IVar="-1" Cut="0.0000000000000000e+00" cType="1" res="3.0026033520698547e-02" rms="3.0491247773170471e-01" purity="8.9282768964767456e-01" nType="1"/>
            <Node pos="r" depth="3" NCoef="0" IVar="-1" Cut="0.0000000000000000e+00" cType="1" res="8.9373011142015457e-03" rms="4.7633096575737000e-01" purity="6.3919824361801147e-01" nType="1"/>
          </Node>
          <Node pos="r" depth="2" NCoef="0" IVar="1" Cut="3.1898891925811768e-01" cType="1" res="-8.1098996102809906e-02" rms="4.7980412840843201e-01" purity="3.9332097768783569e-01" nType="0">
            <Node pos="l" depth="3" NCoef="0" IVar="-1" Cut="0.0000000000000000e+00" cType="1" res="-1.3881648192182183e-03" rms="4.9647098779678345e-01" purity="4.7872340679168701e-01" nType="-1"/>
            <Node pos="r" depth="3" NCoef="0" IVar="-1" Cut="0.0000000000000000e+00" cType="1" res="-2.4082457646727562e-02" rms="3.9770245552062988e-01" purity="1.9631901383399963e-01" nType="-1"/>
          </Node>
        </Node>
        <Node pos="r" depth="1" NCoef="0" IVar="4" Cut="-3.2980849742889404e+00" cType="1" res="-1.7028683423995972e-01" rms="4.0808853507041931e-01" purity="2.5722873210906982e-01" nType="0">
          <Node pos="l" depth="2" NCoef="0" IVar="6" Cut="-3.0577332973480225e+00" cType="0" res="1.7554722726345062e-01" rms="4.2782008647918701e-01" purity="7.2829860448837280e-01" nType="0">
            <Node pos="l" depth="3" NCoef="0" IVar="-1" Cut="0.0000000000000000e+00" cType="1" res="2.5609264150261879e-02" rms="3.7677034735679626e-01" purity="8.1884056329727173e-01" nType="1"/>
            <Node pos="r" depth="3" NCoef="0" IVar="-1" Cut="0.0000000000000000e+00" cType="1" res="-8.5932984948158264e-03" rms="4.8984128236770630e-01" purity="4.0980392694473267e-01" nType="-1"/>
          </Node>
          <Node pos="r" depth="2" NCoef="0" IVar="3" Cut="3.5666317939758301e+00" cType="0" res="-2.1717406809329987e-01" rms="3.8195085525512695e-01" purity="1.9336237013339996e-01" nType="0">
            <Node pos="l" depth="3" NCoef="0" IVar="-1" Cut="0.0000000000000000e+00" cType="1" res="1.2711617164313793e-02" rms="4.6542191505432129e-01" purity="6.7441862821578979e-01" nType="1"/>
            <Node pos="r" depth="3" NCoef="0" IVar="-1" Cut="0.0000000000000000e+00" cType="1" res="-2.4707453325390816e-02" rms="3.6656823754310608e-01" purity="1.6500498354434967e-01" nType="-1"/>
          </Node>
        </Node>
      </Node>
    </BinaryTree>
    <BinaryTree type="DecisionTree" boostWeight="1.0000000000000000e+00" itree="8">
      <Node pos="s" depth="0" NCoef="0" IVar="4" Cut="3.4927814006805420e+00" cType="0" res="-1.1211591958999634e-01" rms="4.2066770792007446e-01" purity="3.3243682980537415e-01" nType="0">
        <Node pos="l" depth="1" NCoef="0" IVar="5" Cut="2.8486397266387939e+00" cType="1" res="1.8088634312152863e-01" rms="3.9349827170372009e-01" purity="7.6872122287750244e-01" nType="0">
          <Node pos="l" depth="2" NCoef="0" IVar="5" Cut="1.0025368928909302e+00" cType="1" res="2.3317137360572815e-01" rms="3.5209205746650696e-01" purity="8.4437543153762817e-01" nType="0">
            <Node pos="l" depth="3" NCoef="0" IVar="-1" Cut="0.0000000000000000e+00" cType="1" res="2.7574369683861732e-02" rms="3.2205551862716675e-01" purity="8.7846565246582031e-01" nType="1"/>
            <Node pos="r" depth="3" NCoef="0" IVar="-1" Cut="0.0000000000000000e+00" cType="1" res="-2.9799009207636118e-03" rms="4.9913617968559265e-01" purity="5.0566035509109497e-01" nType="1"/>
          </Node>
          <Node pos="r" depth="2" NCoef="0" IVar="1" Cut="2.4075372517108917e-01" cType="1" res="-8.3089262247085571e-02" rms="4.7667819261550903e-01" purity="3.8675957918167114e-01" nType="0">
            <Node pos="l" depth="3" NCoef="0" IVar="-1" Cut="0.0000000000000000e+00" cType="1" res="-4.3488095980137587e-04" rms="4.9819934368133545e-01" purity="4.9848023056983948e-01" nType="-1"/>
            <Node pos="r" depth="3" NCoef="0" IVar="-1" Cut="0.0000000000000000e+00" cType="1" res="-1.9323160871863365e-02" rms="4.2372199892997742e-01" purity="2.3673468828201294e-01" nType="-1"/>
          </Node>
        </Node>
        <Node pos="r" depth="1" NCoef="0" IVar="4" Cut="-3.1498174667358398e+00" cType="1" res="-1.6507567465305328e-01" rms="4.0328338742256165e-01" purity="2.5357905030250549e-01" nType="0">
          <Node pos="l" depth="2" NCoef="0" IVar="0" Cut="6.4549684524536133e-02" cType="0" res="1.6041187942028046e-01" rms="4.2802375555038452e-01" purity="7.2048610448837280e-01" nType="0">
            <Node pos="l" depth="3" NCoef="0" IVar="-1" Cut="0.0000000000000000e+00" cType="1" res="3.2059255987405777e-02" rms="2.9949569702148438e-01" purity="8.9522057771682739e-01" nType="1"/>
            <Node pos="r" depth="3" NCoef="0" IVar="-1" Cut="0.0000000000000000e+00" cType="1" res="2.7991449460387230e-03" rms="4.7903028130531311e-01" purity="5.6414473056793213e-01" nType="1"/>
          </Node>
          <Node pos="r" depth="2" NCoef="0" IVar="3" Cut="3.1573615074157715e+00" cType="0" res="-2.0943671464920044e-01" rms="3.7871831655502319e-01" purity="1.8994380533695221e-01" nType="0">
            <Node pos="l" depth="3" NCoef="0" IVar="-1" Cut="0.0000000000000000e+00" cType="1" res="1.0779961012303829e-02" rms="4.7168183326721191e-01" purity="6.5200388431549072e-01" nType="1"/>
            <Node pos="r" depth="3" NCoef="0" IVar="-1" Cut="0.0000000000000000e+00" cType="1" res="-2.4170508608222008e-02" rms="3.6262038350105286e-01" purity="1.6018134355545044e-01" nType="-1"/>
          </Node>
        </Node>
      </Node>
    </BinaryTree>
    <BinaryTree type="DecisionTree" boostWeight="1.0000000000000000e+00" itree="9">
      <Node pos="s" depth="0" NCoef="0" IVar="4" Cut="3.2352869510650635e+00" cType="0" res="-1.0486121475696564e-01" rms="4.1673851013183594e-01" purity="3.3356976509094238e-01" nType="0">
        <Node pos="l" depth="1" NCoef="0" IVar="5" Cut="2.8486659526824951e+00" cType="1" res="1.8161512911319733e-01" rms="3.8699778914451599e-01" purity="7.7567410469055176e-01" nType="0">
          <Node pos="l" depth="2" NCoef="0" IVar="0" Cut="3.6477390676736832e-02" cType="0" res="2.2865800559520721e-01" rms="3.4734097123146057e-01" purity="8.4734135866165161e-01" nType="0">
            <Node pos="l" depth="3" NCoef="0" IVar="-1" Cut="0.0000000000000000e+00" cType="1" res="2.9579609632492065e-02" rms="2.8960457444190979e-01" purity="9.0152233839035034e-01" nType="1"/>
            <Node pos="r" depth="3" NCoef="0" IVar="-1" Cut="0.0000000000000000e+00" cType="1" res="1.1473608203232288e-02" rms="4.4266387820243835e-01" purity="7.0725709199905396e-01" nType="1"/>
          </Node>
          <Node pos="r" depth="2" NCoef="0" IVar="1" Cut="3.1898891925811768e-01" cType="1" res="-5.8542419224977493e-02" rms="4.7902163863182068e-01" purity="4.0980735421180725e-01" nType="0">
            <Node pos="l" depth="3" NCoef="0" IVar="-1" Cut="0.0000000000000000e+00" cType="1" res="5.2311713807284832e-04" rms="4.9457621574401855e-01" purity="4.9519231915473938e-01" nType="-1"/>
            <Node pos="r" depth="3" NCoef="0" IVar="-1" Cut="0.0000000000000000e+00" cType="1" res="-2.3741945624351501e-02" rms="3.8553181290626526e-01" purity="1.8064516782760620e-01" nType="-1"/>
          </Node>
        </Node>
        <Node pos="r" depth="1" NCoef="0" IVar="4" Cut="-3.4104044437408447e+00" cType="1" res="-1.5722091495990753e-01" rms="4.0037298202514648e-01" purity="2.5276568531990051e-01" nType="0">
          <Node pos="l" depth="2" NCoef="0" IVar="0" Cut="6.4319260418415070e-02" cType="0" res="1.6632920503616333e-01" rms="4.1951480507850647e-01" purity="7.3739206790924072e-01" nType="0">
            <Node pos="l" depth="3" NCoef="0" IVar="-1" Cut="0.0000000000000000e+00" cType="1" res="3.1780112534761429e-02" rms="2.8763628005981445e-01" purity="9.0582525730133057e-01" nType="1"/>
            <Node pos="r" depth="3" NCoef="0" IVar="-1" Cut="0.0000000000000000e+00" cType="1" res="4.7385413199663162e-03" rms="4.7681191563606262e-01" purity="5.8923995494842529e-01" nType="1"/>
          </Node>
          <Node pos="r" depth="2" NCoef="0" IVar="1" Cut="1.2357880920171738e-01" cType="1" res="-1.9942893087863922e-01" rms="3.7790641188621521e-01" purity="1.8954481184482574e-01" nType="0">
            <Node pos="l" depth="3" NCoef="0" IVar="-1" Cut="0.0000000000000000e+00" cType="1" res="-1.0040807537734509e-02" rms="4.4527965784072876e-01" purity="3.0229443311691284e-01" nType="-1"/>
            <Node pos="r" depth="3" NCoef="0" IVar="-1" Cut="0.0000000000000000e+00" cType="1" res="-2.7292031794786453e-02" rms="3.2130187749862671e-01" purity="1.2778644263744354e-01" nType="-1"/>
          </Node>
        </Node>
      </Node>
    </BinaryTree>
    <BinaryTree type="DecisionTree" boostWeight="1.0000000000000000e+00" itree="10">
      <Node pos="s" depth="0" NCoef="0" IVar="4" Cut="3.4300963878631592e+00" cType="0" res="-9.7158029675483704e-02" rms="4.1421946883201599e-01" purity="3.3638381958007812e-01" nType="0">
        <Node pos="l" depth="1" NCoef="0" IVar="5" Cut="2.8081278800964355e+00" cType="1" res="1.7150032520294189e-01" rms="3.8577747344970703e-01" purity="7.7618491649627686e-01" nType="0">
          <Node pos="l" depth="2" NCoef="0" IVar="0" Cut="6.3581280410289764e-02" cType="0" res="2.1647889912128448e-01" rms="3.4658411145210266e-01" purity="8.4978842735290527e-01" nType="0">
            <Node pos="l" depth="3" NCoef="0" IVar="-1" Cut="0.0000000000000000e+00" cType="1" res="3.1482227146625519e-02" rms="2.4566176533699036e-01" purity="9.3361580371856689e-01" nType="1"/>
            <Node pos="r" depth="3" NCoef="0" IVar="-1" Cut="0.0000000000000000e+00" cType="1" res="1.5651559457182884e-02" rms="4.1220471262931824e-01" purity="7.6619720458984375e-01" nType="1"/>
          </Node>
          <Node pos="r" depth="2" NCoef="0" IVar="1" Cut="2.4075372517108917e-01" cType="1" res="-4.7673635184764862e-02" rms="4.8041427135467529e-01" purity="4.1752576828002930e-01" nType="0">
            <Node pos="l" depth="3" NCoef="0" IVar="-1" Cut="0.0000000000000000e+00" cType="1" res="2.8478219173848629e-03" rms="4.9717473983764648e-01" purity="5.3179192543029785e-01" nType="1"/>
            <Node pos="r" depth="3" NCoef="0" IVar="-1" Cut="0.0000000000000000e+00" cType="1" res="-1.6494730487465858e-02" rms="4.3107426166534424e-01" purity="2.5000000000000000e-01" nType="-1"/>
          </Node>
        </Node>
        <Node pos="r" depth="1" NCoef="0" IVar="3" Cut="-3.6393210887908936e+00" cType="1" res="-1.4525535702705383e-01" rms="4.0051987767219543e-01" purity="2.5764718651771545e-01" nType="0">
          <Node pos="l" depth="2" NCoef="0" IVar="0" Cut="6.8331718444824219e-02" cType="0" res="1.6405552625656128e-01" rms="4.2766124010086060e-01" purity="7.1883529424667358e-01" nType="0">
            <Node pos="l" depth="3" NCoef="0" IVar="-1" Cut="0.0000000000000000e+00" cType="1" res="3.1514428555965424e-02" rms="3.1170406937599182e-01" purity="8.8788789510726929e-01" nType="1"/>
            <Node pos="r" depth="3" NCoef="0" IVar="-1" Cut="0.0000000000000000e+00" cType="1" res="5.5274190381169319e-03" rms="4.7711771726608276e-01" purity="5.7798165082931519e-01" nType="1"/>
          </Node>
          <Node pos="r" depth="2" NCoef="0" IVar="3" Cut="2.9818959236145020e+00" cType="0" res="-1.8549835681915283e-01" rms="3.7871435284614563e-01" purity="1.9764412939548492e-01" nType="0">
            <Node pos="l" depth="3" NCoef="0" IVar="-1" Cut="0.0000000000000000e+00" cType="1" res="1.0784380137920380e-02" rms="4.7384050488471985e-01" purity="6.3893806934356689e-01" nType="1"/>
            <Node pos="r" depth="3" NCoef="0" IVar="-1" Cut="0.0000000000000000e+00" cType="1" res="-2.2185541689395905e-02" rms="3.6202675104141235e-01" purity="1.6601116955280304e-01" nType="-1"/>
          </Node>
        </Node>
      </Node>
    </BinaryTree>
    <BinaryTree type="DecisionTree" boostWeight="1.0000000000000000e+00" itree="11">
      <Node pos="s" depth="0" NCoef="0" IVar="4" Cut="3.3777990341186523e+00" cType="0" res="-9.4628117978572845e-02" rms="4.0849888324737549e-01" purity="3.3464655280113220e-01" nType="0">
        <Node pos="l" depth="1" NCoef="0" IVar="6" Cut="3.1222829818725586e+00" cType="1" res="1.6886396706104279e-01" rms="3.7667727470397949e-01" purity="7.8486859798431396e-01" nType="0">
          <Node pos="l" depth="2" NCoef="0" IVar="6" Cut="8.1041556596755981e-01" cType="1" res="2.2043009102344513e-01" rms="3.2430285215377808e-01" purity="8.6597168445587158e-01" nType="0">
            <Node pos="l" depth="3" NCoef="0" IVar="-1" Cut="0.0000000000000000e+00" cType="1" res="2.8538815677165985e-02" rms="2.7549025416374207e-01" purity="9.1232120990753174e-01" nType="1"/>
            <Node pos="r" depth="3" NCoef="0" IVar="-1" Cut="0.0000000000000000e+00" cType="1" res="7.3401140980422497e-03" rms="4.4598513841629028e-01" purity="6.7244702577590942e-01" nType="1"/>
          </Node>
          <Node pos="r" depth="2" NCoef="0" IVar="1" Cut="1.8961487710475922e-01" cType="1" res="-9.3942461535334587e-03" rms="4.7731730341911316e-01" purity="5.0450450181961060e-01" nType="0">
            <Node pos="l" depth="3" NCoef="0" IVar="-1" Cut="0.0000000000000000e+00" cType="1" res="1.1275161057710648e-02" rms="4.6032115817070007e-01" purity="6.6666668653488159e-01" nType="1"/>
            <Node pos="r" depth="3" NCoef="0" IVar="-1" Cut="0.0000000000000000e+00" cType="1" res="-1.3214035890996456e-02" rms="4.6424451470375061e-01" purity="3.4358975291252136e-01" nType="-1"/>
          </Node>
        </Node>
        <Node pos="r" depth="1" NCoef="0" IVar="4" Cut="-3.2554645538330078e+00" cType="1" res="-1.4233164489269257e-01" rms="3.9566358923912048e-01" purity="2.5313675403594971e-01" nType="0">
          <Node pos="l" depth="2" NCoef="0" IVar="6" Cut="-3.1287062168121338e+00" cType="0" res="1.4345678687095642e-01" rms="4.2149996757507324e-01" purity="7.2403031587600708e-01" nType="0">
            <Node pos="l" depth="3" NCoef="0" IVar="-1" Cut="0.0000000000000000e+00" cType="1" res="2.2250054404139519e-02" rms="3.7587729096412659e-01" purity="8.1183099746704102e-01" nType="1"/>
            <Node pos="r" depth="3" NCoef="0" IVar="-1" Cut="0.0000000000000000e+00" cType="1" res="-1.1231941170990467e-02" rms="4.8319065570831299e-01" purity="3.9102563261985779e-01" nType="-1"/>
          </Node>
          <Node pos="r" depth="2" NCoef="0" IVar="6" Cut="1.9727201759815216e-01" cType="0" res="-1.8029572069644928e-01" rms="3.7610387802124023e-01" purity="1.9058336317539215e-01" nType="0">
            <Node pos="l" depth="3" NCoef="0" IVar="-1" Cut="0.0000000000000000e+00" cType="1" res="8.5315136238932610e-03" rms="4.9921897053718567e-01" purity="4.9210110306739807e-01" nType="-1"/>
            <Node pos="r" depth="3" NCoef="0" IVar="-1" Cut="0.0000000000000000e+00" cType="1" res="-2.1838447079062462e-02" rms="3.5605654120445251e-01" purity="1.6614380478858948e-01" nType="-1"/>
          </Node>
        </Node>
      </Node>
    </BinaryTree>
    <BinaryTree type="DecisionTree" boostWeight="1.0000000000000000e+00" itree="12">
      <Node pos="s" depth="0" NCoef="0" IVar="3" Cut="3.3195426464080811e+00" cType="0" res="-9.1663621366024017e-02" rms="4.0480783581733704e-01" purity="3.3126172423362732e-01" nType="0">
        <Node pos="l" depth="1" NCoef="0" IVar="0" Cut="3.4335307776927948e-02" cType="0" res="1.4868974685668945e-01" rms="4.0008065104484558e-01" purity="7.4855411052703857e-01" nType="0">
          <Node pos="l" depth="2" NCoef="0" IVar="5" Cut="2.8119182586669922e+00" cType="1" res="2.3298430442810059e-01" rms="3.2858672738075256e-01" purity="8.5981309413909912e-01" nType="0">
            <Node pos="l" depth="3" NCoef="0" IVar="-1" Cut="0.0000000000000000e+00" cType="1" res="2.8207564726471901e-02" rms="2.9431435465812683e-01" purity="8.9792972803115845e-01" nType="1"/>
            <Node pos="r" depth="3" NCoef="0" IVar="-1" Cut="0.0000000000000000e+00" cType="1" res="6.9273281842470169e-03" rms="4.8720684647560120e-01" purity="5.7400721311569214e-01" nType="1"/>
          </Node>
          <Node pos="r" depth="2" NCoef="0" IVar="5" Cut="3.2058057785034180e+00" cType="1" res="-6.6974023357033730e-03" rms="4.6781685948371887e-01" purity="5.4346126317977905e-01" nType="0">
            <Node pos="l" depth="3" NCoef="0" IVar="-1" Cut="0.0000000000000000e+00" cType="1" res="9.0671535581350327e-03" rms="4.4462081789970398e-01" purity="6.8406963348388672e-01" nType="1"/>
            <Node pos="r" depth="3" NCoef="0" IVar="-1" Cut="0.0000000000000000e+00" cType="1" res="-1.3976383954286575e-02" rms="4.6861380338668823e-01" purity="3.4528303146362305e-01" nType="-1"/>
          </Node>
        </Node>
        <Node pos="r" depth="1" NCoef="0" IVar="3" Cut="-3.3277306556701660e+00" cType="1" res="-1.3824611902236938e-01" rms="3.8889667391777039e-01" purity="2.5038698315620422e-01" nType="0">
          <Node pos="l" depth="2" NCoef="0" IVar="5" Cut="-2.4618947505950928e+00" cType="0" res="1.4311501383781433e-01" rms="4.2879140377044678e-01" purity="7.0657068490982056e-01" nType="0">
            <Node pos="l" depth="3" NCoef="0" IVar="-1" Cut="0.0000000000000000e+00" cType="1" res="2.1522503346204758e-02" rms="3.9367669820785522e-01" purity="7.8709322214126587e-01" nType="1"/>
            <Node pos="r" depth="3" NCoef="0" IVar="-1" Cut="0.0000000000000000e+00" cType="1" res="-1.2099278159439564e-02" rms="4.7740936279296875e-01" purity="3.4963324666023254e-01" nType="-1"/>
          </Node>
          <Node pos="r" depth="2" NCoef="0" IVar="1" Cut="9.5650076866149902e-02" cType="1" res="-1.7610625922679901e-01" rms="3.6710393428802490e-01" purity="1.8900260329246521e-01" nType="0">
            <Node pos="l" depth="3" NCoef="0" IVar="-1" Cut="0.0000000000000000e+00" cType="1" res="-6.8352716043591499e-03" rms="4.4238194823265076e-01" purity="3.1651061773300171e-01" nType="-1"/>
            <Node pos="r" depth="3" NCoef="0" IVar="-1" Cut="0.0000000000000000e+00" cType="1" res="-2.3959444835782051e-02" rms="3.2632002234458923e-01" purity="1.4298665523529053e-01" nType="-1"/>
          </Node>
        </Node>
      </Node>
    </BinaryTree>
    <BinaryTree type="DecisionTree" boostWeight="1.0000000000000000e+00" itree="13">
      <Node pos="s" depth="0" NCoef="0" IVar="3" Cut="3.2962620258331299e+00" cType="0" res="-8.8409274816513062e-02" rms="4.0142294764518738e-01" purity="3.3118566870689392e-01" nType="0">
        <Node pos="l" depth="1" NCoef="0" IVar="5" Cut="2.8547654151916504e+00" cType="1" res="1.3068284094333649e-01" rms="4.0207993984222412e-01" purity="7.3836410045623779e-01" nType="0">
          <Node pos="l" depth="2" NCoef="0" IVar="5" Cut="9.1867649555206299e-01" cType="1" res="1.9288995862007141e-01" rms="3.5386589169502258e-01" purity="8.3504062891006470e-01" nType="0">
            <Node pos="l" depth="3" NCoef="0" IVar="-1" Cut="0.0000000000000000e+00" cType="1" res="2.5535890832543373e-02" rms="3.1378620862960815e-01" purity="8.8027322292327881e-01" nType="1"/>
            <Node pos="r" depth="3" NCoef="0" IVar="-1" Cut="0.0000000000000000e+00" cType="1" res="-6.1406865715980530e-03" rms="4.9707931280136108e-01" purity="5.0584793090820312e-01" nType="1"/>
          </Node>
          <Node pos="r" depth="2" NCoef="0" IVar="1" Cut="2.2509077191352844e-01" cType="1" res="-8.9452594518661499e-02" rms="4.7800859808921814e-01" purity="3.9625000953674316e-01" nType="0">
            <Node pos="l" depth="3" NCoef="0" IVar="-1" Cut="0.0000000000000000e+00" cType="1" res="-1.1647333158180118e-03" rms="5.0011825561523438e-01" purity="5.1339286565780640e-01" nType="1"/>
            <Node pos="r" depth="3" NCoef="0" IVar="-1" Cut="0.0000000000000000e+00" cType="1" res="-1.9529197365045547e-02" rms="4.2828717827796936e-01" purity="2.4715909361839294e-01" nType="-1"/>
          </Node>
        </Node>
        <Node pos="r" depth="1" NCoef="0" IVar="3" Cut="-3.3517980575561523e+00" cType="1" res="-1.3090746104717255e-01" rms="3.8719618320465088e-01" purity="2.5220364332199097e-01" nType="0">
          <Node pos="l" depth="2" NCoef="0" IVar="2" Cut="2.6260902881622314e+00" cType="0" res="1.3489101827144623e-01" rms="4.2918378114700317e-01" purity="7.0272648334503174e-01" nType="0">
            <Node pos="l" depth="3" NCoef="0" IVar="-1" Cut="0.0000000000000000e+00" cType="1" res="2.6302959769964218e-02" rms="3.5133495926856995e-01" purity="8.4472048282623291e-01" nType="1"/>
            <Node pos="r" depth="3" NCoef="0" IVar="-1" Cut="0.0000000000000000e+00" cType="1" res="-5.3821475012227893e-04" rms="4.7844785451889038e-01" purity="5.1724135875701904e-01" nType="1"/>
          </Node>
          <Node pos="r" depth="2" NCoef="0" IVar="1" Cut="1.2887497246265411e-01" cType="1" res="-1.6766183078289032e-01" rms="3.6614316701889038e-01" purity="1.8990574777126312e-01" nType="0">
            <Node pos="l" depth="3" NCoef="0" IVar="-1" Cut="0.0000000000000000e+00" cType="1" res="-8.9996187016367912e-03" rms="4.3018171191215515e-01" purity="2.9325416684150696e-01" nType="-1"/>
            <Node pos="r" depth="3" NCoef="0" IVar="-1" Cut="0.0000000000000000e+00" cType="1" res="-2.4408064782619476e-02" rms="3.1233641505241394e-01" purity="1.2955114245414734e-01" nType="-1"/>
          </Node>
        </Node>
      </Node>
    </BinaryTree>
    <BinaryTree type="DecisionTree" boostWeight="1.0000000000000000e+00" itree="14">
      <Node pos="s" depth="0" NCoef="0" IVar="4" Cut="3.2315421104431152e+00" cType="0" res="-8.2185059785842896e-02" rms="3.9898249506950378e-01" purity="3.3220097422599792e-01" nType="0">
        <Node pos="l" depth="1" NCoef="0" IVar="6" Cut="3.1160163879394531e+00" cType="1" res="1.4808170497417450e-01" rms="3.8002127408981323e-01" purity="7.7419352531433105e-01" nType="0">
          <Node pos="l" depth="2" NCoef="0" IVar="6" Cut="7.0777010917663574e-01" cType="1" res="1.9916148483753204e-01" rms="3.2770714163780212e-01" purity="8.6044746637344360e-01" nType="0">
            <Node pos="l" depth="3" NCoef="0" IVar="-1" Cut="0.0000000000000000e+00" cType="1" res="2.7146132662892342e-02" rms="2.7962175011634827e-01" purity="9.0996628999710083e-01" nType="1"/>
            <Node pos="r" depth="3" NCoef="0" IVar="-1" Cut="0.0000000000000000e+00" cType="1" res="7.2915460914373398e-03" rms="4.4005703926086426e-01" purity="6.7678570747375488e-01" nType="1"/>
          </Node>
          <Node pos="r" depth="2" NCoef="0" IVar="1" Cut="2.8194376826286316e-01" cType="1" res="-1.9452320411801338e-02" rms="4.7877418994903564e-01" purity="4.9129351973533630e-01" nType="0">
            <Node pos="l" depth="3" NCoef="0" IVar="-1" Cut="0.0000000000000000e+00" cType="1" res="3.9933719672262669e-03" rms="4.8249500989913940e-01" purity="5.8333331346511841e-01" nType="1"/>
            <Node pos="r" depth="3" NCoef="0" IVar="-1" Cut="0.0000000000000000e+00" cType="1" res="-1.7599714919924736e-02" rms="4.3580892682075500e-01" purity="2.5877192616462708e-01" nType="-1"/>
          </Node>
        </Node>
        <Node pos="r" depth="1" NCoef="0" IVar="3" Cut="-3.1386384963989258e+00" cType="1" res="-1.2403958290815353e-01" rms="3.8792055845260620e-01" purity="2.5186201930046082e-01" nType="0">
          <Node pos="l" depth="2" NCoef="0" IVar="0" Cut="3.5225417464971542e-02" cType="0" res="1.2755121290683746e-01" rms="4.2818924784660339e-01" purity="6.9987231492996216e-01" nType="0">
            <Node pos="l" depth="3" NCoef="0" IVar="-1" Cut="0.0000000000000000e+00" cType="1" res="2.3429315537214279e-02" rms="3.7095344066619873e-01" purity="8.1853282451629639e-01" nType="1"/>
            <Node pos="r" depth="3" NCoef="0" IVar="-1" Cut="0.0000000000000000e+00" cType="1" res="-4.4540315866470337e-03" rms="4.7818174958229065e-01" purity="4.6792453527450562e-01" nType="-1"/>
          </Node>
          <Node pos="r" depth="2" NCoef="0" IVar="4" Cut="-2.8753364086151123e+00" cType="1" res="-1.5967984497547150e-01" rms="3.6822536587715149e-01" purity="1.8839704990386963e-01" nType="0">
            <Node pos="l" depth="3" NCoef="0" IVar="-1" Cut="0.0000000000000000e+00" cType="1" res="1.7609156668186188e-02" rms="4.5322182774543762e-01" purity="6.5188837051391602e-01" nType="1"/>
            <Node pos="r" depth="3" NCoef="0" IVar="-1" Cut="0.0000000000000000e+00" cType="1" res="-1.9386369735002518e-02" rms="3.5857206583023071e-01" purity="1.7072559893131256e-01" nType="-1"/>
          </Node>
        </Node>
      </Node>
    </BinaryTree>
    <BinaryTree type="DecisionTree" boostWeight="1.0000000000000000e+00" itree="15">
      <Node pos="s" depth="0" NCoef="0" IVar="4" Cut="3.3502690792083740e+00" cType="0" res="-7.8381374478340149e-02" rms="3.9426901936531067e-01" purity="3.3232384920120239e-01" nType="0">
        <Node pos="l" depth="1" NCoef="0" IVar="5" Cut="2.8486397266387939e+00" cType="1" res="1.4233662188053131e-01" rms="3.7306880950927734e-01" purity="7.7982741594314575e-01" nType="0">
          <Node pos="l" depth="2" NCoef="0" IVar="0" Cut="6.3362151384353638e-02" cType="0" res="1.7924004793167114e-01" rms="3.3658114075660706e-01" purity="8.5352814197540283e-01" nType="0">
            <Node pos="l" depth="3" NCoef="0" IVar="-1" Cut="0.0000000000000000e+00" cType="1" res="2.8861029073596001e-02" rms="2.3305967450141907e-01" purity="9.3908280134201050e-01" nType="1"/>
            <Node pos="r" depth="3" NCoef="0" IVar="-1" Cut="0.0000000000000000e+00" cType="1" res="1.2405792251229286e-02" rms="4.1044151782989502e-01" purity="7.6059478521347046e-01" nType="1"/>
          </Node>
          <Node pos="r" depth="2" NCoef="0" IVar="1" Cut="3.0662623047828674e-01" cType="1" res="-4.4241759926080704e-02" rms="4.7790908813476562e-01" purity="4.0720722079277039e-01" nType="0">
            <Node pos="l" depth="3" NCoef="0" IVar="-1" Cut="0.0000000000000000e+00" cType="1" res="7.8049270086921751e-05" rms="4.9546274542808533e-01" purity="4.8837208747863770e-01" nType="-1"/>
            <Node pos="r" depth="3" NCoef="0" IVar="-1" Cut="0.0000000000000000e+00" cType="1" res="-1.5922432765364647e-02" rms="4.1667351126670837e-01" purity="2.2023808956146240e-01" nType="-1"/>
          </Node>
        </Node>
        <Node pos="r" depth="1" NCoef="0" IVar="4" Cut="-3.2980849742889404e+00" cType="1" res="-1.1723504960536957e-01" rms="3.8500183820724487e-01" purity="2.5354841351509094e-01" nType="0">
          <Node pos="l" depth="2" NCoef="0" IVar="6" Cut="-3.1279275417327881e+00" cType="0" res="1.4041998982429504e-01" rms="4.0609461069107056e-01" purity="7.4301922321319580e-01" nType="0">
            <Node pos="l" depth="3" NCoef="0" IVar="-1" Cut="0.0000000000000000e+00" cType="1" res="2.1545927971601486e-02" rms="3.6206731200218201e-01" purity="8.2601535320281982e-01" nType="1"/>
            <Node pos="r" depth="3" NCoef="0" IVar="-1" Cut="0.0000000000000000e+00" cType="1" res="-7.9780630767345428e-03" rms="4.8535954952239990e-01" purity="4.2127659916877747e-01" nType="-1"/>
          </Node>
          <Node pos="r" depth="2" NCoef="0" IVar="3" Cut="2.5820424556732178e+00" cType="0" res="-1.5238445997238159e-01" rms="3.6831799149513245e-01" purity="1.8677459657192230e-01" nType="0">
            <Node pos="l" depth="3" NCoef="0" IVar="-1" Cut="0.0000000000000000e+00" cType="1" res="1.0265992023050785e-02" rms="4.7129350900650024e-01" purity="5.9840637445449829e-01" nType="1"/>
            <Node pos="r" depth="3" NCoef="0" IVar="-1" Cut="0.0000000000000000e+00" cType="1" res="-1.9719207659363747e-02" rms="3.5094600915908813e-01" purity="1.5354432165622711e-01" nType="-1"/>
          </Node>
        </Node>
      </Node>
    </BinaryTree>
    <BinaryTree type="DecisionTree" boostWeight="1.0000000000000000e+00" itree="16">
      <Node pos="s" depth="0" NCoef="0" IVar="3" Cut="3.5029840469360352e+00" cType="0" res="-7.4603356420993805e-02" rms="3.9237630367279053e-01" purity="3.3352476358413696e-01" nType="0">
        <Node pos="l" depth="1" NCoef="0" IVar="5" Cut="2.8152709007263184e+00" cType="1" res="1.2904587388038635e-01" rms="3.8984864950180054e-01" purity="7.5705754756927490e-01" nType="0">
          <Node pos="l" depth="2" NCoef="0" IVar="5" Cut="1.0021424293518066e+00" cType="1" res="1.8088507652282715e-01" rms="3.4003600478172302e-01" purity="8.5061079263687134e-01" nType="0">
            <Node pos="l" depth="3" NCoef="0" IVar="-1" Cut="0.0000000000000000e+00" cType="1" res="2.4526095017790794e-02" rms="3.0474352836608887e-01" purity="8.9027237892150879e-01" nType="1"/>
            <Node pos="r" depth="3" NCoef="0" IVar="-1" Cut="0.0000000000000000e+00" cType="1" res="-6.5544396638870239e-03" rms="4.9692690372467041e-01" purity="5.0508475303649902e-01" nType="1"/>
          </Node>
          <Node pos="r" depth="2" NCoef="0" IVar="0" Cut="3.0401643365621567e-02" cType="0" res="-5.2296366542577744e-02" rms="4.8670414090156555e-01" purity="4.2979243397712708e-01" nType="0">
            <Node pos="l" depth="3" NCoef="0" IVar="-1" Cut="0.0000000000000000e+00" cType="1" res="5.2512390539050102e-03" rms="4.8777496814727783e-01" purity="5.5520504713058472e-01" nType="1"/>
            <Node pos="r" depth="3" NCoef="0" IVar="-1" Cut="0.0000000000000000e+00" cType="1" res="-1.2098134495317936e-02" rms="4.7441181540489197e-01" purity="3.5059762001037598e-01" nType="-1"/>
          </Node>
        </Node>
        <Node pos="r" depth="1" NCoef="0" IVar="3" Cut="-3.1306903362274170e+00" cType="1" res="-1.1418779194355011e-01" rms="3.8041451573371887e-01" purity="2.5120034813880920e-01" nType="0">
          <Node pos="l" depth="2" NCoef="0" IVar="0" Cut="5.7161856442689896e-02" cType="0" res="1.2339387834072113e-01" rms="4.2444747686386108e-01" purity="7.0258802175521851e-01" nType="0">
            <Node pos="l" depth="3" NCoef="0" IVar="-1" Cut="0.0000000000000000e+00" cType="1" res="2.6972237974405289e-02" rms="3.1881800293922424e-01" purity="8.7423580884933472e-01" nType="1"/>
            <Node pos="r" depth="3" NCoef="0" IVar="-1" Cut="0.0000000000000000e+00" cType="1" res="1.5786259900778532e-03" rms="4.7978168725967407e-01" purity="5.4042905569076538e-01" nType="1"/>
          </Node>
          <Node pos="r" depth="2" NCoef="0" IVar="4" Cut="3.0219995975494385e+00" cType="0" res="-1.4792965352535248e-01" rms="3.6128509044647217e-01" purity="1.8709327280521393e-01" nType="0">
            <Node pos="l" depth="3" NCoef="0" IVar="-1" Cut="0.0000000000000000e+00" cType="1" res="1.4681007713079453e-02" rms="4.2881673574447632e-01" purity="7.3090481758117676e-01" nType="1"/>
            <Node pos="r" depth="3" NCoef="0" IVar="-1" Cut="0.0000000000000000e+00" cType="1" res="-1.8881814554333687e-02" rms="3.5086977481842041e-01" purity="1.5770085155963898e-01" nType="-1"/>
          </Node>
        </Node>
      </Node>
    </BinaryTree>
    <BinaryTree type="DecisionTree" boostWeight="1.0000000000000000e+00" itree="17">
      <Node pos="s" depth="0" NCoef="0" IVar="3" Cut="3.3195426464080811e+00" cType="0" res="-7.2123304009437561e-02" rms="3.8907021284103394e-01" purity="3.3178541064262390e-01" nType="0">
        <Node pos="l" depth="1" NCoef="0" IVar="5" Cut="2.8142535686492920e+00" cType="1" res="1.1950798332691193e-01" rms="3.9034855365753174e-01" purity="7.5128972530364990e-01" nType="0">
          <Node pos="l" depth="2" NCoef="0" IVar="5" Cut="5.4918479919433594e-01" cType="1" res="1.7526027560234070e-01" rms="3.4071215987205505e-01" purity="8.5017418861389160e-01" nType="0">
            <Node pos="l" depth="3" NCoef="0" IVar="-1" Cut="0.0000000000000000e+00" cType="1" res="2.4919791147112846e-02" rms="2.9361447691917419e-01" purity="8.9906698465347290e-01" nType="1"/>
            <Node pos="r" depth="3" NCoef="0" IVar="-1" Cut="0.0000000000000000e+00" cType="1" res="2.4918774142861366e-03" rms="4.7506850957870483e-01" purity="6.2500000000000000e-01" nType="1"/>
          </Node>
          <Node pos="r" depth="2" NCoef="0" IVar="1" Cut="1.6118209064006805e-01" cType="1" res="-7.7305153012275696e-02" rms="4.8037755489349365e-01" purity="4.0221402049064636e-01" nType="0">
            <Node pos="l" depth="3" NCoef="0" IVar="-1" Cut="0.0000000000000000e+00" cType="1" res="1.5635219169780612e-03" rms="4.9795055389404297e-01" purity="5.4658383131027222e-01" nType="1"/>
            <Node pos="r" depth="3" NCoef="0" IVar="-1" Cut="0.0000000000000000e+00" cType="1" res="-1.4289400540292263e-02" rms="4.5839309692382812e-01" purity="3.0753564834594727e-01" nType="-1"/>
          </Node>
        </Node>
        <Node pos="r" depth="1" NCoef="0" IVar="3" Cut="-3.3278324604034424e+00" cType="1" res="-1.0941081494092941e-01" rms="3.7768498063087463e-01" purity="2.5015848875045776e-01" nType="0">
          <Node pos="l" depth="2" NCoef="0" IVar="6" Cut="-2.9013144969940186e+00" cType="0" res="1.2332753837108612e-01" rms="4.2047750949859619e-01" purity="7.1335929632186890e-01" nType="0">
            <Node pos="l" depth="3" NCoef="0" IVar="-1" Cut="0.0000000000000000e+00" cType="1" res="1.9480336457490921e-02" rms="3.8593852519989014e-01" purity="7.8563773632049561e-01" nType="1"/>
            <Node pos="r" depth="3" NCoef="0" IVar="-1" Cut="0.0000000000000000e+00" cType="1" res="-9.4639435410499573e-03" rms="4.8479390144348145e-01" purity="4.1163310408592224e-01" nType="-1"/>
          </Node>
          <Node pos="r" depth="2" NCoef="0" IVar="1" Cut="1.2432660907506943e-01" cType="1" res="-1.4181068539619446e-01" rms="3.5958406329154968e-01" purity="1.8567559123039246e-01" nType="0">
            <Node pos="l" depth="3" NCoef="0" IVar="-1" Cut="0.0000000000000000e+00" cType="1" res="-7.2801602073013783e-03" rms="4.2366418242454529e-01" purity="2.8600099682807922e-01" nType="-1"/>
            <Node pos="r" depth="3" NCoef="0" IVar="-1" Cut="0.0000000000000000e+00" cType="1" res="-2.2035228088498116e-02" rms="3.0948621034622192e-01" purity="1.2927792966365814e-01" nType="-1"/>
          </Node>
        </Node>
      </Node>
    </BinaryTree>
    <BinaryTree type="DecisionTree" boostWeight="1.0000000000000000e+00" itree="18">
      <Node pos="s" depth="0" NCoef="0" IVar="4" Cut="3.6592376232147217e+00" cType="0" res="-6.6405363380908966e-02" rms="3.8771489262580872e-01" purity="3.3330377936363220e-01" nType="0">
        <Node pos="l" depth="1" NCoef="0" IVar="0" Cut="3.4718718379735947e-02" cType="0" res="1.2859958410263062e-01" rms="3.6647206544876099e-01" purity="7.8506374359130859e-01" nType="0">
          <Node pos="l" depth="2" NCoef="0" IVar="5" Cut="5.6115756034851074e+00" cType="1" res="1.7925937473773956e-01" rms="3.0819904804229736e-01" purity="8.7545287609100342e-01" nType="0">
            <Node pos="l" depth="3" NCoef="0" IVar="-1" Cut="0.0000000000000000e+00" cType="1" res="2.3136328905820847e-02" rms="2.9096883535385132e-01" purity="8.9673388004302979e-01" nType="1"/>
            <Node pos="r" depth="3" NCoef="0" IVar="-1" Cut="0.0000000000000000e+00" cType="1" res="4.5914156362414360e-03" rms="4.9642589688301086e-01" purity="5.2380955219268799e-01" nType="1"/>
          </Node>
          <Node pos="r" depth="2" NCoef="0" IVar="6" Cut="3.1238555908203125e+00" cType="1" res="2.5600655004382133e-02" rms="4.4543081521987915e-01" purity="6.0128915309906006e-01" nType="0">
            <Node pos="l" depth="3" NCoef="0" IVar="-1" Cut="0.0000000000000000e+00" cType="1" res="1.0426280088722706e-02" rms="4.1089069843292236e-01" purity="7.4358975887298584e-01" nType="1"/>
            <Node pos="r" depth="3" NCoef="0" IVar="-1" Cut="0.0000000000000000e+00" cType="1" res="-6.7121833562850952e-03" rms="4.7357121109962463e-01" purity="4.0909090638160706e-01" nType="-1"/>
          </Node>
        </Node>
        <Node pos="r" depth="1" NCoef="0" IVar="4" Cut="-2.9678657054901123e+00" cType="1" res="-9.9758408963680267e-02" rms="3.8137462735176086e-01" purity="2.5603613257408142e-01" nType="0">
          <Node pos="l" depth="2" NCoef="0" IVar="0" Cut="3.5313654690980911e-02" cType="0" res="1.2106023728847504e-01" rms="4.1571888327598572e-01" purity="7.2144037485122681e-01" nType="0">
            <Node pos="l" depth="3" NCoef="0" IVar="-1" Cut="0.0000000000000000e+00" cType="1" res="2.1802609786391258e-02" rms="3.5600903630256653e-01" purity="8.3395290374755859e-01" nType="1"/>
            <Node pos="r" depth="3" NCoef="0" IVar="-1" Cut="0.0000000000000000e+00" cType="1" res="-2.2800695151090622e-03" rms="4.8466184735298157e-01" purity="4.9501246213912964e-01" nType="-1"/>
          </Node>
          <Node pos="r" depth="2" NCoef="0" IVar="6" Cut="1.6701568663120270e-01" cType="0" res="-1.3143315911293030e-01" rms="3.6540678143501282e-01" purity="1.8927744030952454e-01" nType="0">
            <Node pos="l" depth="3" NCoef="0" IVar="-1" Cut="0.0000000000000000e+00" cType="1" res="1.1561429128050804e-02" rms="4.9055165052413940e-01" purity="4.9254789948463440e-01" nType="-1"/>
            <Node pos="r" depth="3" NCoef="0" IVar="-1" Cut="0.0000000000000000e+00" cType="1" res="-1.8097618594765663e-02" rms="3.4383079409599304e-01" purity="1.6159129142761230e-01" nType="-1"/>
          </Node>
        </Node>
      </Node>
    </BinaryTree>
    <BinaryTree type="DecisionTree" boostWeight="1.0000000000000000e+00" itree="19">
      <Node pos="s" depth="0" NCoef="0" IVar="4" Cut="3.5060355663299561e+00" cType="0" res="-6.4569890499114990e-02" rms="3.8534894585609436e-01" purity="3.3297696709632874e-01" nType="0">
        <Node pos="l" depth="1" NCoef="0" IVar="0" Cut="3.0342932790517807e-02" cType="0" res="1.1729582399129868e-01" rms="3.6794397234916687e-01" purity="7.7871227264404297e-01" nType="0">
          <Node pos="l" depth="2" NCoef="0" IVar="5" Cut="2.8057925701141357e+00" cType="1" res="1.6847391426563263e-01" rms="3.1340315937995911e-01" purity="8.6696499586105347e-01" nType="0">
            <Node pos="l" depth="3" NCoef="0" IVar="-1" Cut="0.0000000000000000e+00" cType="1" res="2.2918425500392914e-02" rms="2.8699028491973877e-01" purity="9.0223217010498047e-01" nType="1"/>
            <Node pos="r" depth="3" NCoef="0" IVar="-1" Cut="0.0000000000000000e+00" cType="1" res="2.5394672993570566e-03" rms="4.8838528990745544e-01" purity="5.0458717346191406e-01" nType="1"/>
          </Node>
          <Node pos="r" depth="2" NCoef="0" IVar="6" Cut="2.9651429653167725e+00" cType="1" res="-9.7705954685807228e-03" rms="4.5276793837547302e-01" purity="5.5959594249725342e-01" nType="0">
            <Node pos="l" depth="3" NCoef="0" IVar="-1" Cut="0.0000000000000000e+00" cType="1" res="6.3992412760853767e-03" rms="4.2931714653968811e-01" purity="7.1195650100708008e-01" nType="1"/>
            <Node pos="r" depth="3" NCoef="0" IVar="-1" Cut="0.0000000000000000e+00" cType="1" res="-9.7461789846420288e-03" rms="4.6761980652809143e-01" purity="3.6757990717887878e-01" nType="-1"/>
          </Node>
        </Node>
        <Node pos="r" depth="1" NCoef="0" IVar="4" Cut="-3.1159644126892090e+00" cType="1" res="-9.7571998834609985e-02" rms="3.7918582558631897e-01" purity="2.5209200382232666e-01" nType="0">
          <Node pos="l" depth="2" NCoef="0" IVar="0" Cut="6.8417012691497803e-02" cType="0" res="1.0470732301473618e-01" rms="4.1579335927963257e-01" purity="7.1588945388793945e-01" nType="0">
            <Node pos="l" depth="3" NCoef="0" IVar="-1" Cut="0.0000000000000000e+00" cType="1" res="2.6066051796078682e-02" rms="2.9214826226234436e-01" purity="9.0050762891769409e-01" nType="1"/>
            <Node pos="r" depth="3" NCoef="0" IVar="-1" Cut="0.0000000000000000e+00" cType="1" res="2.0820950157940388e-03" rms="4.6979045867919922e-01" purity="5.7926368713378906e-01" nType="1"/>
          </Node>
          <Node pos="r" depth="2" NCoef="0" IVar="1" Cut="6.3607186079025269e-02" cType="1" res="-1.2564983963966370e-01" rms="3.6506763100624084e-01" purity="1.8771351873874664e-01" nType="0">
            <Node pos="l" depth="3" NCoef="0" IVar="-1" Cut="0.0000000000000000e+00" cType="1" res="2.3227434139698744e-03" rms="4.5983499288558960e-01" purity="3.6271947622299194e-01" nType="-1"/>
            <Node pos="r" depth="3" NCoef="0" IVar="-1" Cut="0.0000000000000000e+00" cType="1" res="-1.8450999632477760e-02" rms="3.3686903119087219e-01" purity="1.5426899492740631e-01" nType="-1"/>
          </Node>
        </Node>
      </Node>
    </BinaryTree>
    <BinaryTree type="DecisionTree" boostWeight="1.0000000000000000e+00" itree="20">
      <Node pos="s" depth="0" NCoef="0" IVar="1" Cut="1.8975299596786499e-01" cType="1" res="-5.9807967394590378e-02" rms="3.8495081663131714e-01" purity="3.3360114693641663e-01" nType="0">
        <Node pos="l" depth="1" NCoef="0" IVar="3" Cut="3.3007707595825195e+00" cType="0" res="3.8228160701692104e-03" rms="4.0935769677162170e-01" purity="4.2635223269462585e-01" nType="0">
          <Node pos="l" depth="2" NCoef="0" IVar="5" Cut="2.6954302787780762e+00" cType="1" res="1.5384435653686523e-01" rms="3.5505175590515137e-01" purity="8.2186788320541382e-01" nType="0">
            <Node pos="l" depth="3" NCoef="0" IVar="-1" Cut="0.0000000000000000e+00" cType="1" res="2.2084863856434822e-02" rms="3.1168183684349060e-01" purity="8.7699067592620850e-01" nType="1"/>
            <Node pos="r" depth="3" NCoef="0" IVar="-1" Cut="0.0000000000000000e+00" cType="1" res="2.5798736605793238e-03" rms="4.9704116582870483e-01" purity="5.5347591638565063e-01" nType="1"/>
          </Node>
          <Node pos="r" depth="2" NCoef="0" IVar="3" Cut="-3.3471574783325195e+00" cType="1" res="-2.8369702398777008e-02" rms="4.1305652260780334e-01" purity="3.4148010611534119e-01" nType="0">
            <Node pos="l" depth="3" NCoef="0" IVar="-1" Cut="0.0000000000000000e+00" cType="1" res="1.9027132540941238e-02" rms="3.8066914677619934e-01" purity="7.9117262363433838e-01" nType="1"/>
            <Node pos="r" depth="3" NCoef="0" IVar="-1" Cut="0.0000000000000000e+00" cType="1" res="-7.4060615152120590e-03" rms="4.0899118781089783e-01" purity="2.6311561465263367e-01" nType="-1"/>
          </Node>
        </Node>
        <Node pos="r" depth="1" NCoef="0" IVar="4" Cut="3.1688687801361084e+00" cType="0" res="-1.3902127742767334e-01" rms="3.3576452732086182e-01" purity="2.1813626587390900e-01" nType="0">
          <Node pos="l" depth="2" NCoef="0" IVar="6" Cut="2.7741274833679199e+00" cType="1" res="3.3771656453609467e-02" rms="4.1889190673828125e-01" purity="6.4529913663864136e-01" nType="0">
            <Node pos="l" depth="3" NCoef="0" IVar="-1" Cut="0.0000000000000000e+00" cType="1" res="1.1635285802185535e-02" rms="3.8410374522209167e-01" purity="7.7959185838699341e-01" nType="1"/>
            <Node pos="r" depth="3" NCoef="0" IVar="-1" Cut="0.0000000000000000e+00" cType="1" res="-1.1749467812478542e-02" rms="4.5857414603233337e-01" purity="3.3490565419197083e-01" nType="-1"/>
          </Node>
          <Node pos="r" depth="2" NCoef="0" IVar="4" Cut="-3.4758009910583496e+00" cType="1" res="-1.6730967164039612e-01" rms="3.1109392642974854e-01" purity="1.4820429682731628e-01" nType="0">
            <Node pos="l" depth="3" NCoef="0" IVar="-1" Cut="0.0000000000000000e+00" cType="1" res="1.1457949876785278e-03" rms="4.6000105142593384e-01" purity="5.9836065769195557e-01" nType="1"/>
            <Node pos="r" depth="3" NCoef="0" IVar="-1" Cut="0.0000000000000000e+00" cType="1" res="-2.2775722667574883e-02" rms="2.8780934214591980e-01" purity="1.0619581490755081e-01" nType="-1"/>
          </Node>
        </Node>
      </Node>
    </BinaryTree>
    <BinaryTree type="DecisionTree" boostWeight="1.0000000000000000e+00" itree="21">
      <Node pos="s" depth="0" NCoef="0" IVar="1" Cut="9.4876497983932495e-02" cType="1" res="-5.8272525668144226e-02" rms="3.8328984379768372e-01" purity="3.3238294720649719e-01" nType="0">
        <Node pos="l" depth="1" NCoef="0" IVar="3" Cut="-3.1172916889190674e+00" cType="1" res="4.7954175621271133e-02" rms="4.1756352782249451e-01" purity="4.9863263964653015e-01" nType="0">
          <Node pos="l" depth="2" NCoef="0" IVar="5" Cut="-1.8508245944976807e+00" cType="0" res="1.9764846563339233e-01" rms="3.5093075037002563e-01" purity="8.3636361360549927e-01" nType="0">
            <Node pos="l" depth="3" NCoef="0" IVar="-1" Cut="0.0000000000000000e+00" cType="1" res="2.6279252022504807e-02" rms="3.1713771820068359e-01" purity="8.8037168979644775e-01" nType="1"/>
            <Node pos="r" depth="3" NCoef="0" IVar="-1" Cut="0.0000000000000000e+00" cType="1" res="3.2999741379171610e-03" rms="4.9211362004280090e-01" purity="5.4263567924499512e-01" nType="1"/>
          </Node>
          <Node pos="r" depth="2" NCoef="0" IVar="4" Cut="1.8748651742935181e+00" cType="0" res="2.1452501416206360e-02" rms="4.2279475927352905e-01" purity="4.3884119391441345e-01" nType="0">
            <Node pos="l" depth="3" NCoef="0" IVar="-1" Cut="0.0000000000000000e+00" cType="1" res="1.9917240366339684e-02" rms="3.5208401083946228e-01" purity="7.9508727788925171e-01" nType="1"/>
            <Node pos="r" depth="3" NCoef="0" IVar="-1" Cut="0.0000000000000000e+00" cType="1" res="-3.7127158138900995e-03" rms="4.3513098359107971e-01" purity="3.0259579420089722e-01" nType="-1"/>
          </Node>
        </Node>
        <Node pos="r" depth="1" NCoef="0" IVar="3" Cut="3.4786376953125000e+00" cType="0" res="-1.0234338045120239e-01" rms="3.5902616381645203e-01" purity="2.6341003179550171e-01" nType="0">
          <Node pos="l" depth="2" NCoef="0" IVar="0" Cut="3.0493512749671936e-02" cType="0" res="6.3729085028171539e-02" rms="4.1214916110038757e-01" purity="6.8763101100921631e-01" nType="0">
            <Node pos="l" depth="3" NCoef="0" IVar="-1" Cut="0.0000000000000000e+00" cType="1" res="1.6941316425800323e-02" rms="3.5658168792724609e-01" purity="8.1322425603866577e-01" nType="1"/>
            <Node pos="r" depth="3" NCoef="0" IVar="-1" Cut="0.0000000000000000e+00" cType="1" res="-6.3294894061982632e-03" rms="4.6250268816947937e-01" purity="4.8692810535430908e-01" nType="-1"/>
          </Node>
          <Node pos="r" depth="2" NCoef="0" IVar="4" Cut="-2.9193830490112305e+00" cType="1" res="-1.3172638416290283e-01" rms="3.4045329689979553e-01" purity="1.8835312128067017e-01" nType="0">
            <Node pos="l" depth="3" NCoef="0" IVar="-1" Cut="0.0000000000000000e+00" cType="1" res="4.3188724666833878e-03" rms="4.5135751366615295e-01" purity="6.2188363075256348e-01" nType="1"/>
            <Node pos="r" depth="3" NCoef="0" IVar="-1" Cut="0.0000000000000000e+00" cType="1" res="-1.9113581627607346e-02" rms="3.1849327683448792e-01" purity="1.3634097576141357e-01" nType="-1"/>
          </Node>
        </Node>
      </Node>
    </BinaryTree>
    <BinaryTree type="DecisionTree" boostWeight="1.0000000000000000e+00" itree="22">
      <Node pos="s" depth="0" NCoef="0" IVar="1" Cut="1.1195579171180725e-01" cType="1" res="-5.0747420638799667e-02" rms="3.8233980536460876e-01" purity="3.3814644813537598e-01" nType="0">
        <Node pos="l" depth="1" NCoef="0" IVar="4" Cut="-2.4856674671173096e+00" cType="1" res="4.0853168815374374e-02" rms="4.1501489281654358e-01" purity="4.8862764239311218e-01" nType="0">
          <Node pos="l" depth="2" NCoef="0" IVar="6" Cut="-2.7548792362213135e+00" cType="0" res="1.9134154915809631e-01" rms="3.5874497890472412e-01" purity="8.1868565082550049e-01" nType="0">
            <Node pos="l" depth="3" NCoef="0" IVar="-1" Cut="0.0000000000000000e+00" cType="1" res="2.5770703330636024e-02" rms="3.2715639472007751e-01" purity="8.5818183422088623e-01" nType="1"/>
            <Node pos="r" depth="3" NCoef="0" IVar="-1" Cut="0.0000000000000000e+00" cType="1" res="2.5445469655096531e-03" rms="4.9289336800575256e-01" purity="5.5214720964431763e-01" nType="1"/>
          </Node>
          <Node pos="r" depth="2" NCoef="0" IVar="3" Cut="3.7264714241027832e+00" cType="0" res="1.1892810463905334e-02" rms="4.1883084177970886e-01" purity="4.2511045932769775e-01" nType="0">
            <Node pos="l" depth="3" NCoef="0" IVar="-1" Cut="0.0000000000000000e+00" cType="1" res="1.8476922065019608e-02" rms="3.3571520447731018e-01" purity="8.4372812509536743e-01" nType="1"/>
            <Node pos="r" depth="3" NCoef="0" IVar="-1" Cut="0.0000000000000000e+00" cType="1" res="-3.0878111720085144e-03" rms="4.3138003349304199e-01" purity="3.0880063772201538e-01" nType="-1"/>
          </Node>
        </Node>
        <Node pos="r" depth="1" NCoef="0" IVar="4" Cut="3.4927814006805420e+00" cType="0" res="-9.9573612213134766e-02" rms="3.5417476296424866e-01" purity="2.5793489813804626e-01" nType="0">
          <Node pos="l" depth="2" NCoef="0" IVar="5" Cut="2.8486659526824951e+00" cType="1" res="7.2737134993076324e-02" rms="3.9916089177131653e-01" purity="7.1262133121490479e-01" nType="0">
            <Node pos="l" depth="3" NCoef="0" IVar="-1" Cut="0.0000000000000000e+00" cType="1" res="1.3043412007391453e-02" rms="3.7077295780181885e-01" purity="8.0855017900466919e-01" nType="1"/>
            <Node pos="r" depth="3" NCoef="0" IVar="-1" Cut="0.0000000000000000e+00" cType="1" res="-5.0370697863399982e-03" rms="4.6894037723541260e-01" purity="3.6547085642814636e-01" nType="-1"/>
          </Node>
          <Node pos="r" depth="2" NCoef="0" IVar="4" Cut="-3.1498174667358398e+00" cType="1" res="-1.2769594788551331e-01" rms="3.3804154396057129e-01" purity="1.8372683227062225e-01" nType="0">
            <Node pos="l" depth="3" NCoef="0" IVar="-1" Cut="0.0000000000000000e+00" cType="1" res="3.2957489602267742e-03" rms="4.5532435178756714e-01" purity="6.1986035108566284e-01" nType="1"/>
            <Node pos="r" depth="3" NCoef="0" IVar="-1" Cut="0.0000000000000000e+00" cType="1" res="-1.8534148111939430e-02" rms="3.1706386804580688e-01" purity="1.3412159681320190e-01" nType="-1"/>
          </Node>
        </Node>
      </Node>
    </BinaryTree>
    <BinaryTree type="DecisionTree" boostWeight="1.0000000000000000e+00" itree="23">
      <Node pos="s" depth="0" NCoef="0" IVar="4" Cut="3.2352869510650635e+00" cType="0" res="-5.1386557519435883e-02" rms="3.7858280539512634e-01" purity="3.3169609308242798e-01" nType="0">
        <Node pos="l" depth="1" NCoef="0" IVar="0" Cut="3.5448342561721802e-02" cType="0" res="1.1054936051368713e-01" rms="3.6915034055709839e-01" purity="7.8247034549713135e-01" nType="0">
          <Node pos="l" depth="2" NCoef="0" IVar="1" Cut="1.3246996700763702e-01" cType="1" res="1.5573433041572571e-01" rms="3.1128624081611633e-01" purity="8.7717771530151367e-01" nType="0">
            <Node pos="l" depth="3" NCoef="0" IVar="-1" Cut="0.0000000000000000e+00" cType="1" res="2.5091860443353653e-02" rms="2.5992935895919800e-01" purity="9.2389649152755737e-01" nType="1"/>
            <Node pos="r" depth="3" NCoef="0" IVar="-1" Cut="0.0000000000000000e+00" cType="1" res="1.4160266146063805e-02" rms="3.6430141329765320e-01" purity="8.1466394662857056e-01" nType="1"/>
          </Node>
          <Node pos="r" depth="2" NCoef="0" IVar="6" Cut="2.1777023315429688e+01" cType="1" res="2.1191310137510300e-02" rms="4.4957026839256287e-01" purity="5.9517657756805420e-01" nType="0">
            <Node pos="l" depth="3" NCoef="0" IVar="-1" Cut="0.0000000000000000e+00" cType="1" res="4.8708631657063961e-03" rms="4.4585320353507996e-01" purity="6.3913470506668091e-01" nType="1"/>
            <Node pos="r" depth="3" NCoef="0" IVar="-1" Cut="0.0000000000000000e+00" cType="1" res="-1.4454049058258533e-02" rms="4.4397005438804626e-01" purity="2.8472220897674561e-01" nType="-1"/>
          </Node>
        </Node>
        <Node pos="r" depth="1" NCoef="0" IVar="3" Cut="-3.1186149120330811e+00" cType="1" res="-8.0631799995899200e-02" rms="3.7283718585968018e-01" purity="2.5028732419013977e-01" nType="0">
          <Node pos="l" depth="2" NCoef="0" IVar="5" Cut="-2.6809751987457275e+00" cType="0" res="1.0069999843835831e-01" rms="4.1841840744018555e-01" purity="7.0279282331466675e-01" nType="0">
            <Node pos="l" depth="3" NCoef="0" IVar="-1" Cut="0.0000000000000000e+00" cType="1" res="1.6873953863978386e-02" rms="3.9028939604759216e-01" purity="7.7563452720642090e-01" nType="1"/>
            <Node pos="r" depth="3" NCoef="0" IVar="-1" Cut="0.0000000000000000e+00" cType="1" res="-1.0565958917140961e-02" rms="4.7890847921371460e-01" purity="3.6829838156700134e-01" nType="-1"/>
          </Node>
          <Node pos="r" depth="2" NCoef="0" IVar="6" Cut="-2.7348056435585022e-01" cType="1" res="-1.0661370307207108e-01" rms="3.5840398073196411e-01" purity="1.8545064330101013e-01" nType="0">
            <Node pos="l" depth="3" NCoef="0" IVar="-1" Cut="0.0000000000000000e+00" cType="1" res="1.8568906933069229e-02" rms="4.9150681495666504e-01" purity="4.6788990497589111e-01" nType="-1"/>
            <Node pos="r" depth="3" NCoef="0" IVar="-1" Cut="0.0000000000000000e+00" cType="1" res="-1.5392281115055084e-02" rms="3.4196195006370544e-01" purity="1.6787210106849670e-01" nType="-1"/>
          </Node>
        </Node>
      </Node>
    </BinaryTree>
    <BinaryTree type="DecisionTree" boostWeight="1.0000000000000000e+00" itree="24">
      <Node pos="s" depth="0" NCoef="0" IVar="3" Cut="3.3007707595825195e+00" cType="0" res="-4.7447718679904938e-02" rms="3.7799870967864990e-01" purity="3.3373364806175232e-01" nType="0">
        <Node pos="l" depth="1" NCoef="0" IVar="0" Cut="3.4542933106422424e-02" cType="0" res="9.9748782813549042e-02" rms="3.8593399524688721e-01" purity="7.5220751762390137e-01" nType="0">
          <Node pos="l" depth="2" NCoef="0" IVar="4" Cut="3.2133698463439941e+00" cType="0" res="1.5788841247558594e-01" rms="3.2653257250785828e-01" purity="8.6105173826217651e-01" nType="0">
            <Node pos="l" depth="3" NCoef="0" IVar="-1" Cut="0.0000000000000000e+00" cType="1" res="1.8270887434482574e-02" rms="3.0157488584518433e-01" purity="8.7731093168258667e-01" nType="1"/>
            <Node pos="r" depth="3" NCoef="0" IVar="-1" Cut="0.0000000000000000e+00" cType="1" res="2.4510774761438370e-02" rms="3.8548040390014648e-01" purity="8.0866426229476929e-01" nType="1"/>
          </Node>
          <Node pos="r" depth="2" NCoef="0" IVar="5" Cut="3.2058057785034180e+00" cType="1" res="-6.0789338313043118e-03" rms="4.5675793290138245e-01" purity="5.5408561229705811e-01" nType="0">
            <Node pos="l" depth="3" NCoef="0" IVar="-1" Cut="0.0000000000000000e+00" cType="1" res="4.8545398749411106e-03" rms="4.3937838077545166e-01" purity="6.8289476633071899e-01" nType="1"/>
            <Node pos="r" depth="3" NCoef="0" IVar="-1" Cut="0.0000000000000000e+00" cType="1" res="-7.9953745007514954e-03" rms="4.7185558080673218e-01" purity="3.6761903762817383e-01" nType="-1"/>
          </Node>
        </Node>
        <Node pos="r" depth="1" NCoef="0" IVar="3" Cut="-3.3471574783325195e+00" cType="1" res="-7.5734920799732208e-02" rms="3.6980283260345459e-01" purity="2.5331425666809082e-01" nType="0">
          <Node pos="l" depth="2" NCoef="0" IVar="6" Cut="-2.8145930767059326e+00" cType="0" res="9.5894180238246918e-02" rms="4.1156998276710510e-01" purity="7.1365636587142944e-01" nType="0">
            <Node pos="l" depth="3" NCoef="0" IVar="-1" Cut="0.0000000000000000e+00" cType="1" res="1.6849257051944733e-02" rms="3.7737405300140381e-01" purity="7.8246754407882690e-01" nType="1"/>
            <Node pos="r" depth="3" NCoef="0" IVar="-1" Cut="0.0000000000000000e+00" cType="1" res="-1.0829082690179348e-02" rms="4.8748913407325745e-01" purity="4.1232228279113770e-01" nType="-1"/>
          </Node>
          <Node pos="r" depth="2" NCoef="0" IVar="1" Cut="1.9050079584121704e-01" cType="1" res="-9.9221661686897278e-02" rms="3.5735896229743958e-01" purity="1.9031830132007599e-01" nType="0">
            <Node pos="l" depth="3" NCoef="0" IVar="-1" Cut="0.0000000000000000e+00" cType="1" res="-6.1127715744078159e-03" rms="4.0534082055091858e-01" purity="2.6212590932846069e-01" nType="-1"/>
            <Node pos="r" depth="3" NCoef="0" IVar="-1" Cut="0.0000000000000000e+00" cType="1" res="-2.0467119291424751e-02" rms="2.8541252017021179e-01" purity="1.1071565002202988e-01" nType="-1"/>
          </Node>
        </Node>
      </Node>
    </BinaryTree>
    <BinaryTree type="DecisionTree" boostWeight="1.0000000000000000e+00" itree="25">
      <Node pos="s" depth="0" NCoef="0" IVar="0" Cut="6.9030620157718658e-02" cType="0" res="-4.5144181698560715e-02" rms="3.7788483500480652e-01" purity="3.3532375097274780e-01" nType="0">
        <Node pos="l" depth="1" NCoef="0" IVar="3" Cut="3.2566173076629639e+00" cType="0" res="4.4633891433477402e-02" rms="3.8527482748031616e-01" purity="5.0085419416427612e-01" nType="0">
          <Node pos="l" depth="2" NCoef="0" IVar="4" Cut="3.2319006919860840e+00" cType="0" res="1.6307438910007477e-01" rms="2.9117369651794434e-01" purity="8.9893615245819092e-01" nType="0">
            <Node pos="l" depth="3" NCoef="0" IVar="-1" Cut="0.0000000000000000e+00" cType="1" res="1.9939098507165909e-02" rms="2.6864072680473328e-01" purity="9.1077440977096558e-01" nType="1"/>
            <Node pos="r" depth="3" NCoef="0" IVar="-1" Cut="0.0000000000000000e+00" cType="1" res="2.7558017522096634e-02" rms="3.4511154890060425e-01" purity="8.5443037748336792e-01" nType="1"/>
          </Node>
          <Node pos="r" depth="2" NCoef="0" IVar="3" Cut="-3.3908445835113525e+00" cType="1" res="1.2363147921860218e-02" rms="4.0114423632621765e-01" purity="3.9239129424095154e-01" nType="0">
            <Node pos="l" depth="3" NCoef="0" IVar="-1" Cut="0.0000000000000000e+00" cType="1" res="2.3805383592844009e-02" rms="3.0266126990318298e-01" purity="8.9363920688629150e-01" nType="1"/>
            <Node pos="r" depth="3" NCoef="0" IVar="-1" Cut="0.0000000000000000e+00" cType="1" res="-2.9741057660430670e-03" rms="4.0976849198341370e-01" purity="2.8699845075607300e-01" nType="-1"/>
          </Node>
        </Node>
        <Node pos="r" depth="1" NCoef="0" IVar="4" Cut="3.3502690792083740e+00" cType="0" res="-8.6047157645225525e-02" rms="3.6726316809654236e-01" purity="2.5990790128707886e-01" nType="0">
          <Node pos="l" depth="2" NCoef="0" IVar="0" Cut="2.4240536615252495e-02" cType="0" res="4.3529067188501358e-02" rms="4.2132818698883057e-01" purity="6.7440712451934814e-01" nType="0">
            <Node pos="l" depth="3" NCoef="0" IVar="-1" Cut="0.0000000000000000e+00" cType="1" res="1.0367115959525108e-02" rms="3.9537787437438965e-01" purity="7.5694441795349121e-01" nType="1"/>
            <Node pos="r" depth="3" NCoef="0" IVar="-1" Cut="0.0000000000000000e+00" cType="1" res="-3.5105913411825895e-03" rms="4.5433375239372253e-01" purity="5.2747255563735962e-01" nType="1"/>
          </Node>
          <Node pos="r" depth="2" NCoef="0" IVar="6" Cut="-1.9336823374032974e-02" cType="1" res="-1.0562919825315475e-01" rms="3.5428550839424133e-01" purity="1.9726723432540894e-01" nType="0">
            <Node pos="l" depth="3" NCoef="0" IVar="-1" Cut="0.0000000000000000e+00" cType="1" res="-5.1483497372828424e-05" rms="4.4105595350265503e-01" purity="3.9113149046897888e-01" nType="-1"/>
            <Node pos="r" depth="3" NCoef="0" IVar="-1" Cut="0.0000000000000000e+00" cType="1" res="-1.8125120550394058e-02" rms="3.1384071707725525e-01" purity="1.3464388251304626e-01" nType="-1"/>
          </Node>
        </Node>
      </Node>
    </BinaryTree>
    <BinaryTree type="DecisionTree" boostWeight="1.0000000000000000e+00" itree="26">
      <Node pos="s" depth="0" NCoef="0" IVar="0" Cut="6.9028697907924652e-02" cType="0" res="-4.2958267033100128e-02" rms="3.7409928441047668e-01" purity="3.3343735337257385e-01" nType="0">
        <Node pos="l" depth="1" NCoef="0" IVar="3" Cut="3.5590624809265137e+00" cType="0" res="4.8379406332969666e-02" rms="3.8193255662918091e-01" purity="5.0714993476867676e-01" nType="0">
          <Node pos="l" depth="2" NCoef="0" IVar="4" Cut="3.2025351524353027e+00" cType="0" res="1.6430859267711639e-01" rms="2.6646041870117188e-01" purity="9.1580402851104736e-01" nType="0">
            <Node pos="l" depth="3" NCoef="0" IVar="-1" Cut="0.0000000000000000e+00" cType="1" res="2.1949281916022301e-02" rms="2.4071398377418518e-01" purity="9.2972058057785034e-01" nType="1"/>
            <Node pos="r" depth="3" NCoef="0" IVar="-1" Cut="0.0000000000000000e+00" cType="1" res="2.5929130613803864e-02" rms="3.4688594937324524e-01" purity="8.5447758436203003e-01" nType="1"/>
          </Node>
          <Node pos="r" depth="2" NCoef="0" IVar="4" Cut="-1.2069456577301025e+00" cType="1" res="1.8457530066370964e-02" rms="4.0103989839553833e-01" purity="4.0167438983917236e-01" nType="0">
            <Node pos="l" depth="3" NCoef="0" IVar="-1" Cut="0.0000000000000000e+00" cType="1" res="1.7064262181520462e-02" rms="3.7596946954727173e-01" purity="6.6864222288131714e-01" nType="1"/>
            <Node pos="r" depth="3" NCoef="0" IVar="-1" Cut="0.0000000000000000e+00" cType="1" res="-4.8684822395443916e-03" rms="4.0061113238334656e-01" purity="2.6982438564300537e-01" nType="-1"/>
          </Node>
        </Node>
        <Node pos="r" depth="1" NCoef="0" IVar="5" Cut="-5.5744539946317673e-02" cType="1" res="-8.4939002990722656e-02" rms="3.6281055212020874e-01" purity="2.5359535217285156e-01" nType="0">
          <Node pos="l" depth="2" NCoef="0" IVar="1" Cut="2.2408147156238556e-01" cType="1" res="4.3490640819072723e-02" rms="4.7723811864852905e-01" purity="4.8837208747863770e-01" nType="0">
            <Node pos="l" depth="3" NCoef="0" IVar="-1" Cut="0.0000000000000000e+00" cType="1" res="1.3046366162598133e-02" rms="4.7484260797500610e-01" purity="5.7455772161483765e-01" nType="1"/>
            <Node pos="r" depth="3" NCoef="0" IVar="-1" Cut="0.0000000000000000e+00" cType="1" res="-8.7958080694079399e-03" rms="4.5680910348892212e-01" purity="3.4326240420341492e-01" nType="-1"/>
          </Node>
          <Node pos="r" depth="2" NCoef="0" IVar="3" Cut="1.6128627061843872e+00" cType="0" res="-1.0297157615423203e-01" rms="3.3984366059303284e-01" purity="2.2063079476356506e-01" nType="0">
            <Node pos="l" depth="3" NCoef="0" IVar="-1" Cut="0.0000000000000000e+00" cType="1" res="1.6188567969948053e-03" rms="4.2358928918838501e-01" purity="5.0285714864730835e-01" nType="1"/>
            <Node pos="r" depth="3" NCoef="0" IVar="-1" Cut="0.0000000000000000e+00" cType="1" res="-1.9149808213114738e-02" rms="2.9430645704269409e-01" purity="1.2160401046276093e-01" nType="-1"/>
          </Node>
        </Node>
      </Node>
    </BinaryTree>
    <BinaryTree type="DecisionTree" boostWeight="1.0000000000000000e+00" itree="27">
      <Node pos="s" depth="0" NCoef="0" IVar="1" Cut="1.8975299596786499e-01" cType="1" res="-4.0468864142894745e-02" rms="3.7501096725463867e-01" purity="3.3576187491416931e-01" nType="0">
        <Node pos="l" depth="1" NCoef="0" IVar="3" Cut="3.2566173076629639e+00" cType="0" res="1.1079698801040649e-02" rms="4.0064954757690430e-01" purity="4.2994549870491028e-01" nType="0">
          <Node pos="l" depth="2" NCoef="0" IVar="5" Cut="2.6944131851196289e+00" cType="1" res="1.2182309478521347e-01" rms="3.5046118497848511e-01" purity="8.2332313060760498e-01" nType="0">
            <Node pos="l" depth="3" NCoef="0" IVar="-1" Cut="0.0000000000000000e+00" cType="1" res="2.0424786955118179e-02" rms="3.0507695674896240e-01" purity="8.8590955734252930e-01" nType="1"/>
            <Node pos="r" depth="3" NCoef="0" IVar="-1" Cut="0.0000000000000000e+00" cType="1" res="-3.0187398660928011e-03" rms="4.9452555179595947e-01" purity="5.0923484563827515e-01" nType="1"/>
          </Node>
          <Node pos="r" depth="2" NCoef="0" IVar="3" Cut="-3.3860821723937988e+00" cType="1" res="-1.3697710819542408e-02" rms="4.0693539381027222e-01" purity="3.4193232655525208e-01" nType="0">
            <Node pos="l" depth="3" NCoef="0" IVar="-1" Cut="0.0000000000000000e+00" cType="1" res="1.5093252994120121e-02" rms="3.8260713219642639e-01" purity="7.8557503223419189e-01" nType="1"/>
            <Node pos="r" depth="3" NCoef="0" IVar="-1" Cut="0.0000000000000000e+00" cType="1" res="-4.7762217000126839e-03" rms="4.0622657537460327e-01" purity="2.6305451989173889e-01" nType="-1"/>
          </Node>
        </Node>
        <Node pos="r" depth="1" NCoef="0" IVar="4" Cut="3.5428111553192139e+00" cType="0" res="-1.0456293076276779e-01" rms="3.2938504219055176e-01" purity="2.1865656971931458e-01" nType="0">
          <Node pos="l" depth="2" NCoef="0" IVar="6" Cut="2.9617719650268555e+00" cType="1" res="2.6589466258883476e-02" rms="4.1689366102218628e-01" purity="6.6116940975189209e-01" nType="0">
            <Node pos="l" depth="3" NCoef="0" IVar="-1" Cut="0.0000000000000000e+00" cType="1" res="8.8121676817536354e-03" rms="3.8246688246726990e-01" purity="7.8686761856079102e-01" nType="1"/>
            <Node pos="r" depth="3" NCoef="0" IVar="-1" Cut="0.0000000000000000e+00" cType="1" res="-7.4696140363812447e-03" rms="4.7289189696311951e-01" purity="3.7283951044082642e-01" nType="-1"/>
          </Node>
          <Node pos="r" depth="2" NCoef="0" IVar="3" Cut="2.5261900424957275e+00" cType="0" res="-1.2467296421527863e-01" rms="3.0893212556838989e-01" purity="1.5080459415912628e-01" nType="0">
            <Node pos="l" depth="3" NCoef="0" IVar="-1" Cut="0.0000000000000000e+00" cType="1" res="3.9568967185914516e-03" rms="4.6350562572479248e-01" purity="4.8269581794738770e-01" nType="-1"/>
            <Node pos="r" depth="3" NCoef="0" IVar="-1" Cut="0.0000000000000000e+00" cType="1" res="-1.8662728369235992e-02" rms="2.9245501756668091e-01" purity="1.2845049798488617e-01" nType="-1"/>
          </Node>
        </Node>
      </Node>
    </BinaryTree>
    <BinaryTree type="DecisionTree" boostWeight="1.0000000000000000e+00" itree="28">
      <Node pos="s" depth="0" NCoef="0" IVar="6" Cut="8.0472886562347412e-02" cType="0" res="-3.7498846650123596e-02" rms="3.7318274378776550e-01" purity="3.3528810739517212e-01" nType="0">
        <Node pos="l" depth="1" NCoef="0" IVar="0" Cut="5.1017839461565018e-02" cType="0" res="9.1992750763893127e-02" rms="4.2640170454978943e-01" purity="6.3976329565048218e-01" nType="0">
          <Node pos="l" depth="2" NCoef="0" IVar="3" Cut="3.2053985595703125e+00" cType="0" res="1.7981007695198059e-01" rms="3.5721519589424133e-01" purity="8.1771427392959595e-01" nType="0">
            <Node pos="l" depth="3" NCoef="0" IVar="-1" Cut="0.0000000000000000e+00" cType="1" res="1.8649881705641747e-02" rms="2.9753297567367554e-01" purity="8.8296043872833252e-01" nType="1"/>
            <Node pos="r" depth="3" NCoef="0" IVar="-1" Cut="0.0000000000000000e+00" cType="1" res="3.3081401139497757e-02" rms="4.3721672892570496e-01" purity="6.8877553939819336e-01" nType="1"/>
          </Node>
          <Node pos="r" depth="2" NCoef="0" IVar="2" Cut="6.9880169630050659e-01" cType="1" res="2.9899690300226212e-02" rms="4.5917794108390808e-01" purity="5.1393938064575195e-01" nType="0">
            <Node pos="l" depth="3" NCoef="0" IVar="-1" Cut="0.0000000000000000e+00" cType="1" res="1.5727803111076355e-02" rms="4.4266256690025330e-01" purity="5.3846156597137451e-01" nType="1"/>
            <Node pos="r" depth="3" NCoef="0" IVar="-1" Cut="0.0000000000000000e+00" cType="1" res="-1.0218683164566755e-03" rms="4.5957431197166443e-01" purity="5.0447928905487061e-01" nType="1"/>
          </Node>
        </Node>
        <Node pos="r" depth="1" NCoef="0" IVar="4" Cut="-2.4681398868560791e+00" cType="1" res="-6.7421294748783112e-02" rms="3.5307550430297852e-01" purity="2.6493108272552490e-01" nType="0">
          <Node pos="l" depth="2" NCoef="0" IVar="5" Cut="-2.5443074703216553e+00" cType="0" res="9.4488732516765594e-02" rms="4.1322696208953857e-01" purity="6.8449586629867554e-01" nType="0">
            <Node pos="l" depth="3" NCoef="0" IVar="-1" Cut="0.0000000000000000e+00" cType="1" res="1.4884231612086296e-02" rms="3.9463812112808228e-01" purity="7.2901082038879395e-01" nType="1"/>
            <Node pos="r" depth="3" NCoef="0" IVar="-1" Cut="0.0000000000000000e+00" cType="1" res="-9.9726924672722816e-03" rms="4.7817990183830261e-01" purity="3.8781163096427917e-01" nType="-1"/>
          </Node>
          <Node pos="r" depth="2" NCoef="0" IVar="3" Cut="3.7794981002807617e+00" cType="0" res="-9.6293181180953979e-02" rms="3.3306834101676941e-01" purity="1.9011406600475311e-01" nType="0">
            <Node pos="l" depth="3" NCoef="0" IVar="-1" Cut="0.0000000000000000e+00" cType="1" res="1.9684104248881340e-02" rms="3.2927381992340088e-01" purity="8.5869562625885010e-01" nType="1"/>
            <Node pos="r" depth="3" NCoef="0" IVar="-1" Cut="0.0000000000000000e+00" cType="1" res="-1.5042733401060104e-02" rms="3.2694706320762634e-01" purity="1.4797560870647430e-01" nType="-1"/>
          </Node>
        </Node>
      </Node>
    </BinaryTree>
    <BinaryTree type="DecisionTree" boostWeight="1.0000000000000000e+00" itree="29">
      <Node pos="s" depth="0" NCoef="0" IVar="0" Cut="9.8128832876682281e-02" cType="0" res="-3.8817364722490311e-02" rms="3.7041863799095154e-01" purity="3.3149889111518860e-01" nType="0">
        <Node pos="l" depth="1" NCoef="0" IVar="4" Cut="-3.0009086132049561e+00" cType="1" res="6.5185047686100006e-02" rms="3.7316825985908508e-01" purity="5.5437606573104858e-01" nType="0">
          <Node pos="l" depth="2" NCoef="0" IVar="3" Cut="-3.2265636920928955e+00" cType="1" res="1.8068258464336395e-01" rms="2.7509033679962158e-01" purity="9.1405183076858521e-01" nType="0">
            <Node pos="l" depth="3" NCoef="0" IVar="-1" Cut="0.0000000000000000e+00" cType="1" res="2.2172952070832253e-02" rms="2.4550418555736542e-01" purity="9.3157893419265747e-01" nType="1"/>
            <Node pos="r" depth="3" NCoef="0" IVar="-1" Cut="0.0000000000000000e+00" cType="1" res="3.0218956992030144e-02" rms="3.3724370598793030e-01" purity="8.5276073217391968e-01" nType="1"/>
          </Node>
          <Node pos="r" depth="2" NCoef="0" IVar="3" Cut="3.7969925403594971e+00" cType="0" res="4.3382395058870316e-02" rms="3.8504949212074280e-01" purity="4.8647952079772949e-01" nType="0">
            <Node pos="l" depth="3" NCoef="0" IVar="-1" Cut="0.0000000000000000e+00" cType="1" res="2.1419465541839600e-02" rms="2.6598417758941650e-01" purity="9.2081034183502197e-01" nType="1"/>
            <Node pos="r" depth="3" NCoef="0" IVar="-1" Cut="0.0000000000000000e+00" cType="1" res="6.1749480664730072e-04" rms="4.1602054238319397e-01" purity="3.1784054636955261e-01" nType="-1"/>
          </Node>
        </Node>
        <Node pos="r" depth="1" NCoef="0" IVar="4" Cut="3.3777990341186523e+00" cType="0" res="-6.5888248383998871e-02" rms="3.6486917734146118e-01" purity="2.7348595857620239e-01" nType="0">
          <Node pos="l" depth="2" NCoef="0" IVar="0" Cut="2.4144664406776428e-02" cType="0" res="5.2183974534273148e-02" rms="4.0572056174278259e-01" purity="7.0685172080993652e-01" nType="0">
            <Node pos="l" depth="3" NCoef="0" IVar="-1" Cut="0.0000000000000000e+00" cType="1" res="1.1644398793578148e-02" rms="3.7327504158020020e-01" purity="7.8819876909255981e-01" nType="1"/>
            <Node pos="r" depth="3" NCoef="0" IVar="-1" Cut="0.0000000000000000e+00" cType="1" res="-4.3009649962186813e-03" rms="4.5960554480552673e-01" purity="5.1867818832397461e-01" nType="1"/>
          </Node>
          <Node pos="r" depth="2" NCoef="0" IVar="1" Cut="1.9198562204837799e-01" cType="1" res="-8.3536326885223389e-02" rms="3.5500577092170715e-01" purity="2.0871143043041229e-01" nType="0">
            <Node pos="l" depth="3" NCoef="0" IVar="-1" Cut="0.0000000000000000e+00" cType="1" res="-5.1933745853602886e-03" rms="4.0018063783645630e-01" purity="2.8776782751083374e-01" nType="-1"/>
            <Node pos="r" depth="3" NCoef="0" IVar="-1" Cut="0.0000000000000000e+00" cType="1" res="-1.7076959833502769e-02" rms="3.0278599262237549e-01" purity="1.3632977008819580e-01" nType="-1"/>
          </Node>
        </Node>
      </Node>
    </BinaryTree>
    <BinaryTree type="DecisionTree" boostWeight="1.0000000000000000e+00" itree="30">
      <Node pos="s" depth="0" NCoef="0" IVar="1" Cut="7.4377149343490601e-02" cType="1" res="-3.6236610263586044e-02" rms="3.6881256103515625e-01" purity="3.3372068405151367e-01" nType="0">
        <Node pos="l" depth="1" NCoef="0" IVar="0" Cut="1.6750940680503845e-01" cType="0" res="6.7097939550876617e-02" rms="4.1043889522552490e-01" purity="5.2895277738571167e-01" nType="0">
          <Node pos="l" depth="2" NCoef="0" IVar="3" Cut="-1.5105757713317871e+00" cType="1" res="1.3878655433654785e-01" rms="3.5845768451690674e-01" purity="6.9826084375381470e-01" nType="0">
            <Node pos="l" depth="3" NCoef="0" IVar="-1" Cut="0.0000000000000000e+00" cType="1" res="3.2630860805511475e-02" rms="2.9128110408782959e-01" purity="8.8855421543121338e-01" nType="1"/>
            <Node pos="r" depth="3" NCoef="0" IVar="-1" Cut="0.0000000000000000e+00" cType="1" res="1.2820549309253693e-02" rms="3.7418329715728760e-01" purity="6.2102687358856201e-01" nType="1"/>
          </Node>
          <Node pos="r" depth="2" NCoef="0" IVar="3" Cut="2.1002898216247559e+00" cType="0" res="4.4936135411262512e-02" rms="4.2277172207832336e-01" purity="4.7661289572715759e-01" nType="0">
            <Node pos="l" depth="3" NCoef="0" IVar="-1" Cut="0.0000000000000000e+00" cType="1" res="1.8375026062130928e-02" rms="3.7197577953338623e-01" purity="7.8960394859313965e-01" nType="1"/>
